network unknown {
}
variable column1 {
  type discrete[216] { 0, 1, 2, 3, 4, 5, 6, 7, 8, 9, 10, 11, 12, 13, 14, 15, 16, 17, 18, 19, 20, 21, 22, 23, 24, 25, 26, 27, 28, 29, 30, 31, 32, 33, 34, 35, 36, 37, 38, 39, 40, 41, 42, 43, 44, 45, 46, 47, 48, 49, 50, 51, 52, 53, 54, 55, 56, 57, 58, 59, 60, 61, 62, 63, 64, 65, 66, 67, 68, 69, 70, 71, 72, 73, 74, 75, 76, 77, 78, 79, 80, 81, 82, 83, 84, 85, 86, 87, 88, 89, 90, 91, 92, 93, 94, 95, 96, 97, 98, 99, 100, 101, 102, 103, 104, 105, 106, 107, 108, 109, 110, 111, 112, 113, 114, 115, 116, 117, 118, 119, 120, 121, 122, 123, 124, 125, 126, 127, 128, 129, 130, 131, 132, 133, 134, 135, 136, 137, 138, 139, 140, 141, 142, 143, 144, 145, 146, 147, 148, 149, 150, 151, 152, 153, 154, 155, 156, 157, 158, 159, 160, 161, 162, 163, 164, 165, 166, 167, 168, 169, 170, 171, 172, 173, 174, 175, 176, 177, 178, 179, 180, 181, 182, 183, 184, 185, 186, 187, 188, 189, 190, 191, 192, 193, 194, 195, 196, 197, 198, 199, 200, 201, 202, 203, 204, 205, 206, 207, 208, 209, 210, 211, 212, 213, 214, 215 };
}
variable column2 {
  type discrete[10] { 0, 1, 2, 3, 4, 5, 6, 7, 8, 9 };
}
variable column3 {
  type discrete[216] { 0, 1, 2, 3, 4, 5, 6, 7, 8, 9, 10, 11, 12, 13, 14, 15, 16, 17, 18, 19, 20, 21, 22, 23, 24, 25, 26, 27, 28, 29, 30, 31, 32, 33, 34, 35, 36, 37, 38, 39, 40, 41, 42, 43, 44, 45, 46, 47, 48, 49, 50, 51, 52, 53, 54, 55, 56, 57, 58, 59, 60, 61, 62, 63, 64, 65, 66, 67, 68, 69, 70, 71, 72, 73, 74, 75, 76, 77, 78, 79, 80, 81, 82, 83, 84, 85, 86, 87, 88, 89, 90, 91, 92, 93, 94, 95, 96, 97, 98, 99, 100, 101, 102, 103, 104, 105, 106, 107, 108, 109, 110, 111, 112, 113, 114, 115, 116, 117, 118, 119, 120, 121, 122, 123, 124, 125, 126, 127, 128, 129, 130, 131, 132, 133, 134, 135, 136, 137, 138, 139, 140, 141, 142, 143, 144, 145, 146, 147, 148, 149, 150, 151, 152, 153, 154, 155, 156, 157, 158, 159, 160, 161, 162, 163, 164, 165, 166, 167, 168, 169, 170, 171, 172, 173, 174, 175, 176, 177, 178, 179, 180, 181, 182, 183, 184, 185, 186, 187, 188, 189, 190, 191, 192, 193, 194, 195, 196, 197, 198, 199, 200, 201, 202, 203, 204, 205, 206, 207, 208, 209, 210, 211, 212, 213, 214, 215 };
}
variable column4 {
  type discrete[10] { 0, 1, 2, 3, 4, 5, 6, 7, 8, 9 };
}
variable column5 {
  type discrete[12] { 0, 1, 2, 3, 4, 5, 6, 7, 8, 9, 10, 11 };
}
variable column6 {
  type discrete[18] { 0, 1, 2, 3, 4, 5, 6, 7, 8, 9, 10, 11, 12, 13, 14, 15, 16, 17 };
}
variable column7 {
  type discrete[10] { 0, 1, 2, 3, 4, 5, 6, 7, 8, 9 };
}
variable column8 {
  type discrete[24] { 0, 1, 2, 3, 4, 5, 6, 7, 8, 9, 10, 11, 12, 13, 14, 15, 16, 17, 18, 19, 20, 21, 22, 23 };
}
variable column9 {
  type discrete[9] { 0, 1, 2, 3, 4, 5, 6, 7, 8 };
}
variable column10 {
  type discrete[10] { 0, 1, 2, 3, 4, 5, 6, 7, 8, 9 };
}
variable column11 {
  type discrete[6] { 0, 1, 2, 3, 4, 5 };
}
variable column12 {
  type discrete[6] { 0, 1, 2, 3, 4, 5 };
}
variable column13 {
  type discrete[6] { 0, 1, 2, 3, 4, 5 };
}
variable column14 {
  type discrete[10] { 0, 1, 2, 3, 4, 5, 6, 7, 8, 9 };
}
variable column15 {
  type discrete[10] { 0, 1, 2, 3, 4, 5, 6, 7, 8, 9 };
}
variable column16 {
  type discrete[10] { 0, 1, 2, 3, 4, 5, 6, 7, 8, 9 };
}
variable column17 {
  type discrete[10] { 0, 1, 2, 3, 4, 5, 6, 7, 8, 9 };
}
variable column18 {
  type discrete[10] { 0, 1, 2, 3, 4, 5, 6, 7, 8, 9 };
}
variable column19 {
  type discrete[10] { 0, 1, 2, 3, 4, 5, 6, 7, 8, 9 };
}
variable column20 {
  type discrete[10] { 0, 1, 2, 3, 4, 5, 6, 7, 8, 9 };
}
variable column21 {
  type discrete[10] { 0, 1, 2, 3, 4, 5, 6, 7, 8, 9 };
}
variable column22 {
  type discrete[10] { 0, 1, 2, 3, 4, 5, 6, 7, 8, 9 };
}
variable column23 {
  type discrete[10] { 0, 1, 2, 3, 4, 5, 6, 7, 8, 9 };
}
variable column24 {
  type discrete[10] { 0, 1, 2, 3, 4, 5, 6, 7, 8, 9 };
}
variable column25 {
  type discrete[10] { 0, 1, 2, 3, 4, 5, 6, 7, 8, 9 };
}
variable column26 {
  type discrete[10] { 0, 1, 2, 3, 4, 5, 6, 7, 8, 9 };
}
variable column27 {
  type discrete[10] { 0, 1, 2, 3, 4, 5, 6, 7, 8, 9 };
}
variable column28 {
  type discrete[10] { 0, 1, 2, 3, 4, 5, 6, 7, 8, 9 };
}
variable column29 {
  type discrete[10] { 0, 1, 2, 3, 4, 5, 6, 7, 8, 9 };
}
variable column30 {
  type discrete[10] { 0, 1, 2, 3, 4, 5, 6, 7, 8, 9 };
}

probability (column1) {
  table 0.0063, 0.0040, 0.0077, 0.0014, 0.0047, 0.0035, 0.0020, 0.0017, 0.0038, 0.0056, 0.0047, 0.0021, 0.0024, 0.0031, 0.0047, 0.0051, 0.0073, 0.0025, 0.0070, 0.0071, 0.0049, 0.0125, 0.0072, 0.0029, 0.0099, 0.0025, 0.0047, 0.0066, 0.0040, 0.0017, 0.0060, 0.0038, 0.0039, 0.0030, 0.0089, 0.0053, 0.0059, 0.0068, 0.0041, 0.0058, 0.0083, 0.0026, 0.0013, 0.0098, 0.0072, 0.0030, 0.0039, 0.0056, 0.0122, 0.0078, 0.0031, 0.0011, 0.0075, 0.0045, 0.0064, 0.0054, 0.0061, 0.0039, 0.0054, 0.0061, 0.0058, 0.0032, 0.0053, 0.0025, 0.0034, 0.0016, 0.0046, 0.0064, 0.0077, 0.0047, 0.0043, 0.0063, 0.0089, 0.0035, 0.0017, 0.0033, 0.0022, 0.0032, 0.0078, 0.0037, 0.0051, 0.0022, 0.0066, 0.0054, 0.0044, 0.0046, 0.0058, 0.0060, 0.0080, 0.0036, 0.0042, 0.0014, 0.0033, 0.0048, 0.0029, 0.0044, 0.0029, 0.0035, 0.0049, 0.0015, 0.0055, 0.0051, 0.0062, 0.0098, 0.0015, 0.0062, 0.0112, 0.0037, 0.0034, 0.0059, 0.0015, 0.0059, 0.0081, 0.0045, 0.0029, 0.0040, 0.0022, 0.0072, 0.0018, 0.0048, 0.0033, 0.0050, 0.0063, 0.0028, 0.0054, 0.0026, 0.0031, 0.0070, 0.0030, 0.0037, 0.0060, 0.0036, 0.0061, 0.0041, 0.0042, 0.0038, 0.0027, 0.0031, 0.0024, 0.0024, 0.0044, 0.0025, 0.0046, 0.0042, 0.0056, 0.0028, 0.0072, 0.0019, 0.0057, 0.0037, 0.0080, 0.0033, 0.0014, 0.0023, 0.0048, 0.0014, 0.0026, 0.0046, 0.0046, 0.0059, 0.0014, 0.0045, 0.0045, 0.0038, 0.0056, 0.0059, 0.0112, 0.0053, 0.0042, 0.0051, 0.0012, 0.0048, 0.0014, 0.0033, 0.0066, 0.0062, 0.0071, 0.0057, 0.0032, 0.0056, 0.0041, 0.0073, 0.0043, 0.0031, 0.0029, 0.0048, 0.0049, 0.0059, 0.0054, 0.0021, 0.0039, 0.0071, 0.0022, 0.0029, 0.0075, 0.0031, 0.0024, 0.0031, 0.0090, 0.0027, 0.0045, 0.0036, 0.0029, 0.0047, 0.0043, 0.0061, 0.0060, 0.0025, 0.0018, 0.0065, 0.0034, 0.0039, 0.0043, 0.0064, 0.0034, 0.0030;
}

probability (column2 | column1) {
  (0) 0.9800, 0.0143, 0.0020, 0.0020, 0.0003, 0.0002, 0.0003, 0.0002, 0.0006, 0.0001;
  (1) 0.0117, 0.9800, 0.0011, 0.0055, 0.0013, 0.0004, 0.0000, 0.0000, 0.0000, 0.0000;
  (2) 0.0151, 0.0005, 0.0022, 0.0011, 0.9800, 0.0003, 0.0004, 0.0003, 0.0001, 0.0000;
  (3) 0.0189, 0.0001, 0.0005, 0.0002, 0.0002, 0.0000, 0.0000, 0.0000, 0.0001, 0.9800;
  (4) 0.0046, 0.0040, 0.0034, 0.0059, 0.0006, 0.0005, 0.9800, 0.0005, 0.0001, 0.0004;
  (5) 0.0195, 0.0005, 0.0000, 0.9800, 0.0000, 0.0000, 0.0000, 0.0000, 0.0000, 0.0000;
  (6) 0.0115, 0.0003, 0.0045, 0.0028, 0.0003, 0.0002, 0.0001, 0.0002, 0.9800, 0.0001;
  (7) 0.0107, 0.0009, 0.0076, 0.0005, 0.0003, 0.0000, 0.0000, 0.9800, 0.0000, 0.0000;
  (8) 0.0183, 0.0001, 0.0009, 0.0002, 0.0002, 0.9800, 0.0003, 0.0000, 0.0000, 0.0000;
  (9) 0.0126, 0.0036, 0.9800, 0.0008, 0.0001, 0.0018, 0.0007, 0.0001, 0.0003, 0.0000;
  (10) 0.0074, 0.0052, 0.0056, 0.0011, 0.0001, 0.0002, 0.9800, 0.0002, 0.0001, 0.0001;
  (11) 0.0079, 0.0102, 0.0007, 0.9800, 0.0000, 0.0004, 0.0007, 0.0001, 0.0000, 0.0000;
  (12) 0.0159, 0.0018, 0.9800, 0.0002, 0.0002, 0.0009, 0.0004, 0.0001, 0.0003, 0.0002;
  (13) 0.0044, 0.0062, 0.0038, 0.0005, 0.0010, 0.9800, 0.0021, 0.0012, 0.0003, 0.0005;
  (14) 0.9800, 0.0044, 0.0131, 0.0003, 0.0013, 0.0006, 0.0001, 0.0002, 0.0000, 0.0000;
  (15) 0.0059, 0.0053, 0.0040, 0.0025, 0.0005, 0.0005, 0.0011, 0.0002, 0.9800, 0.0000;
  (16) 0.0184, 0.0012, 0.0001, 0.0002, 0.0001, 0.0000, 0.0000, 0.0000, 0.0000, 0.9800;
  (17) 0.0074, 0.9800, 0.0083, 0.0022, 0.0011, 0.0000, 0.0000, 0.0003, 0.0004, 0.0003;
  (18) 0.0182, 0.0005, 0.0003, 0.0006, 0.9800, 0.0001, 0.0000, 0.0001, 0.0001, 0.0001;
  (19) 0.0133, 0.0009, 0.0052, 0.0000, 0.0002, 0.0000, 0.0003, 0.9800, 0.0000, 0.0001;
  (20) 0.0179, 0.0006, 0.0014, 0.0001, 0.9800, 0.0000, 0.0000, 0.0000, 0.0000, 0.0000;
  (21) 0.9800, 0.0170, 0.0009, 0.0015, 0.0003, 0.0002, 0.0001, 0.0000, 0.0000, 0.0000;
  (22) 0.0023, 0.0013, 0.9800, 0.0027, 0.0028, 0.0073, 0.0032, 0.0001, 0.0001, 0.0002;
  (23) 0.0155, 0.0036, 0.0004, 0.0004, 0.0001, 0.9800, 0.0000, 0.0000, 0.0000, 0.0000;
  (24) 0.0198, 0.0000, 0.0001, 0.0001, 0.0000, 0.0000, 0.0000, 0.9800, 0.0000, 0.0000;
  (25) 0.0152, 0.0015, 0.0006, 0.9800, 0.0013, 0.0003, 0.0007, 0.0003, 0.0001, 0.0000;
  (26) 0.0098, 0.0027, 0.0003, 0.0048, 0.0006, 0.0016, 0.0001, 0.0001, 0.0000, 0.9800;
  (27) 0.0128, 0.9800, 0.0027, 0.0043, 0.0000, 0.0002, 0.0000, 0.0000, 0.0000, 0.0000;
  (28) 0.0058, 0.0049, 0.0050, 0.0023, 0.0004, 0.0005, 0.9800, 0.0003, 0.0006, 0.0002;
  (29) 0.0035, 0.0039, 0.0083, 0.0034, 0.0007, 0.0000, 0.0002, 0.0000, 0.9800, 0.0000;
  (30) 0.0036, 0.0064, 0.9800, 0.0028, 0.0031, 0.0035, 0.0000, 0.0001, 0.0001, 0.0004;
  (31) 0.0073, 0.0048, 0.0023, 0.0052, 0.0002, 0.0001, 0.0000, 0.9800, 0.0001, 0.0000;
  (32) 0.0148, 0.0011, 0.0011, 0.0029, 0.0000, 0.0001, 0.0000, 0.0000, 0.9800, 0.0000;
  (33) 0.0131, 0.9800, 0.0060, 0.0008, 0.0000, 0.0001, 0.0000, 0.0000, 0.0000, 0.0000;
  (34) 0.0154, 0.0035, 0.0006, 0.9800, 0.0002, 0.0002, 0.0000, 0.0001, 0.0000, 0.0000;
  (35) 0.0106, 0.0089, 0.0004, 0.0000, 0.9800, 0.0000, 0.0001, 0.0000, 0.0000, 0.0000;
  (36) 0.9800, 0.0128, 0.0023, 0.0022, 0.0020, 0.0004, 0.0000, 0.0003, 0.0000, 0.0000;
  (37) 0.0196, 0.0003, 0.0001, 0.0000, 0.0000, 0.0000, 0.0000, 0.0000, 0.0000, 0.9800;
  (38) 0.0138, 0.0034, 0.0024, 0.0004, 0.0000, 0.9800, 0.0000, 0.0000, 0.0000, 0.0000;
  (39) 0.0094, 0.0057, 0.0017, 0.0006, 0.0021, 0.0000, 0.9800, 0.0005, 0.0000, 0.0000;
  (40) 0.9800, 0.0099, 0.0091, 0.0006, 0.0000, 0.0000, 0.0002, 0.0000, 0.0001, 0.0001;
  (41) 0.0010, 0.9800, 0.0142, 0.0044, 0.0001, 0.0000, 0.0001, 0.0001, 0.0000, 0.0001;
  (42) 0.0075, 0.0022, 0.0085, 0.0015, 0.0000, 0.0001, 0.9800, 0.0002, 0.0000, 0.0000;
  (43) 0.0131, 0.0033, 0.0006, 0.9800, 0.0005, 0.0015, 0.0007, 0.0001, 0.0002, 0.0000;
  (44) 0.0174, 0.0019, 0.9800, 0.0001, 0.0004, 0.0002, 0.0000, 0.0000, 0.0000, 0.0000;
  (45) 0.0060, 0.0099, 0.0021, 0.0017, 0.0002, 0.0000, 0.0000, 0.0000, 0.9800, 0.0001;
  (46) 0.0128, 0.0008, 0.0015, 0.0005, 0.0012, 0.0002, 0.0022, 0.0003, 0.0005, 0.9800;
  (47) 0.0084, 0.0108, 0.0008, 0.0000, 0.9800, 0.0000, 0.0000, 0.0000, 0.0000, 0.0000;
  (48) 0.0039, 0.0141, 0.0007, 0.0005, 0.0006, 0.9800, 0.0001, 0.0001, 0.0000, 0.0000;
  (49) 0.0187, 0.0002, 0.0007, 0.0004, 0.0000, 0.0000, 0.0000, 0.9800, 0.0000, 0.0000;
  (50) 0.9800, 0.0158, 0.0019, 0.0017, 0.0004, 0.0001, 0.0001, 0.0000, 0.0000, 0.0000;
  (51) 0.0112, 0.0030, 0.0056, 0.0000, 0.0002, 0.9800, 0.0000, 0.0000, 0.0000, 0.0000;
  (52) 0.0146, 0.0050, 0.0004, 0.0000, 0.0000, 0.0000, 0.9800, 0.0000, 0.0000, 0.0000;
  (53) 0.0064, 0.0097, 0.0016, 0.0003, 0.0012, 0.0008, 0.0000, 0.0000, 0.9800, 0.0000;
  (54) 0.0145, 0.0055, 0.0000, 0.0000, 0.9800, 0.0000, 0.0000, 0.0000, 0.0000, 0.0000;
  (55) 0.0109, 0.0080, 0.9800, 0.0000, 0.0009, 0.0001, 0.0000, 0.0001, 0.0000, 0.0000;
  (56) 0.0030, 0.0021, 0.0116, 0.0026, 0.0002, 0.0002, 0.0001, 0.0000, 0.0002, 0.9800;
  (57) 0.0099, 0.9800, 0.0002, 0.0025, 0.0070, 0.0000, 0.0003, 0.0001, 0.0000, 0.0000;
  (58) 0.0009, 0.0164, 0.0001, 0.0022, 0.0000, 0.0003, 0.0000, 0.9800, 0.0001, 0.0000;
  (59) 0.0178, 0.0004, 0.0004, 0.9800, 0.0007, 0.0001, 0.0000, 0.0002, 0.0003, 0.0001;
  (60) 0.0173, 0.0002, 0.0003, 0.9800, 0.0017, 0.0000, 0.0002, 0.0002, 0.0001, 0.0000;
  (61) 0.0019, 0.0035, 0.0014, 0.0093, 0.0032, 0.9800, 0.0001, 0.0005, 0.0001, 0.0000;
  (62) 0.0152, 0.0032, 0.0009, 0.0006, 0.0001, 0.0000, 0.0000, 0.0000, 0.9800, 0.0000;
  (63) 0.9800, 0.0021, 0.0175, 0.0003, 0.0001, 0.0000, 0.0000, 0.0000, 0.0000, 0.0000;
  (64) 0.0102, 0.0010, 0.0067, 0.0003, 0.9800, 0.0013, 0.0002, 0.0001, 0.0002, 0.0000;
  (65) 0.0050, 0.9800, 0.0109, 0.0025, 0.0010, 0.0004, 0.0000, 0.0002, 0.0000, 0.0000;
  (66) 0.0170, 0.0000, 0.9800, 0.0029, 0.0000, 0.0001, 0.0000, 0.0000, 0.0000, 0.0000;
  (67) 0.0175, 0.0015, 0.0005, 0.0001, 0.0003, 0.0001, 0.0000, 0.0000, 0.0000, 0.9800;
  (68) 0.0003, 0.0130, 0.0039, 0.0020, 0.0004, 0.0000, 0.0002, 0.9800, 0.0000, 0.0002;
  (69) 0.0099, 0.0032, 0.0023, 0.0023, 0.0005, 0.0015, 0.9800, 0.0002, 0.0001, 0.0000;
  (70) 0.0110, 0.0019, 0.0042, 0.0023, 0.0002, 0.0004, 0.0000, 0.0000, 0.9800, 0.0000;
  (71) 0.0160, 0.0009, 0.0030, 0.0001, 0.0000, 0.0000, 0.9800, 0.0000, 0.0000, 0.0000;
  (72) 0.0043, 0.0056, 0.0072, 0.0017, 0.0004, 0.0001, 0.0002, 0.9800, 0.0003, 0.0002;
  (73) 0.0067, 0.9800, 0.0036, 0.0040, 0.0041, 0.0001, 0.0003, 0.0006, 0.0005, 0.0001;
  (74) 0.0057, 0.0133, 0.0005, 0.0004, 0.0000, 0.9800, 0.0001, 0.0000, 0.0000, 0.0000;
  (75) 0.0124, 0.0046, 0.9800, 0.0023, 0.0003, 0.0004, 0.0000, 0.0000, 0.0000, 0.0000;
  (76) 0.9800, 0.0130, 0.0004, 0.0006, 0.0044, 0.0007, 0.0008, 0.0001, 0.0000, 0.0000;
  (77) 0.0075, 0.0113, 0.0005, 0.9800, 0.0000, 0.0006, 0.0001, 0.0000, 0.0000, 0.0000;
  (78) 0.0010, 0.0104, 0.0030, 0.0016, 0.9800, 0.0007, 0.0017, 0.0007, 0.0004, 0.0005;
  (79) 0.0039, 0.0131, 0.0014, 0.0010, 0.0002, 0.0003, 0.0001, 0.0000, 0.0000, 0.9800;
  (80) 0.0035, 0.0065, 0.0099, 0.9800, 0.0001, 0.0000, 0.0000, 0.0000, 0.0000, 0.0000;
  (81) 0.0133, 0.0047, 0.0002, 0.0016, 0.0000, 0.0001, 0.0000, 0.0001, 0.9800, 0.0000;
  (82) 0.9800, 0.0164, 0.0020, 0.0015, 0.0001, 0.0000, 0.0000, 0.0000, 0.0000, 0.0000;
  (83) 0.0195, 0.0003, 0.0002, 0.0000, 0.0000, 0.0000, 0.0000, 0.9800, 0.0000, 0.0000;
  (84) 0.0026, 0.0152, 0.0021, 0.0001, 0.0000, 0.0000, 0.9800, 0.0000, 0.0000, 0.0000;
  (85) 0.0049, 0.0085, 0.0046, 0.0002, 0.0002, 0.0011, 0.0002, 0.0002, 0.0001, 0.9800;
  (86) 0.0062, 0.9800, 0.0051, 0.0035, 0.0050, 0.0001, 0.0000, 0.0001, 0.0000, 0.0000;
  (87) 0.0154, 0.0027, 0.0004, 0.0003, 0.0011, 0.9800, 0.0000, 0.0001, 0.0000, 0.0000;
  (88) 0.0020, 0.0037, 0.0003, 0.0052, 0.9800, 0.0004, 0.0018, 0.0017, 0.0046, 0.0003;
  (89) 0.0052, 0.0089, 0.9800, 0.0035, 0.0017, 0.0003, 0.0003, 0.0000, 0.0000, 0.0001;
  (90) 0.0185, 0.0010, 0.0003, 0.0002, 0.0000, 0.9800, 0.0000, 0.0000, 0.0000, 0.0000;
  (91) 0.0068, 0.0021, 0.0008, 0.0093, 0.0001, 0.0008, 0.9800, 0.0001, 0.0000, 0.0000;
  (92) 0.0041, 0.0056, 0.0092, 0.0001, 0.0003, 0.0002, 0.0003, 0.0000, 0.0002, 0.9800;
  (93) 0.0089, 0.0056, 0.0004, 0.0006, 0.9800, 0.0013, 0.0024, 0.0003, 0.0001, 0.0004;
  (94) 0.0102, 0.0082, 0.0013, 0.9800, 0.0000, 0.0002, 0.0000, 0.0001, 0.0000, 0.0000;
  (95) 0.9800, 0.0073, 0.0112, 0.0004, 0.0000, 0.0003, 0.0000, 0.0007, 0.0001, 0.0000;
  (96) 0.0056, 0.0144, 0.0000, 0.0000, 0.0000, 0.0000, 0.0000, 0.0000, 0.9800, 0.0000;
  (97) 0.0136, 0.0010, 0.9800, 0.0007, 0.0018, 0.0010, 0.0015, 0.0003, 0.0000, 0.0001;
  (98) 0.0058, 0.0108, 0.0021, 0.0008, 0.0004, 0.0000, 0.0001, 0.9800, 0.0000, 0.0000;
  (99) 0.0055, 0.9800, 0.0048, 0.0081, 0.0013, 0.0002, 0.0001, 0.0000, 0.0000, 0.0000;
  (100) 0.0189, 0.0003, 0.0006, 0.0002, 0.0000, 0.0000, 0.9800, 0.0000, 0.0000, 0.0000;
  (101) 0.9800, 0.0105, 0.0086, 0.0003, 0.0005, 0.0000, 0.0000, 0.0001, 0.0000, 0.0000;
  (102) 0.0112, 0.0066, 0.0006, 0.0013, 0.0000, 0.0002, 0.0001, 0.9800, 0.0000, 0.0000;
  (103) 0.0053, 0.0067, 0.0001, 0.0045, 0.0030, 0.9800, 0.0004, 0.0000, 0.0000, 0.0000;
  (104) 0.0092, 0.0011, 0.0034, 0.0009, 0.0049, 0.0001, 0.0001, 0.0002, 0.0001, 0.9800;
  (105) 0.0162, 0.9800, 0.0033, 0.0004, 0.0001, 0.0000, 0.0000, 0.0000, 0.0000, 0.0000;
  (106) 0.0023, 0.0080, 0.0039, 0.0006, 0.0008, 0.0028, 0.0009, 0.0004, 0.9800, 0.0003;
  (107) 0.0199, 0.0000, 0.0001, 0.9800, 0.0000, 0.0000, 0.0000, 0.0000, 0.0000, 0.0000;
  (108) 0.0123, 0.0046, 0.0027, 0.0000, 0.9800, 0.0000, 0.0002, 0.0001, 0.0000, 0.0001;
  (109) 0.0050, 0.0125, 0.9800, 0.0007, 0.0004, 0.0007, 0.0003, 0.0000, 0.0002, 0.0002;
  (110) 0.0100, 0.0062, 0.0011, 0.0023, 0.0003, 0.0000, 0.0000, 0.0000, 0.0001, 0.9800;
  (111) 0.0107, 0.0016, 0.0043, 0.0006, 0.0021, 0.9800, 0.0006, 0.0000, 0.0000, 0.0001;
  (112) 0.0179, 0.0013, 0.0005, 0.0002, 0.0001, 0.0000, 0.0000, 0.0000, 0.9800, 0.0000;
  (113) 0.0137, 0.0012, 0.0018, 0.9800, 0.0018, 0.0009, 0.0005, 0.0000, 0.0001, 0.0000;
  (114) 0.0036, 0.0153, 0.0006, 0.0002, 0.9800, 0.0001, 0.0002, 0.0000, 0.0000, 0.0000;
  (115) 0.0011, 0.0174, 0.0002, 0.0002, 0.0009, 0.0002, 0.9800, 0.0000, 0.0000, 0.0000;
  (116) 0.0079, 0.0083, 0.9800, 0.0015, 0.0023, 0.0000, 0.0000, 0.0000, 0.0000, 0.0000;
  (117) 0.0092, 0.0036, 0.0013, 0.0013, 0.0021, 0.0013, 0.0009, 0.9800, 0.0002, 0.0001;
  (118) 0.0037, 0.9800, 0.0077, 0.0076, 0.0003, 0.0000, 0.0006, 0.0000, 0.0000, 0.0001;
  (119) 0.9800, 0.0072, 0.0026, 0.0060, 0.0033, 0.0001, 0.0002, 0.0002, 0.0002, 0.0002;
  (120) 0.0099, 0.0026, 0.0047, 0.0004, 0.0004, 0.0005, 0.0006, 0.0003, 0.9800, 0.0006;
  (121) 0.9800, 0.0047, 0.0124, 0.0002, 0.0025, 0.0000, 0.0001, 0.0000, 0.0001, 0.0000;
  (122) 0.0073, 0.0090, 0.0021, 0.0016, 0.0000, 0.0000, 0.9800, 0.0000, 0.0000, 0.0000;
  (123) 0.0015, 0.0087, 0.0043, 0.0044, 0.9800, 0.0010, 0.0001, 0.0000, 0.0000, 0.0000;
  (124) 0.0025, 0.0045, 0.0120, 0.0004, 0.0002, 0.0002, 0.0001, 0.0001, 0.0000, 0.9800;
  (125) 0.0105, 0.0041, 0.0009, 0.0041, 0.0004, 0.0000, 0.0000, 0.9800, 0.0000, 0.0000;
  (126) 0.0126, 0.9800, 0.0072, 0.0001, 0.0000, 0.0000, 0.0001, 0.0000, 0.0000, 0.0000;
  (127) 0.0168, 0.0016, 0.0002, 0.0008, 0.0000, 0.9800, 0.0002, 0.0003, 0.0001, 0.0000;
  (128) 0.0049, 0.0119, 0.9800, 0.0026, 0.0003, 0.0003, 0.0000, 0.0000, 0.0000, 0.0000;
  (129) 0.0002, 0.0040, 0.0073, 0.9800, 0.0063, 0.0017, 0.0002, 0.0003, 0.0000, 0.0000;
  (130) 0.0040, 0.0079, 0.0054, 0.0014, 0.0002, 0.0011, 0.0000, 0.0000, 0.0000, 0.9800;
  (131) 0.0073, 0.0078, 0.0015, 0.0029, 0.9800, 0.0003, 0.0001, 0.0000, 0.0000, 0.0001;
  (132) 0.0181, 0.0017, 0.0002, 0.0000, 0.0000, 0.0000, 0.9800, 0.0000, 0.0000, 0.0000;
  (133) 0.0081, 0.0091, 0.0008, 0.0002, 0.0007, 0.9800, 0.0007, 0.0001, 0.0003, 0.0000;
  (134) 0.0018, 0.0118, 0.9800, 0.0039, 0.0018, 0.0006, 0.0000, 0.0000, 0.0000, 0.0001;
  (135) 0.9800, 0.0175, 0.0017, 0.0001, 0.0004, 0.0001, 0.0002, 0.0000, 0.0000, 0.0000;
  (136) 0.0198, 0.9800, 0.0001, 0.0001, 0.0000, 0.0000, 0.0000, 0.0000, 0.0000, 0.0000;
  (137) 0.0197, 0.0001, 0.0002, 0.0000, 0.0000, 0.0000, 0.0000, 0.0000, 0.9800, 0.0000;
  (138) 0.0134, 0.0042, 0.0010, 0.0012, 0.0001, 0.0001, 0.0000, 0.9800, 0.0000, 0.0000;
  (139) 0.0005, 0.0066, 0.0028, 0.9800, 0.0017, 0.0042, 0.0024, 0.0008, 0.0004, 0.0006;
  (140) 0.0111, 0.0053, 0.0023, 0.9800, 0.0012, 0.0000, 0.0001, 0.0000, 0.0000, 0.0000;
  (141) 0.0156, 0.0016, 0.0014, 0.0002, 0.0011, 0.0001, 0.9800, 0.0000, 0.0000, 0.0000;
  (142) 0.0178, 0.0011, 0.0010, 0.0001, 0.0000, 0.9800, 0.0000, 0.0000, 0.0000, 0.0000;
  (143) 0.0143, 0.0005, 0.0006, 0.0008, 0.0033, 0.0003, 0.0001, 0.0000, 0.9800, 0.0001;
  (144) 0.0033, 0.0034, 0.9800, 0.0123, 0.0003, 0.0005, 0.0001, 0.0000, 0.0000, 0.0001;
  (145) 0.0017, 0.0010, 0.0135, 0.0009, 0.9800, 0.0000, 0.0004, 0.0000, 0.0002, 0.0023;
  (146) 0.0055, 0.0019, 0.0022, 0.0019, 0.0036, 0.0042, 0.0001, 0.0000, 0.0006, 0.9800;
  (147) 0.0037, 0.9800, 0.0136, 0.0026, 0.0000, 0.0001, 0.0000, 0.0000, 0.0000, 0.0000;
  (148) 0.9800, 0.0116, 0.0039, 0.0021, 0.0006, 0.0009, 0.0008, 0.0000, 0.0000, 0.0001;
  (149) 0.0155, 0.0012, 0.0009, 0.0016, 0.0002, 0.0003, 0.0001, 0.9800, 0.0002, 0.0000;
  (150) 0.0128, 0.0026, 0.0012, 0.0012, 0.0016, 0.9800, 0.0006, 0.0000, 0.0000, 0.0000;
  (151) 0.9800, 0.0090, 0.0089, 0.0008, 0.0003, 0.0009, 0.0001, 0.0000, 0.0000, 0.0000;
  (152) 0.0169, 0.0021, 0.0006, 0.0002, 0.0001, 0.0000, 0.0001, 0.9800, 0.0000, 0.0000;
  (153) 0.0186, 0.0008, 0.0003, 0.0002, 0.9800, 0.0001, 0.0000, 0.0000, 0.0000, 0.0000;
  (154) 0.0155, 0.0041, 0.0003, 0.0000, 0.0000, 0.0001, 0.9800, 0.0000, 0.0000, 0.0000;
  (155) 0.0091, 0.0092, 0.0015, 0.9800, 0.0000, 0.0001, 0.0001, 0.0000, 0.0000, 0.0000;
  (156) 0.0047, 0.0148, 0.9800, 0.0005, 0.0000, 0.0000, 0.0000, 0.0000, 0.0000, 0.0000;
  (157) 0.0183, 0.9800, 0.0013, 0.0001, 0.0001, 0.0001, 0.0000, 0.0001, 0.0000, 0.0000;
  (158) 0.0083, 0.0009, 0.0062, 0.0013, 0.0031, 0.0002, 0.0000, 0.0000, 0.0000, 0.9800;
  (159) 0.0077, 0.0032, 0.0045, 0.0006, 0.0008, 0.0026, 0.0004, 0.0002, 0.9800, 0.0000;
  (160) 0.0049, 0.0140, 0.9800, 0.0003, 0.0007, 0.0001, 0.0000, 0.0000, 0.0000, 0.0000;
  (161) 0.0195, 0.0003, 0.0002, 0.9800, 0.0000, 0.0000, 0.0000, 0.0000, 0.0000, 0.0000;
  (162) 0.9800, 0.0166, 0.0011, 0.0018, 0.0001, 0.0001, 0.0002, 0.0000, 0.0000, 0.0001;
  (163) 0.0091, 0.0100, 0.0004, 0.0000, 0.0003, 0.0001, 0.0000, 0.0001, 0.0000, 0.9800;
  (164) 0.0118, 0.9800, 0.0068, 0.0002, 0.0009, 0.0003, 0.0000, 0.0000, 0.0000, 0.0000;
  (165) 0.0074, 0.0073, 0.0025, 0.0023, 0.0004, 0.0000, 0.9800, 0.0001, 0.0000, 0.0000;
  (166) 0.0055, 0.0035, 0.0043, 0.0022, 0.0024, 0.0021, 0.0000, 0.9800, 0.0000, 0.0000;
  (167) 0.0181, 0.0005, 0.0009, 0.0001, 0.9800, 0.0001, 0.0003, 0.0000, 0.0000, 0.0000;
  (168) 0.0147, 0.0044, 0.0007, 0.0001, 0.0001, 0.9800, 0.0000, 0.0000, 0.0000, 0.0000;
  (169) 0.0138, 0.0007, 0.0004, 0.0040, 0.0006, 0.0002, 0.0001, 0.0000, 0.9800, 0.0002;
  (170) 0.0046, 0.0026, 0.0070, 0.0007, 0.0008, 0.0043, 0.9800, 0.0000, 0.0000, 0.0000;
  (171) 0.9800, 0.0146, 0.0029, 0.0008, 0.0008, 0.0003, 0.0002, 0.0004, 0.0000, 0.0000;
  (172) 0.0075, 0.0103, 0.0007, 0.9800, 0.0013, 0.0000, 0.0001, 0.0001, 0.0000, 0.0000;
  (173) 0.0085, 0.0018, 0.0090, 0.0006, 0.0000, 0.0000, 0.0001, 0.0000, 0.9800, 0.0000;
  (174) 0.0181, 0.0007, 0.0008, 0.0001, 0.0001, 0.9800, 0.0001, 0.0000, 0.0001, 0.0000;
  (175) 0.0159, 0.9800, 0.0011, 0.0016, 0.0013, 0.0001, 0.0000, 0.0000, 0.0000, 0.0000;
  (176) 0.0106, 0.0044, 0.9800, 0.0001, 0.0005, 0.0004, 0.0002, 0.0029, 0.0004, 0.0005;
  (177) 0.0019, 0.0017, 0.0031, 0.0062, 0.0045, 0.0024, 0.0001, 0.9800, 0.0000, 0.0001;
  (178) 0.0134, 0.0018, 0.0024, 0.0012, 0.9800, 0.0006, 0.0006, 0.0000, 0.0000, 0.0000;
  (179) 0.0047, 0.0103, 0.0048, 0.0001, 0.0000, 0.0001, 0.0000, 0.0000, 0.0000, 0.9800;
  (180) 0.0127, 0.9800, 0.0010, 0.0060, 0.0002, 0.0000, 0.0000, 0.0000, 0.0001, 0.0000;
  (181) 0.0120, 0.0051, 0.0002, 0.0027, 0.0000, 0.0000, 0.9800, 0.0000, 0.0000, 0.0000;
  (182) 0.0197, 0.0001, 0.0002, 0.0000, 0.0000, 0.0000, 0.0000, 0.0000, 0.9800, 0.0000;
  (183) 0.0131, 0.0027, 0.0040, 0.0002, 0.0000, 0.0000, 0.0000, 0.9800, 0.0000, 0.0000;
  (184) 0.0143, 0.0011, 0.0001, 0.0020, 0.9800, 0.0011, 0.0012, 0.0001, 0.0001, 0.0000;
  (185) 0.0155, 0.0022, 0.0011, 0.9800, 0.0010, 0.0002, 0.0000, 0.0000, 0.0000, 0.0000;
  (186) 0.0158, 0.0019, 0.0004, 0.0016, 0.0003, 0.9800, 0.0000, 0.0000, 0.0000, 0.0000;
  (187) 0.0001, 0.0185, 0.0010, 0.0001, 0.0003, 0.0000, 0.0000, 0.0000, 0.0000, 0.9800;
  (188) 0.0175, 0.0014, 0.9800, 0.0009, 0.0001, 0.0001, 0.0000, 0.0000, 0.0000, 0.0000;
  (189) 0.9800, 0.0097, 0.0023, 0.0047, 0.0005, 0.0025, 0.0000, 0.0001, 0.0001, 0.0001;
  (190) 0.0096, 0.0032, 0.0059, 0.0002, 0.0007, 0.0002, 0.0000, 0.0000, 0.9800, 0.0002;
  (191) 0.0059, 0.0103, 0.0030, 0.9800, 0.0004, 0.0003, 0.0000, 0.0001, 0.0000, 0.0000;
  (192) 0.0072, 0.0091, 0.0012, 0.0023, 0.0000, 0.0000, 0.0000, 0.0000, 0.0002, 0.9800;
  (193) 0.0123, 0.0003, 0.0073, 0.0001, 0.9800, 0.0000, 0.0000, 0.0000, 0.0000, 0.0000;
  (194) 0.0088, 0.9800, 0.0056, 0.0010, 0.0001, 0.0016, 0.0022, 0.0002, 0.0001, 0.0004;
  (195) 0.0051, 0.0136, 0.9800, 0.0008, 0.0004, 0.0000, 0.0001, 0.0000, 0.0000, 0.0000;
  (196) 0.0038, 0.0091, 0.0021, 0.0023, 0.0014, 0.0003, 0.0001, 0.9800, 0.0003, 0.0006;
  (197) 0.0135, 0.0036, 0.0002, 0.0005, 0.0011, 0.0008, 0.9800, 0.0002, 0.0000, 0.0001;
  (198) 0.9800, 0.0122, 0.0076, 0.0001, 0.0001, 0.0000, 0.0000, 0.0000, 0.0000, 0.0000;
  (199) 0.0029, 0.0052, 0.0085, 0.0034, 0.0000, 0.9800, 0.0000, 0.0000, 0.0000, 0.0000;
  (200) 0.0136, 0.0063, 0.0000, 0.0000, 0.9800, 0.0001, 0.0000, 0.0000, 0.0000, 0.0000;
  (201) 0.0199, 0.0001, 0.9800, 0.0000, 0.0000, 0.0000, 0.0000, 0.0000, 0.0000, 0.0000;
  (202) 0.0036, 0.0054, 0.0084, 0.0012, 0.0003, 0.0005, 0.0005, 0.9800, 0.0000, 0.0001;
  (203) 0.0018, 0.0154, 0.0027, 0.0001, 0.0000, 0.0000, 0.0000, 0.0000, 0.9800, 0.0000;
  (204) 0.0044, 0.0015, 0.0117, 0.0003, 0.0001, 0.0006, 0.0008, 0.0005, 0.0001, 0.9800;
  (205) 0.0074, 0.0084, 0.0005, 0.0029, 0.0004, 0.0004, 0.9800, 0.0000, 0.0000, 0.0000;
  (206) 0.0105, 0.0013, 0.0068, 0.0010, 0.0002, 0.9800, 0.0001, 0.0001, 0.0000, 0.0000;
  (207) 0.0150, 0.0006, 0.0034, 0.9800, 0.0002, 0.0000, 0.0005, 0.0002, 0.0000, 0.0001;
  (208) 0.0184, 0.9800, 0.0003, 0.0012, 0.0001, 0.0000, 0.0000, 0.0000, 0.0000, 0.0000;
  (209) 0.9800, 0.0099, 0.0009, 0.0044, 0.0032, 0.0004, 0.0009, 0.0001, 0.0001, 0.0001;
  (210) 0.0173, 0.0008, 0.0011, 0.0002, 0.0003, 0.0002, 0.0000, 0.0000, 0.9800, 0.0001;
  (211) 0.0089, 0.0046, 0.9800, 0.0031, 0.0032, 0.0001, 0.0001, 0.0000, 0.0000, 0.0000;
  (212) 0.0109, 0.0019, 0.0059, 0.9800, 0.0004, 0.0001, 0.0004, 0.0001, 0.0003, 0.0000;
  (213) 0.0023, 0.0156, 0.0019, 0.0001, 0.9800, 0.0000, 0.0001, 0.0000, 0.0000, 0.0000;
  (214) 0.0139, 0.0043, 0.0001, 0.0016, 0.0000, 0.0001, 0.0000, 0.9800, 0.0000, 0.0000;
  (215) 0.0099, 0.9800, 0.0035, 0.0032, 0.0026, 0.0004, 0.0002, 0.0001, 0.0001, 0.0000;
}

probability (column3) {
  table 0.0026, 0.0045, 0.0066, 0.0041, 0.0047, 0.0029, 0.0062, 0.0037, 0.0031, 0.0035, 0.0049, 0.0064, 0.0053, 0.0108, 0.0082, 0.0048, 0.0036, 0.0039, 0.0044, 0.0018, 0.0095, 0.0062, 0.0034, 0.0031, 0.0067, 0.0024, 0.0061, 0.0025, 0.0039, 0.0063, 0.0061, 0.0047, 0.0041, 0.0057, 0.0080, 0.0064, 0.0035, 0.0057, 0.0035, 0.0092, 0.0016, 0.0062, 0.0032, 0.0052, 0.0040, 0.0075, 0.0029, 0.0026, 0.0071, 0.0037, 0.0027, 0.0073, 0.0038, 0.0038, 0.0046, 0.0021, 0.0047, 0.0066, 0.0075, 0.0069, 0.0028, 0.0029, 0.0023, 0.0056, 0.0047, 0.0030, 0.0022, 0.0062, 0.0057, 0.0035, 0.0061, 0.0022, 0.0038, 0.0038, 0.0051, 0.0025, 0.0040, 0.0047, 0.0023, 0.0029, 0.0057, 0.0053, 0.0059, 0.0038, 0.0045, 0.0045, 0.0010, 0.0062, 0.0060, 0.0035, 0.0027, 0.0054, 0.0106, 0.0051, 0.0022, 0.0022, 0.0058, 0.0101, 0.0046, 0.0053, 0.0028, 0.0037, 0.0026, 0.0048, 0.0028, 0.0026, 0.0055, 0.0035, 0.0048, 0.0034, 0.0041, 0.0041, 0.0038, 0.0036, 0.0076, 0.0032, 0.0027, 0.0019, 0.0027, 0.0046, 0.0078, 0.0084, 0.0058, 0.0024, 0.0052, 0.0065, 0.0073, 0.0039, 0.0031, 0.0048, 0.0035, 0.0040, 0.0040, 0.0030, 0.0048, 0.0031, 0.0043, 0.0029, 0.0030, 0.0058, 0.0039, 0.0048, 0.0056, 0.0008, 0.0041, 0.0062, 0.0042, 0.0020, 0.0084, 0.0063, 0.0065, 0.0026, 0.0040, 0.0064, 0.0086, 0.0092, 0.0038, 0.0076, 0.0065, 0.0067, 0.0029, 0.0049, 0.0045, 0.0057, 0.0068, 0.0037, 0.0038, 0.0076, 0.0052, 0.0053, 0.0054, 0.0039, 0.0051, 0.0017, 0.0066, 0.0024, 0.0046, 0.0029, 0.0021, 0.0039, 0.0050, 0.0071, 0.0058, 0.0022, 0.0042, 0.0048, 0.0068, 0.0033, 0.0021, 0.0061, 0.0038, 0.0028, 0.0034, 0.0037, 0.0062, 0.0055, 0.0029, 0.0044, 0.0046, 0.0055, 0.0036, 0.0072, 0.0033, 0.0017, 0.0042, 0.0077, 0.0045, 0.0066, 0.0026, 0.0036, 0.0031, 0.0024, 0.0051, 0.0064, 0.0034, 0.0051;
}

probability (column4 | column3) {
  (0) 0.0116, 0.0011, 0.0012, 0.9800, 0.0027, 0.0013, 0.0008, 0.0004, 0.0009, 0.0000;
  (1) 0.0034, 0.0018, 0.0142, 0.0003, 0.0003, 0.0000, 0.0000, 0.9800, 0.0000, 0.0000;
  (2) 0.0070, 0.9800, 0.0010, 0.0037, 0.0065, 0.0003, 0.0000, 0.0005, 0.0008, 0.0002;
  (3) 0.0052, 0.0142, 0.0005, 0.0000, 0.0000, 0.0000, 0.9800, 0.0000, 0.0000, 0.0001;
  (4) 0.0186, 0.0009, 0.0004, 0.0001, 0.0000, 0.0000, 0.0000, 0.0000, 0.0000, 0.9800;
  (5) 0.9800, 0.0025, 0.0175, 0.0000, 0.0000, 0.0000, 0.0000, 0.0000, 0.0000, 0.0000;
  (6) 0.0194, 0.0005, 0.0000, 0.0001, 0.0000, 0.9800, 0.0000, 0.0000, 0.0000, 0.0000;
  (7) 0.0160, 0.0040, 0.0000, 0.0000, 0.9800, 0.0000, 0.0000, 0.0000, 0.0000, 0.0000;
  (8) 0.0045, 0.0017, 0.9800, 0.0017, 0.0094, 0.0012, 0.0012, 0.0002, 0.0001, 0.0000;
  (9) 0.0101, 0.0068, 0.0029, 0.0000, 0.0001, 0.0000, 0.0000, 0.0000, 0.9800, 0.0001;
  (10) 0.0092, 0.9800, 0.0040, 0.0045, 0.0011, 0.0011, 0.0000, 0.0001, 0.0000, 0.0000;
  (11) 0.9800, 0.0180, 0.0018, 0.0001, 0.0001, 0.0000, 0.0000, 0.0000, 0.0000, 0.0000;
  (12) 0.0069, 0.0079, 0.9800, 0.0000, 0.0014, 0.0020, 0.0011, 0.0003, 0.0004, 0.0000;
  (13) 0.0163, 0.0015, 0.0015, 0.0004, 0.0003, 0.0000, 0.0000, 0.0000, 0.9800, 0.0000;
  (14) 0.0009, 0.0156, 0.0023, 0.0012, 0.0000, 0.0000, 0.0000, 0.0000, 0.0000, 0.9800;
  (15) 0.0063, 0.0002, 0.0087, 0.0027, 0.0003, 0.9800, 0.0002, 0.0006, 0.0003, 0.0007;
  (16) 0.0034, 0.0095, 0.0029, 0.0010, 0.0010, 0.0017, 0.0004, 0.9800, 0.0001, 0.0000;
  (17) 0.0177, 0.0015, 0.0003, 0.0001, 0.9800, 0.0001, 0.0000, 0.0001, 0.0001, 0.0001;
  (18) 0.0162, 0.0001, 0.0018, 0.9800, 0.0016, 0.0000, 0.0001, 0.0000, 0.0001, 0.0001;
  (19) 0.0071, 0.0038, 0.0072, 0.0001, 0.0005, 0.0001, 0.9800, 0.0005, 0.0004, 0.0003;
  (20) 0.0008, 0.0102, 0.0036, 0.0017, 0.0017, 0.0016, 0.9800, 0.0001, 0.0000, 0.0003;
  (21) 0.0087, 0.0089, 0.0002, 0.0007, 0.0004, 0.0009, 0.0001, 0.9800, 0.0000, 0.0001;
  (22) 0.0129, 0.0015, 0.9800, 0.0047, 0.0005, 0.0001, 0.0001, 0.0000, 0.0000, 0.0002;
  (23) 0.0144, 0.0013, 0.0025, 0.0017, 0.0001, 0.9800, 0.0000, 0.0000, 0.0000, 0.0000;
  (24) 0.0151, 0.9800, 0.0027, 0.0021, 0.0001, 0.0000, 0.0000, 0.0000, 0.0000, 0.0000;
  (25) 0.0050, 0.0036, 0.0043, 0.0047, 0.0011, 0.0006, 0.0007, 0.0000, 0.0000, 0.9800;
  (26) 0.9800, 0.0018, 0.0154, 0.0006, 0.0014, 0.0007, 0.0001, 0.0000, 0.0000, 0.0000;
  (27) 0.0117, 0.0034, 0.0012, 0.0033, 0.9800, 0.0001, 0.0002, 0.0000, 0.0001, 0.0000;
  (28) 0.0193, 0.0000, 0.0007, 0.9800, 0.0000, 0.0000, 0.0000, 0.0000, 0.0000, 0.0000;
  (29) 0.0199, 0.0000, 0.0001, 0.0000, 0.0000, 0.0000, 0.0000, 0.0000, 0.9800, 0.0000;
  (30) 0.0129, 0.0031, 0.0006, 0.0020, 0.0010, 0.0001, 0.0001, 0.0001, 0.9800, 0.0001;
  (31) 0.9800, 0.0184, 0.0011, 0.0004, 0.0001, 0.0000, 0.0000, 0.0000, 0.0000, 0.0000;
  (32) 0.0115, 0.0009, 0.0074, 0.0000, 0.0000, 0.0001, 0.0001, 0.9800, 0.0000, 0.0000;
  (33) 0.0034, 0.0072, 0.0090, 0.0001, 0.0001, 0.0002, 0.9800, 0.0000, 0.0000, 0.0000;
  (34) 0.0092, 0.0049, 0.0036, 0.9800, 0.0017, 0.0001, 0.0004, 0.0000, 0.0000, 0.0001;
  (35) 0.0037, 0.0102, 0.0030, 0.0017, 0.9800, 0.0006, 0.0001, 0.0002, 0.0000, 0.0005;
  (36) 0.0009, 0.0191, 0.0000, 0.0000, 0.0000, 0.9800, 0.0000, 0.0000, 0.0000, 0.0000;
  (37) 0.0086, 0.9800, 0.0002, 0.0025, 0.0068, 0.0017, 0.0001, 0.0000, 0.0000, 0.0001;
  (38) 0.0030, 0.0112, 0.9800, 0.0044, 0.0004, 0.0003, 0.0005, 0.0000, 0.0001, 0.0001;
  (39) 0.0016, 0.0053, 0.0075, 0.0051, 0.0003, 0.0000, 0.0001, 0.0001, 0.0000, 0.9800;
  (40) 0.0153, 0.0016, 0.0023, 0.0002, 0.0004, 0.9800, 0.0001, 0.0000, 0.0001, 0.0000;
  (41) 0.0176, 0.0017, 0.0002, 0.0000, 0.0005, 0.0000, 0.0000, 0.0000, 0.9800, 0.0000;
  (42) 0.0123, 0.0076, 0.0001, 0.0000, 0.9800, 0.0000, 0.0000, 0.0000, 0.0000, 0.0000;
  (43) 0.0060, 0.0042, 0.0029, 0.0027, 0.0029, 0.0000, 0.0004, 0.9800, 0.0008, 0.0001;
  (44) 0.0108, 0.0060, 0.0004, 0.0002, 0.0003, 0.0015, 0.0001, 0.0000, 0.0007, 0.9800;
  (45) 0.0094, 0.0046, 0.0052, 0.0002, 0.0005, 0.0001, 0.9800, 0.0000, 0.0000, 0.0000;
  (46) 0.0182, 0.0009, 0.9800, 0.0002, 0.0003, 0.0003, 0.0000, 0.0001, 0.0000, 0.0000;
  (47) 0.0142, 0.9800, 0.0021, 0.0033, 0.0004, 0.0000, 0.0000, 0.0000, 0.0000, 0.0000;
  (48) 0.0196, 0.0003, 0.0001, 0.9800, 0.0000, 0.0000, 0.0000, 0.0000, 0.0000, 0.0000;
  (49) 0.9800, 0.0008, 0.0176, 0.0016, 0.0000, 0.0000, 0.0000, 0.0000, 0.0000, 0.0000;
  (50) 0.0055, 0.0096, 0.0002, 0.0010, 0.0004, 0.0032, 0.0001, 0.0000, 0.9800, 0.0000;
  (51) 0.0158, 0.0037, 0.0002, 0.0002, 0.9800, 0.0000, 0.0001, 0.0000, 0.0000, 0.0000;
  (52) 0.0152, 0.0040, 0.0004, 0.0002, 0.0000, 0.0002, 0.0000, 0.0000, 0.0000, 0.9800;
  (53) 0.0075, 0.0120, 0.0002, 0.0002, 0.0000, 0.0000, 0.9800, 0.0000, 0.0001, 0.0000;
  (54) 0.9800, 0.0171, 0.0026, 0.0001, 0.0001, 0.0000, 0.0001, 0.0000, 0.0000, 0.0000;
  (55) 0.0167, 0.0010, 0.0019, 0.9800, 0.0003, 0.0001, 0.0000, 0.0000, 0.0000, 0.0000;
  (56) 0.0148, 0.0020, 0.0008, 0.0020, 0.0001, 0.0002, 0.0000, 0.9800, 0.0001, 0.0000;
  (57) 0.0142, 0.9800, 0.0034, 0.0007, 0.0011, 0.0005, 0.0001, 0.0000, 0.0000, 0.0000;
  (58) 0.0076, 0.0011, 0.0045, 0.0011, 0.0044, 0.9800, 0.0009, 0.0002, 0.0001, 0.0001;
  (59) 0.0149, 0.0015, 0.9800, 0.0011, 0.0012, 0.0009, 0.0001, 0.0000, 0.0000, 0.0003;
  (60) 0.0161, 0.0026, 0.0003, 0.0000, 0.0009, 0.9800, 0.0001, 0.0000, 0.0000, 0.0000;
  (61) 0.0121, 0.0040, 0.0035, 0.0000, 0.0003, 0.0000, 0.0000, 0.0000, 0.0001, 0.9800;
  (62) 0.0078, 0.0019, 0.9800, 0.0077, 0.0008, 0.0011, 0.0004, 0.0003, 0.0000, 0.0000;
  (63) 0.0062, 0.0031, 0.0009, 0.0062, 0.0028, 0.0008, 0.0000, 0.9800, 0.0000, 0.0000;
  (64) 0.0175, 0.9800, 0.0019, 0.0002, 0.0002, 0.0001, 0.0000, 0.0000, 0.0000, 0.0001;
  (65) 0.0181, 0.0015, 0.0003, 0.0000, 0.0001, 0.0000, 0.0000, 0.0000, 0.9800, 0.0000;
  (66) 0.0006, 0.0183, 0.0008, 0.0000, 0.0001, 0.0002, 0.9800, 0.0000, 0.0000, 0.0000;
  (67) 0.0050, 0.0113, 0.0006, 0.9800, 0.0022, 0.0007, 0.0002, 0.0000, 0.0000, 0.0000;
  (68) 0.0134, 0.0029, 0.0006, 0.0023, 0.9800, 0.0001, 0.0005, 0.0001, 0.0001, 0.0000;
  (69) 0.9800, 0.0055, 0.0060, 0.0051, 0.0018, 0.0014, 0.0001, 0.0001, 0.0000, 0.0000;
  (70) 0.9800, 0.0143, 0.0044, 0.0008, 0.0003, 0.0001, 0.0001, 0.0000, 0.0000, 0.0000;
  (71) 0.0132, 0.0010, 0.0042, 0.0011, 0.0001, 0.0002, 0.0000, 0.9800, 0.0001, 0.0001;
  (72) 0.0148, 0.0042, 0.0009, 0.0001, 0.9800, 0.0000, 0.0000, 0.0000, 0.0000, 0.0000;
  (73) 0.0116, 0.0038, 0.0004, 0.0038, 0.0001, 0.0002, 0.9800, 0.0000, 0.0001, 0.0000;
  (74) 0.0058, 0.0133, 0.0003, 0.0005, 0.0000, 0.0000, 0.0000, 0.0000, 0.0001, 0.9800;
  (75) 0.0159, 0.0038, 0.0001, 0.0001, 0.0000, 0.9800, 0.0001, 0.0000, 0.0000, 0.0000;
  (76) 0.0182, 0.0002, 0.0000, 0.9800, 0.0010, 0.0005, 0.0000, 0.0000, 0.0000, 0.0001;
  (77) 0.0025, 0.0136, 0.0003, 0.0019, 0.0002, 0.0011, 0.0001, 0.0001, 0.9800, 0.0002;
  (78) 0.0190, 0.9800, 0.0001, 0.0003, 0.0004, 0.0002, 0.0000, 0.0000, 0.0000, 0.0000;
  (79) 0.0131, 0.0043, 0.9800, 0.0011, 0.0002, 0.0002, 0.0004, 0.0004, 0.0003, 0.0000;
  (80) 0.0042, 0.0133, 0.0005, 0.9800, 0.0005, 0.0002, 0.0010, 0.0002, 0.0001, 0.0000;
  (81) 0.0041, 0.0119, 0.0009, 0.0003, 0.0000, 0.0006, 0.9800, 0.0015, 0.0000, 0.0007;
  (82) 0.0028, 0.9800, 0.0066, 0.0092, 0.0009, 0.0000, 0.0004, 0.0000, 0.0000, 0.0001;
  (83) 0.0032, 0.0093, 0.0026, 0.0048, 0.0000, 0.0001, 0.0000, 0.0000, 0.9800, 0.0000;
  (84) 0.9800, 0.0118, 0.0024, 0.0032, 0.0015, 0.0003, 0.0001, 0.0004, 0.0002, 0.0001;
  (85) 0.0045, 0.0032, 0.0085, 0.0020, 0.0013, 0.0004, 0.0001, 0.0000, 0.0000, 0.9800;
  (86) 0.0168, 0.0005, 0.0001, 0.0022, 0.9800, 0.0003, 0.0000, 0.0001, 0.0000, 0.0000;
  (87) 0.0181, 0.0009, 0.0009, 0.0000, 0.0001, 0.9800, 0.0000, 0.0000, 0.0000, 0.0000;
  (88) 0.0190, 0.0004, 0.0005, 0.0001, 0.0000, 0.0000, 0.0000, 0.9800, 0.0000, 0.0000;
  (89) 0.0006, 0.0087, 0.9800, 0.0003, 0.0099, 0.0004, 0.0001, 0.0000, 0.0000, 0.0000;
  (90) 0.0091, 0.0039, 0.0070, 0.9800, 0.0000, 0.0000, 0.0000, 0.0000, 0.0000, 0.0000;
  (91) 0.0024, 0.0160, 0.0014, 0.0000, 0.0000, 0.9800, 0.0002, 0.0000, 0.0000, 0.0000;
  (92) 0.0123, 0.9800, 0.0072, 0.0005, 0.0000, 0.0000, 0.0000, 0.0000, 0.0000, 0.0000;
  (93) 0.0079, 0.0012, 0.0017, 0.0062, 0.0016, 0.0012, 0.0002, 0.0000, 0.0000, 0.9800;
  (94) 0.0163, 0.0011, 0.0025, 0.0001, 0.0000, 0.0000, 0.0000, 0.9800, 0.0000, 0.0000;
  (95) 0.9800, 0.0173, 0.0007, 0.0002, 0.0009, 0.0004, 0.0004, 0.0001, 0.0000, 0.0000;
  (96) 0.0068, 0.0109, 0.0011, 0.0009, 0.9800, 0.0002, 0.0000, 0.0001, 0.0000, 0.0000;
  (97) 0.0057, 0.0140, 0.9800, 0.0002, 0.0001, 0.0000, 0.0000, 0.0000, 0.0000, 0.0000;
  (98) 0.0178, 0.0002, 0.0003, 0.0015, 0.0002, 0.0000, 0.9800, 0.0000, 0.0000, 0.0000;
  (99) 0.0050, 0.0008, 0.0031, 0.0018, 0.0057, 0.0012, 0.0013, 0.0005, 0.9800, 0.0006;
  (100) 0.0162, 0.0036, 0.0002, 0.0000, 0.9800, 0.0000, 0.0000, 0.0000, 0.0000, 0.0000;
  (101) 0.0194, 0.0005, 0.0000, 0.0001, 0.0000, 0.0000, 0.9800, 0.0000, 0.0000, 0.0000;
  (102) 0.0081, 0.0061, 0.0056, 0.0000, 0.0000, 0.0000, 0.0001, 0.0001, 0.9800, 0.0000;
  (103) 0.0139, 0.9800, 0.0037, 0.0015, 0.0006, 0.0000, 0.0001, 0.0002, 0.0000, 0.0000;
  (104) 0.0095, 0.0078, 0.0016, 0.0007, 0.0000, 0.9800, 0.0000, 0.0002, 0.0001, 0.0001;
  (105) 0.0161, 0.0000, 0.0004, 0.9800, 0.0021, 0.0003, 0.0009, 0.0002, 0.0000, 0.0000;
  (106) 0.9800, 0.0079, 0.0013, 0.0056, 0.0001, 0.0019, 0.0008, 0.0011, 0.0001, 0.0012;
  (107) 0.0010, 0.0133, 0.0000, 0.0035, 0.0018, 0.0000, 0.0000, 0.0004, 0.0000, 0.9800;
  (108) 0.0094, 0.0015, 0.9800, 0.0057, 0.0009, 0.0006, 0.0013, 0.0006, 0.0000, 0.0000;
  (109) 0.0182, 0.0003, 0.0010, 0.0004, 0.0001, 0.0000, 0.0000, 0.9800, 0.0000, 0.0000;
  (110) 0.0097, 0.0054, 0.0041, 0.0001, 0.9800, 0.0003, 0.0004, 0.0000, 0.0000, 0.0000;
  (111) 0.0051, 0.9800, 0.0036, 0.0061, 0.0008, 0.0021, 0.0015, 0.0004, 0.0000, 0.0004;
  (112) 0.9800, 0.0094, 0.0094, 0.0003, 0.0006, 0.0002, 0.0001, 0.0000, 0.0000, 0.0000;
  (113) 0.0013, 0.0109, 0.0001, 0.0044, 0.0014, 0.9800, 0.0015, 0.0003, 0.0000, 0.0001;
  (114) 0.0001, 0.0190, 0.0001, 0.0006, 0.0001, 0.0000, 0.0001, 0.0000, 0.9800, 0.0000;
  (115) 0.0073, 0.0024, 0.0044, 0.9800, 0.0032, 0.0014, 0.0001, 0.0006, 0.0005, 0.0001;
  (116) 0.0182, 0.0009, 0.0002, 0.0003, 0.0000, 0.0004, 0.9800, 0.0000, 0.0000, 0.0000;
  (117) 0.0091, 0.0101, 0.0004, 0.0003, 0.0000, 0.0001, 0.0000, 0.9800, 0.0000, 0.0000;
  (118) 0.0029, 0.0025, 0.0012, 0.0047, 0.0065, 0.0004, 0.0000, 0.0016, 0.0002, 0.9800;
  (119) 0.0048, 0.0139, 0.9800, 0.0002, 0.0007, 0.0000, 0.0003, 0.0001, 0.0000, 0.0000;
  (120) 0.0167, 0.9800, 0.0017, 0.0014, 0.0002, 0.0000, 0.0000, 0.0000, 0.0000, 0.0000;
  (121) 0.0140, 0.0003, 0.0012, 0.0013, 0.0027, 0.0001, 0.9800, 0.0003, 0.0001, 0.0000;
  (122) 0.0144, 0.0018, 0.0020, 0.0006, 0.0007, 0.0004, 0.0000, 0.0001, 0.0000, 0.9800;
  (123) 0.0072, 0.0042, 0.0046, 0.0014, 0.0001, 0.0017, 0.0008, 0.0000, 0.9800, 0.0000;
  (124) 0.0152, 0.0031, 0.0002, 0.0010, 0.0004, 0.0000, 0.0000, 0.9800, 0.0001, 0.0000;
  (125) 0.0033, 0.0089, 0.0064, 0.0011, 0.0000, 0.9800, 0.0003, 0.0000, 0.0000, 0.0000;
  (126) 0.0026, 0.0173, 0.0000, 0.9800, 0.0001, 0.0000, 0.0000, 0.0000, 0.0000, 0.0000;
  (127) 0.0008, 0.0136, 0.0033, 0.0005, 0.9800, 0.0007, 0.0000, 0.0003, 0.0004, 0.0004;
  (128) 0.0053, 0.0077, 0.9800, 0.0024, 0.0026, 0.0003, 0.0001, 0.0011, 0.0002, 0.0003;
  (129) 0.9800, 0.0075, 0.0062, 0.0029, 0.0007, 0.0001, 0.0022, 0.0002, 0.0002, 0.0000;
  (130) 0.0121, 0.0005, 0.0029, 0.0010, 0.0003, 0.9800, 0.0019, 0.0009, 0.0004, 0.0000;
  (131) 0.0126, 0.9800, 0.0024, 0.0014, 0.0009, 0.0015, 0.0007, 0.0000, 0.0004, 0.0001;
  (132) 0.0079, 0.0016, 0.0085, 0.0001, 0.0004, 0.0000, 0.0005, 0.9800, 0.0004, 0.0006;
  (133) 0.0186, 0.0006, 0.0001, 0.0002, 0.0003, 0.0000, 0.0000, 0.0001, 0.0001, 0.9800;
  (134) 0.0071, 0.0006, 0.9800, 0.0109, 0.0011, 0.0000, 0.0003, 0.0000, 0.0000, 0.0000;
  (135) 0.0085, 0.0079, 0.0013, 0.0004, 0.9800, 0.0003, 0.0001, 0.0008, 0.0006, 0.0001;
  (136) 0.0164, 0.0013, 0.0010, 0.0007, 0.0005, 0.0000, 0.0000, 0.0000, 0.9800, 0.0001;
  (137) 0.9800, 0.0121, 0.0034, 0.0022, 0.0011, 0.0002, 0.0004, 0.0006, 0.0000, 0.0000;
  (138) 0.0053, 0.0122, 0.0008, 0.0008, 0.0004, 0.0002, 0.9800, 0.0001, 0.0001, 0.0001;
  (139) 0.0199, 0.0000, 0.0001, 0.9800, 0.0000, 0.0000, 0.0000, 0.0000, 0.0000, 0.0000;
  (140) 0.0082, 0.0090, 0.0006, 0.0001, 0.0000, 0.0020, 0.9800, 0.0000, 0.0001, 0.0000;
  (141) 0.0121, 0.0029, 0.0040, 0.0008, 0.0002, 0.0000, 0.0000, 0.0000, 0.9800, 0.0000;
  (142) 0.0195, 0.0003, 0.0000, 0.0002, 0.9800, 0.0000, 0.0000, 0.0000, 0.0000, 0.0000;
  (143) 0.0059, 0.0057, 0.0019, 0.0065, 0.0000, 0.0000, 0.0000, 0.0000, 0.0000, 0.9800;
  (144) 0.0023, 0.0036, 0.0018, 0.9800, 0.0012, 0.0060, 0.0050, 0.0001, 0.0000, 0.0000;
  (145) 0.0176, 0.0001, 0.0001, 0.0021, 0.0000, 0.0000, 0.0001, 0.9800, 0.0000, 0.0000;
  (146) 0.0175, 0.9800, 0.0015, 0.0003, 0.0006, 0.0001, 0.0000, 0.0000, 0.0000, 0.0000;
  (147) 0.9800, 0.0190, 0.0002, 0.0007, 0.0000, 0.0001, 0.0000, 0.0000, 0.0000, 0.0000;
  (148) 0.0165, 0.0032, 0.0001, 0.0000, 0.0001, 0.9800, 0.0001, 0.0000, 0.0000, 0.0000;
  (149) 0.0035, 0.0139, 0.9800, 0.0016, 0.0001, 0.0009, 0.0000, 0.0000, 0.0000, 0.0000;
  (150) 0.0030, 0.0040, 0.0123, 0.0005, 0.0001, 0.0000, 0.0001, 0.0000, 0.9800, 0.0000;
  (151) 0.0101, 0.0040, 0.0029, 0.0018, 0.0011, 0.9800, 0.0001, 0.0000, 0.0000, 0.0000;
  (152) 0.0082, 0.0041, 0.0073, 0.0002, 0.0001, 0.0001, 0.9800, 0.0000, 0.0000, 0.0000;
  (153) 0.9800, 0.0167, 0.0019, 0.0001, 0.0007, 0.0006, 0.0000, 0.0000, 0.0000, 0.0000;
  (154) 0.0061, 0.0069, 0.0054, 0.0005, 0.0006, 0.0004, 0.0000, 0.0001, 0.0000, 0.9800;
  (155) 0.0101, 0.0020, 0.9800, 0.0024, 0.0025, 0.0024, 0.0005, 0.0000, 0.0000, 0.0001;
  (156) 0.0170, 0.0006, 0.0016, 0.9800, 0.0004, 0.0002, 0.0002, 0.0000, 0.0000, 0.0000;
  (157) 0.0022, 0.0131, 0.0019, 0.0019, 0.9800, 0.0006, 0.0002, 0.0000, 0.0000, 0.0001;
  (158) 0.0086, 0.9800, 0.0005, 0.0107, 0.0000, 0.0000, 0.0000, 0.0001, 0.0001, 0.0000;
  (159) 0.0109, 0.0072, 0.0016, 0.0000, 0.0002, 0.0000, 0.0001, 0.9800, 0.0000, 0.0000;
  (160) 0.0029, 0.0080, 0.0018, 0.0055, 0.0008, 0.0003, 0.0002, 0.0002, 0.0003, 0.9800;
  (161) 0.0019, 0.0026, 0.0145, 0.0005, 0.0001, 0.0003, 0.0001, 0.9800, 0.0000, 0.0000;
  (162) 0.0085, 0.0104, 0.0010, 0.0001, 0.0000, 0.9800, 0.0000, 0.0000, 0.0000, 0.0000;
  (163) 0.0046, 0.0058, 0.0009, 0.9800, 0.0074, 0.0005, 0.0003, 0.0003, 0.0001, 0.0001;
  (164) 0.0190, 0.0007, 0.9800, 0.0002, 0.0001, 0.0000, 0.0000, 0.0000, 0.0000, 0.0000;
  (165) 0.0135, 0.0046, 0.0009, 0.0007, 0.9800, 0.0002, 0.0001, 0.0000, 0.0000, 0.0000;
  (166) 0.0129, 0.0066, 0.0000, 0.0004, 0.0001, 0.0000, 0.0000, 0.0000, 0.9800, 0.0000;
  (167) 0.9800, 0.0177, 0.0001, 0.0003, 0.0014, 0.0005, 0.0000, 0.0000, 0.0000, 0.0000;
  (168) 0.0100, 0.9800, 0.0023, 0.0052, 0.0021, 0.0002, 0.0001, 0.0001, 0.0000, 0.0000;
  (169) 0.0020, 0.0003, 0.0107, 0.0014, 0.0040, 0.0001, 0.9800, 0.0012, 0.0000, 0.0003;
  (170) 0.0035, 0.0141, 0.0004, 0.9800, 0.0010, 0.0009, 0.0000, 0.0000, 0.0000, 0.0001;
  (171) 0.0130, 0.0001, 0.0010, 0.0032, 0.0019, 0.0003, 0.0002, 0.0002, 0.0001, 0.9800;
  (172) 0.0122, 0.0040, 0.9800, 0.0033, 0.0002, 0.0003, 0.0000, 0.0000, 0.0000, 0.0000;
  (173) 0.0013, 0.0041, 0.0033, 0.0109, 0.0003, 0.9800, 0.0001, 0.0000, 0.0000, 0.0000;
  (174) 0.0017, 0.0056, 0.0004, 0.0090, 0.0018, 0.0005, 0.9800, 0.0006, 0.0000, 0.0004;
  (175) 0.0140, 0.0054, 0.0005, 0.0001, 0.0000, 0.0000, 0.0000, 0.9800, 0.0000, 0.0000;
  (176) 0.0120, 0.0050, 0.0022, 0.0004, 0.0003, 0.0001, 0.0000, 0.0000, 0.9800, 0.0000;
  (177) 0.9800, 0.0171, 0.0005, 0.0022, 0.0001, 0.0001, 0.0000, 0.0000, 0.0000, 0.0000;
  (178) 0.0059, 0.0097, 0.0019, 0.0004, 0.9800, 0.0008, 0.0006, 0.0003, 0.0001, 0.0003;
  (179) 0.0170, 0.9800, 0.0007, 0.0002, 0.0016, 0.0005, 0.0000, 0.0000, 0.0000, 0.0000;
  (180) 0.0010, 0.0130, 0.9800, 0.0038, 0.0015, 0.0006, 0.0000, 0.0001, 0.0000, 0.0000;
  (181) 0.0195, 0.9800, 0.0000, 0.0004, 0.0000, 0.0000, 0.0001, 0.0000, 0.0000, 0.0000;
  (182) 0.0115, 0.0001, 0.0011, 0.0028, 0.0044, 0.0000, 0.0001, 0.9800, 0.0000, 0.0000;
  (183) 0.0100, 0.0040, 0.0004, 0.0011, 0.0042, 0.0003, 0.9800, 0.0000, 0.0000, 0.0000;
  (184) 0.0157, 0.0024, 0.0008, 0.0007, 0.0004, 0.0000, 0.0000, 0.0000, 0.9800, 0.0000;
  (185) 0.0116, 0.0044, 0.0010, 0.0018, 0.9800, 0.0010, 0.0001, 0.0001, 0.0000, 0.0000;
  (186) 0.0172, 0.0004, 0.0012, 0.9800, 0.0006, 0.0002, 0.0003, 0.0001, 0.0000, 0.0000;
  (187) 0.0173, 0.0003, 0.0022, 0.0002, 0.0000, 0.9800, 0.0000, 0.0000, 0.0000, 0.0000;
  (188) 0.9800, 0.0169, 0.0024, 0.0006, 0.0001, 0.0000, 0.0000, 0.0000, 0.0000, 0.0000;
  (189) 0.0069, 0.0121, 0.0005, 0.0002, 0.0001, 0.0001, 0.0001, 0.0000, 0.0000, 0.9800;
  (190) 0.0074, 0.0056, 0.0021, 0.0033, 0.0005, 0.0004, 0.0007, 0.9800, 0.0000, 0.0000;
  (191) 0.0058, 0.0068, 0.9800, 0.0070, 0.0000, 0.0002, 0.0002, 0.0000, 0.0000, 0.0000;
  (192) 0.0014, 0.0130, 0.0008, 0.0028, 0.0004, 0.0006, 0.0005, 0.0003, 0.9800, 0.0002;
  (193) 0.0176, 0.0015, 0.0008, 0.0001, 0.9800, 0.0000, 0.0000, 0.0000, 0.0000, 0.0000;
  (194) 0.0035, 0.0079, 0.0039, 0.9800, 0.0010, 0.0023, 0.0001, 0.0002, 0.0008, 0.0003;
  (195) 0.0007, 0.0161, 0.0023, 0.0007, 0.0001, 0.0001, 0.9800, 0.0000, 0.0000, 0.0000;
  (196) 0.0175, 0.0018, 0.0001, 0.0002, 0.0001, 0.9800, 0.0000, 0.0001, 0.0000, 0.0002;
  (197) 0.0199, 0.0001, 0.0000, 0.0000, 0.0000, 0.0000, 0.0000, 0.0000, 0.0000, 0.9800;
  (198) 0.0131, 0.9800, 0.0009, 0.0042, 0.0005, 0.0012, 0.0001, 0.0000, 0.0000, 0.0000;
  (199) 0.9800, 0.0191, 0.0005, 0.0002, 0.0001, 0.0000, 0.0000, 0.0000, 0.0001, 0.0000;
  (200) 0.0050, 0.0075, 0.0007, 0.9800, 0.0052, 0.0013, 0.0001, 0.0001, 0.0000, 0.0001;
  (201) 0.0103, 0.0001, 0.0000, 0.0023, 0.0062, 0.0000, 0.9800, 0.0003, 0.0002, 0.0006;
  (202) 0.0136, 0.0014, 0.0004, 0.0023, 0.0004, 0.0015, 0.0003, 0.9800, 0.0001, 0.0000;
  (203) 0.0070, 0.0080, 0.0045, 0.0004, 0.0001, 0.9800, 0.0000, 0.0000, 0.0000, 0.0000;
  (204) 0.0064, 0.9800, 0.0087, 0.0032, 0.0009, 0.0007, 0.0000, 0.0000, 0.0001, 0.0000;
  (205) 0.0048, 0.0026, 0.0095, 0.0025, 0.0005, 0.0000, 0.0001, 0.0000, 0.9800, 0.0000;
  (206) 0.0156, 0.0021, 0.0015, 0.0001, 0.9800, 0.0007, 0.0000, 0.0000, 0.0000, 0.0000;
  (207) 0.0108, 0.0042, 0.0038, 0.0009, 0.0003, 0.0000, 0.0000, 0.0000, 0.0000, 0.9800;
  (208) 0.0073, 0.0030, 0.9800, 0.0020, 0.0030, 0.0044, 0.0001, 0.0001, 0.0001, 0.0000;
  (209) 0.9800, 0.0010, 0.0105, 0.0044, 0.0021, 0.0017, 0.0000, 0.0000, 0.0001, 0.0002;
  (210) 0.0101, 0.0060, 0.0030, 0.0003, 0.0001, 0.0002, 0.0002, 0.9800, 0.0001, 0.0000;
  (211) 0.0113, 0.0068, 0.0010, 0.9800, 0.0007, 0.0000, 0.0001, 0.0000, 0.0001, 0.0000;
  (212) 0.0109, 0.0064, 0.9800, 0.0003, 0.0005, 0.0001, 0.0004, 0.0004, 0.0003, 0.0007;
  (213) 0.0099, 0.0026, 0.0003, 0.0025, 0.0034, 0.0004, 0.0006, 0.0000, 0.9800, 0.0003;
  (214) 0.0048, 0.0063, 0.0051, 0.0006, 0.0011, 0.9800, 0.0019, 0.0002, 0.0000, 0.0000;
  (215) 0.9800, 0.0042, 0.0066, 0.0087, 0.0002, 0.0001, 0.0000, 0.0001, 0.0001, 0.0000;
}

probability (column5) {
  table 0.0694, 0.1255, 0.1310, 0.0899, 0.1193, 0.0519, 0.1012, 0.0724, 0.0649, 0.0709, 0.0402, 0.0634;
}

probability (column6) {
  table 0.0700, 0.0415, 0.0633, 0.0784, 0.0230, 0.0437, 0.0494, 0.0309, 0.0680, 0.0527, 0.0179, 0.0176, 0.1278, 0.0454, 0.0404, 0.0365, 0.1493, 0.0442;
}

probability (column7 | column5, column6) {
  (0, 0) 0.0124, 0.0055, 0.9800, 0.0004, 0.0007, 0.0007, 0.0001, 0.0000, 0.0000, 0.0002;
  (0, 1) 0.0183, 0.0002, 0.0003, 0.9800, 0.0003, 0.0003, 0.0002, 0.0002, 0.0002, 0.0000;
  (0, 2) 0.0085, 0.0078, 0.0023, 0.0012, 0.0000, 0.0001, 0.0000, 0.9800, 0.0000, 0.0001;
  (0, 3) 0.0122, 0.0065, 0.0008, 0.0000, 0.9800, 0.0002, 0.0002, 0.0001, 0.0000, 0.0000;
  (0, 4) 0.9800, 0.0130, 0.0045, 0.0011, 0.0010, 0.0002, 0.0000, 0.0001, 0.0000, 0.0001;
  (0, 5) 0.0047, 0.9800, 0.0027, 0.0090, 0.0024, 0.0001, 0.0002, 0.0009, 0.0000, 0.0000;
  (0, 6) 0.0136, 0.0040, 0.0002, 0.0011, 0.0005, 0.0006, 0.9800, 0.0000, 0.0000, 0.0000;
  (0, 7) 0.0171, 0.0005, 0.0005, 0.0010, 0.0005, 0.9800, 0.0004, 0.0000, 0.0000, 0.0000;
  (0, 8) 0.0118, 0.0037, 0.0016, 0.0028, 0.0000, 0.0000, 0.0001, 0.0000, 0.9800, 0.0000;
  (0, 9) 0.0041, 0.0124, 0.0009, 0.0014, 0.0002, 0.0006, 0.0000, 0.0001, 0.0003, 0.9800;
  (0, 10) 0.0170, 0.0001, 0.0022, 0.0000, 0.9800, 0.0002, 0.0004, 0.0000, 0.0000, 0.0001;
  (0, 11) 0.0110, 0.0068, 0.0003, 0.9800, 0.0008, 0.0000, 0.0001, 0.0005, 0.0001, 0.0004;
  (0, 12) 0.0038, 0.0100, 0.0001, 0.0013, 0.0036, 0.0006, 0.0006, 0.0000, 0.9800, 0.0000;
  (0, 13) 0.9800, 0.0144, 0.0004, 0.0021, 0.0028, 0.0001, 0.0001, 0.0001, 0.0000, 0.0000;
  (0, 14) 0.0041, 0.0126, 0.0006, 0.0022, 0.0005, 0.9800, 0.0000, 0.0000, 0.0000, 0.0000;
  (0, 15) 0.0054, 0.0018, 0.0007, 0.0107, 0.0009, 0.0004, 0.0000, 0.9800, 0.0000, 0.0001;
  (0, 16) 0.0094, 0.0059, 0.9800, 0.0046, 0.0001, 0.0000, 0.0000, 0.0000, 0.0000, 0.0000;
  (0, 17) 0.0113, 0.9800, 0.0003, 0.0033, 0.0050, 0.0001, 0.0000, 0.0000, 0.0000, 0.0000;
  (1, 0) 0.0092, 0.0084, 0.0015, 0.0006, 0.0002, 0.0000, 0.9800, 0.0001, 0.0000, 0.0000;
  (1, 1) 0.0056, 0.0125, 0.0013, 0.0005, 0.0000, 0.0001, 0.0000, 0.0000, 0.0000, 0.9800;
  (1, 2) 0.0021, 0.0137, 0.0001, 0.0017, 0.0024, 0.0000, 0.0000, 0.0000, 0.0000, 0.9800;
  (1, 3) 0.0127, 0.0037, 0.0011, 0.9800, 0.0018, 0.0001, 0.0004, 0.0000, 0.0001, 0.0001;
  (1, 4) 0.0168, 0.0003, 0.0016, 0.0002, 0.0001, 0.0004, 0.0004, 0.9800, 0.0002, 0.0000;
  (1, 5) 0.0097, 0.9800, 0.0101, 0.0000, 0.0001, 0.0000, 0.0000, 0.0000, 0.0000, 0.0001;
  (1, 6) 0.0107, 0.0050, 0.0024, 0.0015, 0.0000, 0.0001, 0.0002, 0.0001, 0.9800, 0.0000;
  (1, 7) 0.9800, 0.0044, 0.0039, 0.0040, 0.0022, 0.0016, 0.0006, 0.0010, 0.0006, 0.0017;
  (1, 8) 0.0026, 0.0136, 0.0003, 0.0011, 0.9800, 0.0004, 0.0006, 0.0011, 0.0003, 0.0000;
  (1, 9) 0.0063, 0.0124, 0.9800, 0.0007, 0.0005, 0.0001, 0.0000, 0.0000, 0.0000, 0.0000;
  (1, 10) 0.0031, 0.0001, 0.0167, 0.0001, 0.0000, 0.0000, 0.9800, 0.0000, 0.0000, 0.0000;
  (1, 11) 0.0084, 0.0018, 0.0079, 0.0010, 0.0005, 0.9800, 0.0001, 0.0003, 0.0000, 0.0000;
  (1, 12) 0.0092, 0.9800, 0.0088, 0.0016, 0.0003, 0.0001, 0.0000, 0.0000, 0.0000, 0.0000;
  (1, 13) 0.0190, 0.0003, 0.0002, 0.0003, 0.0002, 0.0000, 0.0000, 0.0000, 0.9800, 0.0000;
  (1, 14) 0.0030, 0.0110, 0.0005, 0.0020, 0.0011, 0.0020, 0.9800, 0.0000, 0.0002, 0.0002;
  (1, 15) 0.0165, 0.0020, 0.0003, 0.0011, 0.9800, 0.0001, 0.0000, 0.0000, 0.0000, 0.0000;
  (1, 16) 0.0164, 0.0014, 0.0018, 0.9800, 0.0000, 0.0002, 0.0001, 0.0000, 0.0000, 0.0001;
  (1, 17) 0.9800, 0.0106, 0.0009, 0.0030, 0.0045, 0.0001, 0.0005, 0.0001, 0.0002, 0.0001;
  (2, 0) 0.0157, 0.0022, 0.9800, 0.0001, 0.0002, 0.0004, 0.0010, 0.0003, 0.0000, 0.0001;
  (2, 1) 0.0193, 0.0003, 0.0002, 0.0002, 0.0000, 0.0000, 0.0000, 0.0000, 0.0000, 0.9800;
  (2, 2) 0.0146, 0.0015, 0.0029, 0.0000, 0.0006, 0.0002, 0.0002, 0.9800, 0.0000, 0.0000;
  (2, 3) 0.0114, 0.0074, 0.0008, 0.0003, 0.0001, 0.9800, 0.0000, 0.0000, 0.0000, 0.0000;
  (2, 4) 0.0128, 0.0012, 0.0040, 0.0011, 0.9800, 0.0004, 0.0003, 0.0000, 0.0000, 0.0002;
  (2, 5) 0.0183, 0.0011, 0.0001, 0.0001, 0.0003, 0.0000, 0.0000, 0.9800, 0.0001, 0.0000;
  (2, 6) 0.0066, 0.9800, 0.0083, 0.0033, 0.0009, 0.0003, 0.0001, 0.0001, 0.0000, 0.0004;
  (2, 7) 0.9800, 0.0128, 0.0037, 0.0013, 0.0004, 0.0001, 0.0008, 0.0003, 0.0001, 0.0005;
  (2, 8) 0.0147, 0.0010, 0.0026, 0.9800, 0.0005, 0.0004, 0.0004, 0.0001, 0.0002, 0.0001;
  (2, 9) 0.0031, 0.0039, 0.9800, 0.0053, 0.0074, 0.0002, 0.0000, 0.0001, 0.0000, 0.0000;
  (2, 10) 0.0101, 0.0058, 0.0037, 0.0000, 0.0002, 0.0001, 0.9800, 0.0001, 0.0000, 0.0000;
  (2, 11) 0.0146, 0.0003, 0.0038, 0.0004, 0.0001, 0.9800, 0.0001, 0.0002, 0.0001, 0.0004;
  (2, 12) 0.0066, 0.0120, 0.0011, 0.0002, 0.0001, 0.0000, 0.0000, 0.0000, 0.0000, 0.9800;
  (2, 13) 0.0109, 0.0040, 0.0046, 0.0001, 0.0003, 0.0001, 0.0000, 0.0000, 0.9800, 0.0000;
  (2, 14) 0.0191, 0.0001, 0.0005, 0.0003, 0.0000, 0.0000, 0.0000, 0.0000, 0.9800, 0.0000;
  (2, 15) 0.0173, 0.9800, 0.0001, 0.0004, 0.0004, 0.0001, 0.0011, 0.0004, 0.0000, 0.0002;
  (2, 16) 0.0022, 0.0155, 0.0016, 0.0002, 0.9800, 0.0002, 0.0003, 0.0000, 0.0000, 0.0000;
  (2, 17) 0.0125, 0.0006, 0.0044, 0.0012, 0.0006, 0.0003, 0.0002, 0.0000, 0.0002, 0.9800;
  (3, 0) 0.0119, 0.0016, 0.0047, 0.0001, 0.0013, 0.0001, 0.0002, 0.9800, 0.0001, 0.0000;
  (3, 1) 0.0141, 0.0009, 0.0050, 0.0000, 0.0000, 0.9800, 0.0000, 0.0000, 0.0000, 0.0000;
  (3, 2) 0.0005, 0.0056, 0.9800, 0.0029, 0.0103, 0.0004, 0.0002, 0.0000, 0.0001, 0.0000;
  (3, 3) 0.9800, 0.0093, 0.0062, 0.0042, 0.0003, 0.0000, 0.0000, 0.0000, 0.0000, 0.0000;
  (3, 4) 0.0157, 0.0023, 0.0008, 0.0009, 0.0001, 0.0001, 0.9800, 0.0001, 0.0000, 0.0000;
  (3, 5) 0.0018, 0.0015, 0.0012, 0.9800, 0.0151, 0.0004, 0.0000, 0.0000, 0.0000, 0.0000;
  (3, 6) 0.0029, 0.0115, 0.0046, 0.0003, 0.0002, 0.9800, 0.0003, 0.0001, 0.0000, 0.0001;
  (3, 7) 0.9800, 0.0085, 0.0100, 0.0003, 0.0005, 0.0006, 0.0001, 0.0000, 0.0000, 0.0000;
  (3, 8) 0.0097, 0.9800, 0.0016, 0.0010, 0.0028, 0.0019, 0.0023, 0.0002, 0.0001, 0.0004;
  (3, 9) 0.0043, 0.0074, 0.0007, 0.0065, 0.0010, 0.0000, 0.9800, 0.0000, 0.0000, 0.0001;
  (3, 10) 0.0142, 0.0019, 0.0026, 0.0005, 0.0007, 0.0001, 0.0000, 0.0000, 0.9800, 0.0000;
  (3, 11) 0.0199, 0.0001, 0.0000, 0.9800, 0.0000, 0.0000, 0.0000, 0.0000, 0.0000, 0.0000;
  (3, 12) 0.0108, 0.0004, 0.9800, 0.0000, 0.0086, 0.0000, 0.0001, 0.0001, 0.0000, 0.0000;
  (3, 13) 0.0157, 0.0040, 0.0002, 0.0001, 0.9800, 0.0000, 0.0000, 0.0000, 0.0000, 0.0000;
  (3, 14) 0.0094, 0.0025, 0.0070, 0.0009, 0.0001, 0.0001, 0.0000, 0.0000, 0.0000, 0.9800;
  (3, 15) 0.0194, 0.0001, 0.0000, 0.0005, 0.0000, 0.0000, 0.0000, 0.9800, 0.0000, 0.0000;
  (3, 16) 0.9800, 0.0176, 0.0013, 0.0005, 0.0006, 0.0000, 0.0000, 0.0000, 0.0000, 0.0000;
  (3, 17) 0.0100, 0.0004, 0.0080, 0.9800, 0.0014, 0.0001, 0.0000, 0.0000, 0.0001, 0.0000;
  (4, 0) 0.0002, 0.0063, 0.0128, 0.0001, 0.0000, 0.0006, 0.9800, 0.0000, 0.0000, 0.0000;
  (4, 1) 0.0167, 0.0012, 0.0003, 0.0010, 0.0001, 0.0004, 0.0001, 0.9800, 0.0002, 0.0000;
  (4, 2) 0.0147, 0.0019, 0.0016, 0.0005, 0.0001, 0.9800, 0.0004, 0.0005, 0.0002, 0.0001;
  (4, 3) 0.0106, 0.9800, 0.0030, 0.0019, 0.0016, 0.0002, 0.0007, 0.0002, 0.0018, 0.0000;
  (4, 4) 0.0106, 0.0032, 0.9800, 0.0056, 0.0003, 0.0002, 0.0000, 0.0001, 0.0000, 0.0000;
  (4, 5) 0.0171, 0.0000, 0.0018, 0.0001, 0.9800, 0.0009, 0.0001, 0.0000, 0.0000, 0.0000;
  (4, 6) 0.0085, 0.0068, 0.0038, 0.0001, 0.0002, 0.0003, 0.0000, 0.0000, 0.9800, 0.0003;
  (4, 7) 0.0105, 0.0073, 0.0018, 0.0001, 0.0000, 0.0002, 0.0001, 0.0000, 0.0000, 0.9800;
  (4, 8) 0.0135, 0.0054, 0.0010, 0.0001, 0.0000, 0.0000, 0.0000, 0.0000, 0.0000, 0.9800;
  (4, 9) 0.0076, 0.0015, 0.0021, 0.0048, 0.0031, 0.0004, 0.0000, 0.9800, 0.0001, 0.0004;
  (4, 10) 0.0005, 0.0083, 0.9800, 0.0062, 0.0023, 0.0025, 0.0001, 0.0001, 0.0000, 0.0000;
  (4, 11) 0.0146, 0.0032, 0.0003, 0.0002, 0.9800, 0.0003, 0.0013, 0.0001, 0.0000, 0.0000;
  (4, 12) 0.0103, 0.0032, 0.0019, 0.9800, 0.0004, 0.0014, 0.0013, 0.0011, 0.0002, 0.0002;
  (4, 13) 0.0167, 0.0007, 0.0024, 0.0001, 0.0000, 0.0000, 0.9800, 0.0000, 0.0000, 0.0001;
  (4, 14) 0.0165, 0.0002, 0.0017, 0.0001, 0.0001, 0.0005, 0.0004, 0.0002, 0.9800, 0.0003;
  (4, 15) 0.0086, 0.9800, 0.0037, 0.0067, 0.0007, 0.0002, 0.0000, 0.0000, 0.0001, 0.0000;
  (4, 16) 0.9800, 0.0161, 0.0017, 0.0007, 0.0015, 0.0000, 0.0000, 0.0000, 0.0000, 0.0000;
  (4, 17) 0.0031, 0.0065, 0.0038, 0.0057, 0.0008, 0.9800, 0.0001, 0.0000, 0.0000, 0.0000;
  (5, 0) 0.0132, 0.0059, 0.0001, 0.0007, 0.0001, 0.0000, 0.0000, 0.9800, 0.0000, 0.0000;
  (5, 1) 0.0027, 0.0105, 0.0044, 0.0012, 0.9800, 0.0012, 0.0000, 0.0000, 0.0000, 0.0000;
  (5, 2) 0.0113, 0.0060, 0.9800, 0.0013, 0.0002, 0.0002, 0.0002, 0.0004, 0.0001, 0.0003;
  (5, 3) 0.0009, 0.9800, 0.0112, 0.0066, 0.0001, 0.0000, 0.0006, 0.0003, 0.0000, 0.0003;
  (5, 4) 0.0148, 0.0011, 0.0020, 0.0008, 0.0002, 0.0004, 0.0005, 0.0002, 0.9800, 0.0000;
  (5, 5) 0.0076, 0.0040, 0.0083, 0.0000, 0.0001, 0.0000, 0.0000, 0.0000, 0.0000, 0.9800;
  (5, 6) 0.0042, 0.0104, 0.0046, 0.0008, 0.0000, 0.9800, 0.0000, 0.0000, 0.0000, 0.0000;
  (5, 7) 0.0149, 0.0029, 0.0020, 0.9800, 0.0000, 0.0001, 0.0000, 0.0000, 0.0000, 0.0001;
  (5, 8) 0.9800, 0.0036, 0.0065, 0.0032, 0.0050, 0.0010, 0.0002, 0.0002, 0.0000, 0.0003;
  (5, 9) 0.0179, 0.0006, 0.0006, 0.0006, 0.0003, 0.0000, 0.9800, 0.0000, 0.0000, 0.0000;
  (5, 10) 0.0005, 0.0040, 0.0008, 0.0050, 0.0025, 0.0038, 0.0006, 0.9800, 0.0001, 0.0027;
  (5, 11) 0.9800, 0.0138, 0.0058, 0.0000, 0.0002, 0.0001, 0.0001, 0.0000, 0.0000, 0.0000;
  (5, 12) 0.0049, 0.0044, 0.9800, 0.0002, 0.0095, 0.0005, 0.0003, 0.0001, 0.0000, 0.0001;
  (5, 13) 0.0059, 0.0128, 0.0006, 0.0003, 0.0001, 0.0003, 0.0000, 0.0000, 0.0000, 0.9800;
  (5, 14) 0.0021, 0.0020, 0.0036, 0.9800, 0.0069, 0.0043, 0.0010, 0.0000, 0.0000, 0.0001;
  (5, 15) 0.0155, 0.0034, 0.0005, 0.0005, 0.0001, 0.0000, 0.9800, 0.0000, 0.0000, 0.0000;
  (5, 16) 0.0064, 0.0134, 0.0001, 0.0000, 0.0000, 0.9800, 0.0000, 0.0000, 0.0000, 0.0001;
  (5, 17) 0.0175, 0.0008, 0.0014, 0.0000, 0.9800, 0.0002, 0.0001, 0.0000, 0.0000, 0.0000;
  (6, 0) 0.0019, 0.0119, 0.0052, 0.0003, 0.0006, 0.0000, 0.0000, 0.0000, 0.9800, 0.0001;
  (6, 1) 0.0118, 0.9800, 0.0075, 0.0000, 0.0003, 0.0003, 0.0000, 0.0000, 0.0001, 0.0000;
  (6, 2) 0.0036, 0.0129, 0.0026, 0.0005, 0.0002, 0.0002, 0.0000, 0.0000, 0.9800, 0.0000;
  (6, 3) 0.0189, 0.0005, 0.0006, 0.9800, 0.0000, 0.0000, 0.0000, 0.0000, 0.0000, 0.0000;
  (6, 4) 0.9800, 0.0074, 0.0120, 0.0001, 0.0004, 0.0001, 0.0000, 0.0000, 0.0000, 0.0000;
  (6, 5) 0.0037, 0.0003, 0.9800, 0.0136, 0.0020, 0.0000, 0.0003, 0.0001, 0.0000, 0.0000;
  (6, 6) 0.0169, 0.0019, 0.0010, 0.0001, 0.0001, 0.9800, 0.0000, 0.0000, 0.0000, 0.0000;
  (6, 7) 0.0099, 0.0055, 0.0044, 0.0001, 0.0000, 0.0000, 0.9800, 0.0001, 0.0000, 0.0000;
  (6, 8) 0.0021, 0.0071, 0.0045, 0.0006, 0.0017, 0.0002, 0.0014, 0.0010, 0.0014, 0.9800;
  (6, 9) 0.0157, 0.0011, 0.0029, 0.0003, 0.0000, 0.0000, 0.0000, 0.9800, 0.0000, 0.0000;
  (6, 10) 0.0172, 0.0020, 0.0002, 0.0000, 0.9800, 0.0003, 0.0002, 0.0000, 0.0001, 0.0000;
  (6, 11) 0.0135, 0.9800, 0.0011, 0.0052, 0.0002, 0.0000, 0.0000, 0.0000, 0.0000, 0.0000;
  (6, 12) 0.0090, 0.9800, 0.0056, 0.0015, 0.0007, 0.0027, 0.0001, 0.0001, 0.0001, 0.0002;
  (6, 13) 0.0038, 0.0097, 0.9800, 0.0036, 0.0004, 0.0014, 0.0009, 0.0000, 0.0001, 0.0001;
  (6, 14) 0.0171, 0.0012, 0.0003, 0.9800, 0.0001, 0.0008, 0.0004, 0.0001, 0.0000, 0.0000;
  (6, 15) 0.0193, 0.0000, 0.0003, 0.0003, 0.9800, 0.0000, 0.0001, 0.0000, 0.0000, 0.0000;
  (6, 16) 0.9800, 0.0028, 0.0038, 0.0053, 0.0043, 0.0027, 0.0004, 0.0001, 0.0001, 0.0005;
  (6, 17) 0.0029, 0.0027, 0.0047, 0.0065, 0.0025, 0.9800, 0.0004, 0.0002, 0.0001, 0.0000;
  (7, 0) 0.0116, 0.0078, 0.0004, 0.0002, 0.0000, 0.0000, 0.0000, 0.0000, 0.9800, 0.0000;
  (7, 1) 0.0014, 0.0146, 0.0037, 0.0001, 0.0001, 0.0000, 0.9800, 0.0000, 0.0001, 0.0000;
  (7, 2) 0.0148, 0.0040, 0.0002, 0.0001, 0.0004, 0.0004, 0.0001, 0.9800, 0.0000, 0.0000;
  (7, 3) 0.0168, 0.0029, 0.0003, 0.0000, 0.0000, 0.0000, 0.0000, 0.0000, 0.0000, 0.9800;
  (7, 4) 0.9800, 0.0078, 0.0049, 0.0067, 0.0003, 0.0000, 0.0001, 0.0001, 0.0000, 0.0001;
  (7, 5) 0.0030, 0.0051, 0.0091, 0.9800, 0.0003, 0.0024, 0.0001, 0.0000, 0.0000, 0.0000;
  (7, 6) 0.0133, 0.0012, 0.9800, 0.0036, 0.0007, 0.0010, 0.0000, 0.0002, 0.0000, 0.0000;
  (7, 7) 0.0194, 0.0003, 0.0002, 0.0001, 0.0000, 0.0000, 0.9800, 0.0000, 0.0000, 0.0000;
  (7, 8) 0.0005, 0.0019, 0.0057, 0.0055, 0.0059, 0.0003, 0.0001, 0.9800, 0.0000, 0.0001;
  (7, 9) 0.0099, 0.9800, 0.0075, 0.0018, 0.0001, 0.0002, 0.0000, 0.0004, 0.0001, 0.0000;
  (7, 10) 0.0143, 0.0028, 0.0025, 0.0003, 0.0000, 0.0000, 0.0000, 0.0001, 0.9800, 0.0000;
  (7, 11) 0.0104, 0.0018, 0.0006, 0.0049, 0.0004, 0.9800, 0.0016, 0.0001, 0.0001, 0.0001;
  (7, 12) 0.0064, 0.0017, 0.0041, 0.0060, 0.0007, 0.0002, 0.0007, 0.0000, 0.0002, 0.9800;
  (7, 13) 0.0002, 0.0136, 0.0039, 0.0003, 0.9800, 0.0008, 0.0004, 0.0008, 0.0000, 0.0000;
  (7, 14) 0.0087, 0.0111, 0.0000, 0.0002, 0.0000, 0.0000, 0.0000, 0.0000, 0.0000, 0.9800;
  (7, 15) 0.0065, 0.0092, 0.0021, 0.0011, 0.9800, 0.0007, 0.0003, 0.0001, 0.0000, 0.0000;
  (7, 16) 0.0021, 0.9800, 0.0017, 0.0044, 0.0064, 0.0051, 0.0001, 0.0002, 0.0000, 0.0000;
  (7, 17) 0.0156, 0.0025, 0.9800, 0.0012, 0.0001, 0.0006, 0.0000, 0.0000, 0.0000, 0.0000;
  (8, 0) 0.9800, 0.0078, 0.0117, 0.0002, 0.0003, 0.0000, 0.0000, 0.0000, 0.0000, 0.0000;
  (8, 1) 0.0111, 0.0072, 0.0003, 0.0002, 0.0010, 0.0002, 0.0000, 0.9800, 0.0000, 0.0000;
  (8, 2) 0.0005, 0.0022, 0.0055, 0.0024, 0.0055, 0.0018, 0.0016, 0.0000, 0.9800, 0.0005;
  (8, 3) 0.0078, 0.0119, 0.0000, 0.0002, 0.0001, 0.9800, 0.0000, 0.0000, 0.0000, 0.0000;
  (8, 4) 0.0012, 0.0157, 0.0027, 0.0002, 0.0000, 0.0001, 0.9800, 0.0001, 0.0000, 0.0000;
  (8, 5) 0.0067, 0.0046, 0.0082, 0.9800, 0.0002, 0.0003, 0.0000, 0.0000, 0.0000, 0.0000;
  (8, 6) 0.0100, 0.0081, 0.0011, 0.0007, 0.9800, 0.0001, 0.0000, 0.0000, 0.0000, 0.0000;
  (8, 7) 0.0042, 0.0015, 0.0134, 0.0007, 0.0002, 0.0000, 0.0000, 0.0000, 0.0000, 0.9800;
  (8, 8) 0.0041, 0.9800, 0.0018, 0.0039, 0.0099, 0.0002, 0.0001, 0.0000, 0.0000, 0.0000;
  (8, 9) 0.0136, 0.0010, 0.0048, 0.9800, 0.0001, 0.0005, 0.0000, 0.0000, 0.0000, 0.0000;
  (8, 10) 0.0169, 0.0017, 0.0002, 0.0007, 0.0003, 0.0001, 0.0001, 0.9800, 0.0000, 0.0000;
  (8, 11) 0.0094, 0.0030, 0.9800, 0.0040, 0.0035, 0.0000, 0.0001, 0.0000, 0.0000, 0.0000;
  (8, 12) 0.9800, 0.0033, 0.0052, 0.0089, 0.0003, 0.0023, 0.0000, 0.0000, 0.0000, 0.0000;
  (8, 13) 0.0146, 0.0036, 0.0001, 0.0003, 0.0012, 0.9800, 0.0001, 0.0001, 0.0000, 0.0000;
  (8, 14) 0.0153, 0.0038, 0.0006, 0.0002, 0.0000, 0.0000, 0.9800, 0.0000, 0.0000, 0.0001;
  (8, 15) 0.0000, 0.0097, 0.0027, 0.0029, 0.0033, 0.0004, 0.0005, 0.0003, 0.9800, 0.0002;
  (8, 16) 0.0134, 0.0008, 0.0020, 0.0012, 0.9800, 0.0024, 0.0002, 0.0000, 0.0000, 0.0000;
  (8, 17) 0.0100, 0.9800, 0.0048, 0.0024, 0.0012, 0.0003, 0.0006, 0.0005, 0.0001, 0.0001;
  (9, 0) 0.0051, 0.0052, 0.0034, 0.9800, 0.0033, 0.0012, 0.0004, 0.0014, 0.0000, 0.0000;
  (9, 1) 0.0066, 0.0028, 0.0040, 0.0058, 0.0002, 0.0002, 0.0002, 0.9800, 0.0001, 0.0001;
  (9, 2) 0.0072, 0.0007, 0.0005, 0.0005, 0.0062, 0.9800, 0.0028, 0.0003, 0.0003, 0.0015;
  (9, 3) 0.0066, 0.0014, 0.0011, 0.0059, 0.0009, 0.0037, 0.9800, 0.0001, 0.0001, 0.0002;
  (9, 4) 0.0152, 0.0001, 0.0021, 0.0017, 0.0002, 0.0004, 0.0000, 0.0002, 0.9800, 0.0001;
  (9, 5) 0.9800, 0.0196, 0.0004, 0.0000, 0.0000, 0.0000, 0.0000, 0.0000, 0.0000, 0.0000;
  (9, 6) 0.0110, 0.0034, 0.0047, 0.0006, 0.0002, 0.0001, 0.0000, 0.0000, 0.0000, 0.9800;
  (9, 7) 0.0132, 0.0057, 0.9800, 0.0008, 0.0001, 0.0001, 0.0000, 0.0000, 0.0000, 0.0001;
  (9, 8) 0.0126, 0.0037, 0.0013, 0.0018, 0.0005, 0.9800, 0.0000, 0.0001, 0.0000, 0.0000;
  (9, 9) 0.0153, 0.9800, 0.0026, 0.0003, 0.0005, 0.0010, 0.0002, 0.0000, 0.0000, 0.0001;
  (9, 10) 0.0090, 0.0028, 0.9800, 0.0075, 0.0002, 0.0002, 0.0001, 0.0001, 0.0000, 0.0001;
  (9, 11) 0.0054, 0.0145, 0.0001, 0.0000, 0.0000, 0.0000, 0.9800, 0.0000, 0.0000, 0.0000;
  (9, 12) 0.0106, 0.0020, 0.0038, 0.9800, 0.0012, 0.0009, 0.0008, 0.0006, 0.0001, 0.0000;
  (9, 13) 0.0120, 0.0035, 0.0012, 0.0001, 0.0021, 0.0009, 0.0001, 0.0001, 0.9800, 0.0000;
  (9, 14) 0.9800, 0.0134, 0.0019, 0.0035, 0.0001, 0.0003, 0.0001, 0.0005, 0.0001, 0.0001;
  (9, 15) 0.0104, 0.0076, 0.0010, 0.0010, 0.9800, 0.0000, 0.0000, 0.0000, 0.0000, 0.0000;
  (9, 16) 0.0122, 0.0053, 0.0023, 0.0000, 0.0000, 0.0001, 0.0000, 0.0000, 0.0001, 0.9800;
  (9, 17) 0.0131, 0.0005, 0.0034, 0.0019, 0.0006, 0.0001, 0.0003, 0.9800, 0.0000, 0.0001;
  (10, 0) 0.0103, 0.0029, 0.0007, 0.0000, 0.0031, 0.0001, 0.0026, 0.0003, 0.9800, 0.0000;
  (10, 1) 0.0165, 0.9800, 0.0035, 0.0000, 0.0000, 0.0000, 0.0000, 0.0000, 0.0000, 0.0000;
  (10, 2) 0.0057, 0.0137, 0.0004, 0.0002, 0.0000, 0.0000, 0.9800, 0.0000, 0.0000, 0.0000;
  (10, 3) 0.0155, 0.0019, 0.0013, 0.0000, 0.0005, 0.9800, 0.0006, 0.0002, 0.0000, 0.0000;
  (10, 4) 0.9800, 0.0180, 0.0000, 0.0002, 0.0010, 0.0004, 0.0001, 0.0000, 0.0001, 0.0002;
  (10, 5) 0.0122, 0.0005, 0.9800, 0.0014, 0.0037, 0.0007, 0.0002, 0.0006, 0.0007, 0.0000;
  (10, 6) 0.0146, 0.0018, 0.0032, 0.0000, 0.0002, 0.0000, 0.0001, 0.9800, 0.0001, 0.0000;
  (10, 7) 0.0130, 0.0027, 0.0025, 0.9800, 0.0015, 0.0001, 0.0000, 0.0001, 0.0001, 0.0000;
  (10, 8) 0.0156, 0.0034, 0.0000, 0.0009, 0.0001, 0.0000, 0.0000, 0.0000, 0.0000, 0.9800;
  (10, 9) 0.0135, 0.0015, 0.0006, 0.0033, 0.9800, 0.0007, 0.0004, 0.0000, 0.0000, 0.0000;
  (10, 10) 0.0011, 0.0114, 0.0046, 0.0001, 0.9800, 0.0028, 0.0000, 0.0000, 0.0000, 0.0000;
  (10, 11) 0.0107, 0.0025, 0.9800, 0.0051, 0.0013, 0.0004, 0.0000, 0.0000, 0.0000, 0.0000;
  (10, 12) 0.0113, 0.0015, 0.0029, 0.0031, 0.0005, 0.0003, 0.0003, 0.9800, 0.0000, 0.0001;
  (10, 13) 0.0068, 0.9800, 0.0078, 0.0025, 0.0001, 0.0015, 0.0008, 0.0001, 0.0002, 0.0002;
  (10, 14) 0.0084, 0.0111, 0.0002, 0.0003, 0.0000, 0.0000, 0.0000, 0.0000, 0.0000, 0.9800;
  (10, 15) 0.0109, 0.0029, 0.0046, 0.0010, 0.0004, 0.9800, 0.0002, 0.0000, 0.0000, 0.0000;
  (10, 16) 0.0197, 0.0001, 0.0001, 0.9800, 0.0000, 0.0001, 0.0000, 0.0000, 0.0000, 0.0000;
  (10, 17) 0.0133, 0.0062, 0.0000, 0.0004, 0.0000, 0.0001, 0.9800, 0.0000, 0.0000, 0.0000;
  (11, 0) 0.0119, 0.0065, 0.0003, 0.0004, 0.0003, 0.0001, 0.0001, 0.0003, 0.9800, 0.0001;
  (11, 1) 0.9800, 0.0102, 0.0028, 0.0059, 0.0005, 0.0005, 0.0000, 0.0001, 0.0000, 0.0000;
  (11, 2) 0.0136, 0.0051, 0.9800, 0.0003, 0.0007, 0.0001, 0.0001, 0.0001, 0.0000, 0.0000;
  (11, 3) 0.0112, 0.0038, 0.0006, 0.0040, 0.0002, 0.0001, 0.0000, 0.9800, 0.0000, 0.0001;
  (11, 4) 0.0126, 0.0055, 0.0005, 0.0009, 0.0001, 0.0000, 0.0003, 0.0001, 0.9800, 0.0000;
  (11, 5) 0.0004, 0.0194, 0.0000, 0.0001, 0.0001, 0.0000, 0.0000, 0.0000, 0.0000, 0.9800;
  (11, 6) 0.9800, 0.0043, 0.0123, 0.0031, 0.0003, 0.0000, 0.0000, 0.0000, 0.0000, 0.0000;
  (11, 7) 0.0187, 0.0005, 0.0007, 0.0001, 0.0000, 0.9800, 0.0000, 0.0000, 0.0000, 0.0000;
  (11, 8) 0.0005, 0.0018, 0.0060, 0.0003, 0.0095, 0.0005, 0.9800, 0.0003, 0.0005, 0.0006;
  (11, 9) 0.0195, 0.9800, 0.0004, 0.0000, 0.0001, 0.0000, 0.0000, 0.0000, 0.0000, 0.0000;
  (11, 10) 0.0132, 0.0001, 0.0001, 0.9800, 0.0020, 0.0031, 0.0000, 0.0009, 0.0005, 0.0001;
  (11, 11) 0.0117, 0.0036, 0.0007, 0.0003, 0.9800, 0.0011, 0.0006, 0.0006, 0.0003, 0.0011;
  (11, 12) 0.0062, 0.0050, 0.0023, 0.0030, 0.0021, 0.0011, 0.0002, 0.0000, 0.0001, 0.9800;
  (11, 13) 0.0079, 0.0079, 0.0030, 0.0010, 0.0002, 0.0000, 0.0000, 0.0000, 0.9800, 0.0000;
  (11, 14) 0.0147, 0.0008, 0.0028, 0.9800, 0.0001, 0.0015, 0.0001, 0.0000, 0.0000, 0.0000;
  (11, 15) 0.9800, 0.0078, 0.0053, 0.0060, 0.0008, 0.0001, 0.0000, 0.0000, 0.0000, 0.0000;
  (11, 16) 0.0087, 0.0082, 0.0011, 0.0005, 0.0012, 0.0002, 0.9800, 0.0000, 0.0000, 0.0001;
  (11, 17) 0.0111, 0.9800, 0.0060, 0.0007, 0.0006, 0.0013, 0.0002, 0.0000, 0.0001, 0.0000;
}

probability (column8) {
  table 0.0685, 0.0541, 0.0557, 0.0484, 0.0336, 0.0146, 0.0235, 0.0386, 0.0575, 0.0333, 0.0276, 0.0274, 0.0524, 0.0179, 0.0089, 0.0306, 0.0757, 0.0401, 0.0507, 0.0323, 0.0540, 0.0388, 0.0644, 0.0514;
}

probability (column9) {
  table 0.0688, 0.0864, 0.2820, 0.0505, 0.1632, 0.1104, 0.0826, 0.1001, 0.0560;
}

probability (column10 | column8, column9) {
  (0, 0) 0.0044, 0.0114, 0.0005, 0.0004, 0.0008, 0.0009, 0.0014, 0.0001, 0.0001, 0.9800;
  (0, 1) 0.0148, 0.0033, 0.0014, 0.0001, 0.0003, 0.0000, 0.0000, 0.9800, 0.0000, 0.0001;
  (0, 2) 0.0096, 0.0063, 0.0011, 0.0029, 0.0000, 0.0001, 0.9800, 0.0000, 0.0000, 0.0000;
  (0, 3) 0.0089, 0.0039, 0.0053, 0.9800, 0.0009, 0.0005, 0.0005, 0.0000, 0.0000, 0.0000;
  (0, 4) 0.0080, 0.9800, 0.0044, 0.0045, 0.0028, 0.0000, 0.0003, 0.0000, 0.0000, 0.0000;
  (0, 5) 0.9800, 0.0123, 0.0017, 0.0037, 0.0005, 0.0011, 0.0003, 0.0001, 0.0001, 0.0002;
  (0, 6) 0.0094, 0.0094, 0.0003, 0.0002, 0.0001, 0.9800, 0.0001, 0.0004, 0.0000, 0.0001;
  (0, 7) 0.0103, 0.0010, 0.9800, 0.0070, 0.0006, 0.0004, 0.0006, 0.0001, 0.0000, 0.0000;
  (0, 8) 0.0103, 0.0043, 0.0032, 0.0005, 0.0008, 0.0006, 0.0001, 0.0001, 0.9800, 0.0001;
  (1, 0) 0.0090, 0.0084, 0.0010, 0.0012, 0.9800, 0.0002, 0.0000, 0.0001, 0.0001, 0.0000;
  (1, 1) 0.0060, 0.0022, 0.0078, 0.0011, 0.0013, 0.0009, 0.0006, 0.9800, 0.0000, 0.0001;
  (1, 2) 0.0173, 0.0016, 0.9800, 0.0005, 0.0001, 0.0002, 0.0003, 0.0000, 0.0000, 0.0000;
  (1, 3) 0.0061, 0.0114, 0.0015, 0.0000, 0.0003, 0.0007, 0.0000, 0.0000, 0.0000, 0.9800;
  (1, 4) 0.0169, 0.0018, 0.0008, 0.0004, 0.9800, 0.0000, 0.0001, 0.0000, 0.0000, 0.0000;
  (1, 5) 0.9800, 0.0009, 0.0182, 0.0002, 0.0004, 0.0002, 0.0000, 0.0000, 0.0000, 0.0001;
  (1, 6) 0.0077, 0.9800, 0.0107, 0.0011, 0.0003, 0.0001, 0.0001, 0.0000, 0.0000, 0.0000;
  (1, 7) 0.0145, 0.0051, 0.0001, 0.0002, 0.0001, 0.0000, 0.0000, 0.0000, 0.9800, 0.0000;
  (1, 8) 0.0153, 0.0038, 0.0005, 0.9800, 0.0002, 0.0002, 0.0000, 0.0000, 0.0000, 0.0000;
  (2, 0) 0.0189, 0.0003, 0.0004, 0.0001, 0.0000, 0.9800, 0.0001, 0.0002, 0.0000, 0.0000;
  (2, 1) 0.0177, 0.0002, 0.0021, 0.0000, 0.0000, 0.0000, 0.9800, 0.0000, 0.0000, 0.0000;
  (2, 2) 0.0173, 0.0005, 0.0016, 0.0004, 0.0001, 0.0001, 0.0000, 0.9800, 0.0000, 0.0000;
  (2, 3) 0.0164, 0.9800, 0.0012, 0.0016, 0.0000, 0.0002, 0.0003, 0.0002, 0.0001, 0.0000;
  (2, 4) 0.0144, 0.0023, 0.0027, 0.0004, 0.0002, 0.0000, 0.0000, 0.0000, 0.0000, 0.9800;
  (2, 5) 0.0196, 0.0000, 0.9800, 0.0001, 0.0003, 0.0000, 0.0000, 0.0000, 0.0000, 0.0000;
  (2, 6) 0.0017, 0.0178, 0.0003, 0.9800, 0.0001, 0.0000, 0.0000, 0.0001, 0.0000, 0.0000;
  (2, 7) 0.0070, 0.0040, 0.0014, 0.0001, 0.9800, 0.0041, 0.0026, 0.0002, 0.0001, 0.0005;
  (2, 8) 0.0064, 0.0067, 0.0062, 0.0006, 0.0001, 0.0000, 0.0000, 0.0000, 0.9800, 0.0000;
  (3, 0) 0.9800, 0.0161, 0.0006, 0.0030, 0.0002, 0.0000, 0.0001, 0.0000, 0.0000, 0.0000;
  (3, 1) 0.0059, 0.0102, 0.0025, 0.0009, 0.0002, 0.0002, 0.9800, 0.0000, 0.0000, 0.0001;
  (3, 2) 0.0071, 0.0014, 0.0096, 0.0004, 0.0001, 0.9800, 0.0008, 0.0001, 0.0004, 0.0001;
  (3, 3) 0.0197, 0.0002, 0.0000, 0.0000, 0.0001, 0.9800, 0.0000, 0.0000, 0.0000, 0.0000;
  (3, 4) 0.0023, 0.0148, 0.0011, 0.0017, 0.9800, 0.0001, 0.0000, 0.0000, 0.0000, 0.0000;
  (3, 5) 0.0159, 0.0027, 0.0010, 0.9800, 0.0002, 0.0000, 0.0001, 0.0000, 0.0001, 0.0000;
  (3, 6) 0.0002, 0.0008, 0.9800, 0.0156, 0.0025, 0.0006, 0.0002, 0.0000, 0.0001, 0.0000;
  (3, 7) 0.0022, 0.9800, 0.0042, 0.0008, 0.0088, 0.0011, 0.0011, 0.0002, 0.0011, 0.0005;
  (3, 8) 0.0107, 0.0090, 0.0002, 0.0000, 0.0001, 0.0000, 0.9800, 0.0000, 0.0000, 0.0000;
  (4, 0) 0.9800, 0.0043, 0.0084, 0.0004, 0.0050, 0.0010, 0.0001, 0.0000, 0.0005, 0.0003;
  (4, 1) 0.0002, 0.0070, 0.0076, 0.0018, 0.0033, 0.0001, 0.0000, 0.0000, 0.9800, 0.0000;
  (4, 2) 0.0060, 0.0034, 0.0079, 0.0023, 0.0001, 0.0002, 0.0001, 0.0000, 0.0000, 0.9800;
  (4, 3) 0.0142, 0.0053, 0.0005, 0.0000, 0.0000, 0.0000, 0.0000, 0.9800, 0.0000, 0.0000;
  (4, 4) 0.0155, 0.0021, 0.0004, 0.0002, 0.0007, 0.0002, 0.0006, 0.0001, 0.0002, 0.9800;
  (4, 5) 0.0036, 0.0081, 0.9800, 0.0074, 0.0002, 0.0001, 0.0005, 0.0001, 0.0000, 0.0000;
  (4, 6) 0.0151, 0.9800, 0.0032, 0.0002, 0.0013, 0.0000, 0.0000, 0.0002, 0.0000, 0.0000;
  (4, 7) 0.0037, 0.0141, 0.0002, 0.0001, 0.0014, 0.0002, 0.0002, 0.0000, 0.9800, 0.0001;
  (4, 8) 0.0128, 0.0009, 0.0043, 0.9800, 0.0013, 0.0003, 0.0002, 0.0000, 0.0001, 0.0001;
  (5, 0) 0.0125, 0.0059, 0.0014, 0.0001, 0.9800, 0.0001, 0.0000, 0.0000, 0.0000, 0.0000;
  (5, 1) 0.9800, 0.0065, 0.0102, 0.0029, 0.0002, 0.0001, 0.0000, 0.0001, 0.0000, 0.0000;
  (5, 2) 0.0040, 0.0027, 0.0110, 0.0002, 0.0020, 0.9800, 0.0001, 0.0000, 0.0000, 0.0000;
  (5, 3) 0.0141, 0.0047, 0.0010, 0.0001, 0.0001, 0.0000, 0.9800, 0.0000, 0.0000, 0.0000;
  (5, 4) 0.0003, 0.0159, 0.0017, 0.0002, 0.0006, 0.0006, 0.0002, 0.9800, 0.0004, 0.0001;
  (5, 5) 0.0200, 0.0000, 0.0000, 0.0000, 0.0000, 0.0000, 0.0000, 0.9800, 0.0000, 0.0000;
  (5, 6) 0.0056, 0.0015, 0.0076, 0.0044, 0.0007, 0.0001, 0.9800, 0.0001, 0.0000, 0.0000;
  (5, 7) 0.0159, 0.0018, 0.0005, 0.0009, 0.0000, 0.9800, 0.0000, 0.0009, 0.0000, 0.0000;
  (5, 8) 0.0038, 0.0060, 0.0057, 0.9800, 0.0015, 0.0025, 0.0002, 0.0003, 0.0000, 0.0000;
  (6, 0) 0.0116, 0.0054, 0.0029, 0.0000, 0.0001, 0.0000, 0.0000, 0.0000, 0.9800, 0.0000;
  (6, 1) 0.0043, 0.0004, 0.9800, 0.0074, 0.0054, 0.0007, 0.0002, 0.0000, 0.0000, 0.0016;
  (6, 2) 0.9800, 0.0194, 0.0002, 0.0000, 0.0003, 0.0000, 0.0000, 0.0001, 0.0000, 0.0000;
  (6, 3) 0.0085, 0.0075, 0.0003, 0.0034, 0.9800, 0.0002, 0.0000, 0.0001, 0.0000, 0.0000;
  (6, 4) 0.0137, 0.0014, 0.0036, 0.0005, 0.0001, 0.0005, 0.0001, 0.0001, 0.0000, 0.9800;
  (6, 5) 0.0170, 0.9800, 0.0025, 0.0003, 0.0000, 0.0002, 0.0000, 0.0000, 0.0000, 0.0000;
  (6, 6) 0.0052, 0.0102, 0.0029, 0.0011, 0.0003, 0.0001, 0.0000, 0.0001, 0.0001, 0.9800;
  (6, 7) 0.0074, 0.0053, 0.0042, 0.0010, 0.0019, 0.0002, 0.0000, 0.0000, 0.9800, 0.0000;
  (6, 8) 0.0081, 0.0006, 0.0040, 0.0008, 0.9800, 0.0039, 0.0025, 0.0000, 0.0001, 0.0000;
  (7, 0) 0.0176, 0.0013, 0.0007, 0.9800, 0.0003, 0.0000, 0.0000, 0.0001, 0.0000, 0.0000;
  (7, 1) 0.0160, 0.0023, 0.0001, 0.0002, 0.0005, 0.0008, 0.0000, 0.9800, 0.0000, 0.0001;
  (7, 2) 0.0142, 0.9800, 0.0048, 0.0006, 0.0001, 0.0001, 0.0001, 0.0001, 0.0000, 0.0000;
  (7, 3) 0.0187, 0.0013, 0.9800, 0.0000, 0.0000, 0.0000, 0.0000, 0.0000, 0.0000, 0.0000;
  (7, 4) 0.0136, 0.0034, 0.0008, 0.0006, 0.0001, 0.0013, 0.9800, 0.0002, 0.0000, 0.0000;
  (7, 5) 0.0080, 0.0035, 0.0069, 0.0012, 0.0003, 0.9800, 0.0001, 0.0000, 0.0000, 0.0000;
  (7, 6) 0.9800, 0.0123, 0.0027, 0.0019, 0.0025, 0.0000, 0.0002, 0.0001, 0.0002, 0.0001;
  (7, 7) 0.0149, 0.0029, 0.0007, 0.9800, 0.0008, 0.0006, 0.0000, 0.0001, 0.0000, 0.0000;
  (7, 8) 0.0139, 0.0025, 0.0001, 0.0034, 0.0000, 0.0001, 0.0000, 0.0000, 0.0000, 0.9800;
  (8, 0) 0.0117, 0.9800, 0.0010, 0.0057, 0.0014, 0.0001, 0.0001, 0.0000, 0.0000, 0.0000;
  (8, 1) 0.0067, 0.0116, 0.9800, 0.0013, 0.0002, 0.0000, 0.0002, 0.0000, 0.0000, 0.0000;
  (8, 2) 0.0173, 0.0025, 0.0001, 0.0001, 0.0000, 0.9800, 0.0000, 0.0000, 0.0000, 0.0000;
  (8, 3) 0.0149, 0.0011, 0.0007, 0.0023, 0.0002, 0.0003, 0.0003, 0.0000, 0.9800, 0.0002;
  (8, 4) 0.0170, 0.0012, 0.0014, 0.0003, 0.9800, 0.0000, 0.0001, 0.0000, 0.0000, 0.0000;
  (8, 5) 0.0141, 0.0038, 0.0018, 0.0000, 0.0000, 0.0002, 0.9800, 0.0001, 0.0000, 0.0000;
  (8, 6) 0.0195, 0.0004, 0.0000, 0.0001, 0.0000, 0.0000, 0.0000, 0.9800, 0.0000, 0.0000;
  (8, 7) 0.9800, 0.0013, 0.0103, 0.0003, 0.0012, 0.0062, 0.0004, 0.0001, 0.0001, 0.0001;
  (8, 8) 0.9800, 0.0088, 0.0034, 0.0052, 0.0009, 0.0006, 0.0003, 0.0006, 0.0002, 0.0000;
  (9, 0) 0.0049, 0.9800, 0.0069, 0.0001, 0.0013, 0.0063, 0.0005, 0.0000, 0.0000, 0.0000;
  (9, 1) 0.0100, 0.0009, 0.0082, 0.0008, 0.0001, 0.0000, 0.0000, 0.9800, 0.0000, 0.0000;
  (9, 2) 0.0155, 0.0042, 0.0002, 0.0001, 0.0000, 0.0000, 0.0000, 0.0000, 0.9800, 0.0000;
  (9, 3) 0.0039, 0.0117, 0.0010, 0.0010, 0.0007, 0.9800, 0.0014, 0.0000, 0.0001, 0.0002;
  (9, 4) 0.0175, 0.0012, 0.0012, 0.0001, 0.0000, 0.0000, 0.9800, 0.0000, 0.0000, 0.0000;
  (9, 5) 0.0016, 0.0183, 0.0000, 0.0001, 0.0000, 0.0000, 0.0000, 0.0000, 0.0000, 0.9800;
  (9, 6) 0.0137, 0.0041, 0.0007, 0.0006, 0.9800, 0.0003, 0.0001, 0.0004, 0.0001, 0.0000;
  (9, 7) 0.0074, 0.0104, 0.9800, 0.0015, 0.0001, 0.0004, 0.0002, 0.0000, 0.0000, 0.0000;
  (9, 8) 0.0125, 0.0038, 0.0005, 0.9800, 0.0022, 0.0003, 0.0005, 0.0001, 0.0001, 0.0000;
  (10, 0) 0.0158, 0.0041, 0.0000, 0.9800, 0.0000, 0.0000, 0.0000, 0.0001, 0.0000, 0.0000;
  (10, 1) 0.0052, 0.0131, 0.0008, 0.0001, 0.0006, 0.0000, 0.9800, 0.0001, 0.0000, 0.0001;
  (10, 2) 0.9800, 0.0144, 0.0045, 0.0002, 0.0002, 0.0001, 0.0001, 0.0005, 0.0000, 0.0000;
  (10, 3) 0.0186, 0.0014, 0.9800, 0.0000, 0.0000, 0.0000, 0.0000, 0.0000, 0.0000, 0.0000;
  (10, 4) 0.0024, 0.9800, 0.0031, 0.0073, 0.0059, 0.0004, 0.0004, 0.0000, 0.0003, 0.0002;
  (10, 5) 0.0196, 0.0003, 0.0001, 0.0000, 0.9800, 0.0000, 0.0000, 0.0000, 0.0000, 0.0000;
  (10, 6) 0.0028, 0.0134, 0.0001, 0.0027, 0.0005, 0.0004, 0.0000, 0.0000, 0.9800, 0.0001;
  (10, 7) 0.0043, 0.0057, 0.0045, 0.0018, 0.0012, 0.0022, 0.0003, 0.9800, 0.0000, 0.0000;
  (10, 8) 0.0086, 0.0005, 0.0084, 0.0022, 0.0000, 0.0002, 0.0001, 0.0000, 0.0000, 0.9800;
  (11, 0) 0.0106, 0.0021, 0.0008, 0.0052, 0.0001, 0.9800, 0.0005, 0.0002, 0.0001, 0.0004;
  (11, 1) 0.0010, 0.0130, 0.0040, 0.0019, 0.0000, 0.0000, 0.0000, 0.0001, 0.0000, 0.9800;
  (11, 2) 0.0169, 0.0029, 0.0001, 0.0000, 0.0001, 0.0000, 0.0000, 0.0000, 0.9800, 0.0000;
  (11, 3) 0.0118, 0.0034, 0.0040, 0.0001, 0.0006, 0.0000, 0.9800, 0.0001, 0.0000, 0.0000;
  (11, 4) 0.0069, 0.0024, 0.0040, 0.0041, 0.0018, 0.0007, 0.0000, 0.9800, 0.0000, 0.0001;
  (11, 5) 0.0029, 0.0158, 0.0010, 0.0001, 0.0001, 0.9800, 0.0000, 0.0001, 0.0000, 0.0000;
  (11, 6) 0.9800, 0.0055, 0.0137, 0.0003, 0.0002, 0.0000, 0.0000, 0.0003, 0.0000, 0.0000;
  (11, 7) 0.0177, 0.0011, 0.9800, 0.0006, 0.0000, 0.0001, 0.0004, 0.0000, 0.0001, 0.0000;
  (11, 8) 0.0116, 0.0065, 0.0005, 0.9800, 0.0009, 0.0004, 0.0000, 0.0000, 0.0000, 0.0001;
  (12, 0) 0.0062, 0.9800, 0.0107, 0.0028, 0.0001, 0.0002, 0.0000, 0.0000, 0.0000, 0.0000;
  (12, 1) 0.0150, 0.0002, 0.0022, 0.0015, 0.9800, 0.0001, 0.0002, 0.0007, 0.0001, 0.0000;
  (12, 2) 0.9800, 0.0002, 0.0103, 0.0072, 0.0013, 0.0004, 0.0004, 0.0002, 0.0000, 0.0000;
  (12, 3) 0.0091, 0.0098, 0.0002, 0.0008, 0.0000, 0.9800, 0.0000, 0.0001, 0.0000, 0.0000;
  (12, 4) 0.0054, 0.0071, 0.9800, 0.0049, 0.0008, 0.0010, 0.0003, 0.0005, 0.0000, 0.0000;
  (12, 5) 0.0042, 0.9800, 0.0026, 0.0056, 0.0049, 0.0010, 0.0002, 0.0007, 0.0000, 0.0008;
  (12, 6) 0.0068, 0.0021, 0.0090, 0.0013, 0.0007, 0.0000, 0.0001, 0.9800, 0.0000, 0.0000;
  (12, 7) 0.0066, 0.0106, 0.0001, 0.0016, 0.0002, 0.0007, 0.9800, 0.0001, 0.0001, 0.0000;
  (12, 8) 0.0027, 0.0160, 0.0008, 0.0002, 0.0002, 0.0001, 0.0000, 0.0000, 0.9800, 0.0000;
  (13, 0) 0.0158, 0.0006, 0.0002, 0.0021, 0.0006, 0.0003, 0.0002, 0.0002, 0.0000, 0.9800;
  (13, 1) 0.0076, 0.0019, 0.0023, 0.9800, 0.0033, 0.0043, 0.0003, 0.0001, 0.0001, 0.0001;
  (13, 2) 0.0178, 0.0009, 0.0010, 0.0003, 0.9800, 0.0000, 0.0000, 0.0000, 0.0000, 0.0000;
  (13, 3) 0.0048, 0.9800, 0.0091, 0.0019, 0.0040, 0.0002, 0.0000, 0.0000, 0.0000, 0.0000;
  (13, 4) 0.0034, 0.0039, 0.9800, 0.0029, 0.0046, 0.0019, 0.0029, 0.0002, 0.0001, 0.0001;
  (13, 5) 0.0057, 0.0024, 0.0016, 0.9800, 0.0001, 0.0029, 0.0057, 0.0007, 0.0001, 0.0008;
  (13, 6) 0.0052, 0.0019, 0.0051, 0.0076, 0.0000, 0.0000, 0.0001, 0.9800, 0.0000, 0.0001;
  (13, 7) 0.0123, 0.0058, 0.0003, 0.0014, 0.9800, 0.0002, 0.0000, 0.0000, 0.0000, 0.0000;
  (13, 8) 0.0139, 0.0013, 0.0027, 0.0014, 0.0003, 0.0004, 0.9800, 0.0000, 0.0000, 0.0000;
  (14, 0) 0.0134, 0.0005, 0.0001, 0.0042, 0.0007, 0.9800, 0.0005, 0.0005, 0.0001, 0.0000;
  (14, 1) 0.0105, 0.0001, 0.0033, 0.0015, 0.0045, 0.0001, 0.0000, 0.0000, 0.9800, 0.0000;
  (14, 2) 0.0062, 0.0078, 0.0014, 0.0041, 0.0002, 0.0000, 0.0001, 0.0002, 0.0000, 0.9800;
  (14, 3) 0.9800, 0.0174, 0.0018, 0.0001, 0.0006, 0.0001, 0.0000, 0.0000, 0.0000, 0.0000;
  (14, 4) 0.0057, 0.0086, 0.0028, 0.0023, 0.0001, 0.0005, 0.0000, 0.0000, 0.9800, 0.0000;
  (14, 5) 0.0182, 0.0006, 0.0008, 0.9800, 0.0003, 0.0000, 0.0000, 0.0000, 0.0001, 0.0000;
  (14, 6) 0.0074, 0.0045, 0.0019, 0.0050, 0.9800, 0.0005, 0.0007, 0.0000, 0.0000, 0.0000;
  (14, 7) 0.0111, 0.9800, 0.0050, 0.0007, 0.0000, 0.0014, 0.0016, 0.0000, 0.0001, 0.0001;
  (14, 8) 0.0065, 0.0020, 0.0093, 0.0012, 0.0005, 0.0001, 0.9800, 0.0002, 0.0002, 0.0000;
  (15, 0) 0.0051, 0.0136, 0.0011, 0.0002, 0.0000, 0.9800, 0.0000, 0.0000, 0.0000, 0.0000;
  (15, 1) 0.0072, 0.0081, 0.9800, 0.0005, 0.0042, 0.0000, 0.0000, 0.0000, 0.0000, 0.0000;
  (15, 2) 0.0065, 0.0065, 0.0032, 0.0035, 0.0002, 0.0001, 0.0000, 0.9800, 0.0000, 0.0000;
  (15, 3) 0.0066, 0.0014, 0.0028, 0.0058, 0.0006, 0.0008, 0.0019, 0.0000, 0.0001, 0.9800;
  (15, 4) 0.9800, 0.0079, 0.0067, 0.0034, 0.0010, 0.0005, 0.0002, 0.0001, 0.0000, 0.0002;
  (15, 5) 0.9800, 0.0112, 0.0076, 0.0005, 0.0000, 0.0004, 0.0002, 0.0000, 0.0001, 0.0000;
  (15, 6) 0.0185, 0.9800, 0.0001, 0.0009, 0.0004, 0.0001, 0.0000, 0.0000, 0.0000, 0.0000;
  (15, 7) 0.0140, 0.0042, 0.0004, 0.0011, 0.0001, 0.0002, 0.0000, 0.9800, 0.0000, 0.0000;
  (15, 8) 0.0193, 0.0002, 0.0003, 0.0001, 0.0001, 0.0000, 0.0000, 0.0000, 0.9800, 0.0000;
  (16, 0) 0.0024, 0.0145, 0.0004, 0.9800, 0.0011, 0.0002, 0.0002, 0.0010, 0.0001, 0.0001;
  (16, 1) 0.0117, 0.0037, 0.9800, 0.0001, 0.0035, 0.0002, 0.0005, 0.0001, 0.0002, 0.0000;
  (16, 2) 0.0090, 0.0094, 0.0003, 0.0001, 0.9800, 0.0008, 0.0001, 0.0001, 0.0002, 0.0000;
  (16, 3) 0.0053, 0.0010, 0.0048, 0.0014, 0.0008, 0.0014, 0.9800, 0.0003, 0.0014, 0.0036;
  (16, 4) 0.0084, 0.0054, 0.0039, 0.0017, 0.0002, 0.0003, 0.0000, 0.0001, 0.0000, 0.9800;
  (16, 5) 0.0076, 0.0112, 0.0004, 0.0003, 0.0001, 0.9800, 0.0002, 0.0000, 0.0002, 0.0000;
  (16, 6) 0.0063, 0.0039, 0.0068, 0.9800, 0.0023, 0.0003, 0.0001, 0.0003, 0.0000, 0.0000;
  (16, 7) 0.9800, 0.0167, 0.0025, 0.0003, 0.0000, 0.0001, 0.0001, 0.0003, 0.0000, 0.0000;
  (16, 8) 0.0004, 0.0071, 0.0051, 0.0014, 0.0060, 0.0000, 0.0000, 0.0000, 0.9800, 0.0000;
  (17, 0) 0.0139, 0.9800, 0.0055, 0.0003, 0.0002, 0.0001, 0.0000, 0.0000, 0.0000, 0.0000;
  (17, 1) 0.0134, 0.0058, 0.9800, 0.0007, 0.0000, 0.0001, 0.0000, 0.0000, 0.0000, 0.0000;
  (17, 2) 0.0176, 0.0006, 0.0004, 0.0007, 0.0002, 0.9800, 0.0002, 0.0001, 0.0000, 0.0002;
  (17, 3) 0.0188, 0.0011, 0.0001, 0.0000, 0.0000, 0.0000, 0.9800, 0.0000, 0.0000, 0.0000;
  (17, 4) 0.0176, 0.0011, 0.0011, 0.0000, 0.0001, 0.0001, 0.0000, 0.9800, 0.0000, 0.0000;
  (17, 5) 0.0038, 0.0124, 0.0034, 0.0002, 0.0001, 0.0001, 0.0000, 0.0000, 0.0000, 0.9800;
  (17, 6) 0.0177, 0.0011, 0.0010, 0.0001, 0.9800, 0.0000, 0.0000, 0.0001, 0.0000, 0.0000;
  (17, 7) 0.0107, 0.0026, 0.0036, 0.0001, 0.0025, 0.0004, 0.0000, 0.0001, 0.0000, 0.9800;
  (17, 8) 0.9800, 0.0046, 0.0053, 0.0000, 0.0009, 0.0088, 0.0002, 0.0001, 0.0000, 0.0001;
  (18, 0) 0.0043, 0.0054, 0.0048, 0.0046, 0.0000, 0.0009, 0.9800, 0.0000, 0.0000, 0.0000;
  (18, 1) 0.0041, 0.0051, 0.0040, 0.9800, 0.0052, 0.0003, 0.0013, 0.0000, 0.0000, 0.0000;
  (18, 2) 0.0179, 0.0008, 0.9800, 0.0011, 0.0000, 0.0002, 0.0000, 0.0000, 0.0000, 0.0000;
  (18, 3) 0.0081, 0.0117, 0.0002, 0.0000, 0.0000, 0.9800, 0.0000, 0.0000, 0.0000, 0.0000;
  (18, 4) 0.0142, 0.0011, 0.0020, 0.0010, 0.0001, 0.0011, 0.0002, 0.9800, 0.0003, 0.0000;
  (18, 5) 0.0189, 0.0001, 0.0006, 0.0003, 0.0001, 0.0000, 0.0000, 0.0000, 0.9800, 0.0000;
  (18, 6) 0.0104, 0.0070, 0.0000, 0.0004, 0.9800, 0.0008, 0.0003, 0.0002, 0.0004, 0.0005;
  (18, 7) 0.0097, 0.9800, 0.0086, 0.0010, 0.0003, 0.0002, 0.0002, 0.0000, 0.0000, 0.0000;
  (18, 8) 0.0100, 0.0072, 0.0020, 0.0000, 0.0001, 0.9800, 0.0003, 0.0002, 0.0002, 0.0000;
  (19, 0) 0.0147, 0.0040, 0.0005, 0.0006, 0.0001, 0.0001, 0.0000, 0.9800, 0.0000, 0.0000;
  (19, 1) 0.9800, 0.0095, 0.0070, 0.0032, 0.0000, 0.0001, 0.0002, 0.0000, 0.0000, 0.0000;
  (19, 2) 0.0107, 0.0028, 0.0031, 0.0008, 0.0022, 0.0002, 0.9800, 0.0002, 0.0000, 0.0000;
  (19, 3) 0.0119, 0.0052, 0.0007, 0.0001, 0.0016, 0.0002, 0.0001, 0.0001, 0.9800, 0.0001;
  (19, 4) 0.0121, 0.0063, 0.0004, 0.9800, 0.0001, 0.0008, 0.0002, 0.0001, 0.0000, 0.0000;
  (19, 5) 0.0120, 0.0020, 0.0058, 0.0001, 0.0001, 0.0000, 0.0000, 0.0000, 0.0000, 0.9800;
  (19, 6) 0.0196, 0.9800, 0.0003, 0.0001, 0.0000, 0.0000, 0.0000, 0.0000, 0.0000, 0.0000;
  (19, 7) 0.0067, 0.0124, 0.9800, 0.0006, 0.0003, 0.0000, 0.0000, 0.0000, 0.0000, 0.0000;
  (19, 8) 0.0053, 0.0078, 0.0010, 0.0044, 0.9800, 0.0008, 0.0000, 0.0005, 0.0001, 0.0001;
  (20, 0) 0.0086, 0.0051, 0.0040, 0.0018, 0.0004, 0.0000, 0.0000, 0.0001, 0.9800, 0.0000;
  (20, 1) 0.0121, 0.0076, 0.0002, 0.0000, 0.0000, 0.0000, 0.9800, 0.0001, 0.0000, 0.0000;
  (20, 2) 0.0142, 0.0024, 0.0018, 0.0003, 0.0010, 0.0002, 0.0000, 0.9800, 0.0001, 0.0000;
  (20, 3) 0.0027, 0.0023, 0.9800, 0.0114, 0.0018, 0.0011, 0.0004, 0.0002, 0.0000, 0.0001;
  (20, 4) 0.9800, 0.0070, 0.0050, 0.0017, 0.0063, 0.0000, 0.0000, 0.0000, 0.0000, 0.0000;
  (20, 5) 0.0102, 0.9800, 0.0064, 0.0023, 0.0005, 0.0002, 0.0000, 0.0000, 0.0001, 0.0003;
  (20, 6) 0.0193, 0.0005, 0.0001, 0.0000, 0.0000, 0.0000, 0.0000, 0.0001, 0.0000, 0.9800;
  (20, 7) 0.0071, 0.0112, 0.0003, 0.9800, 0.0008, 0.0003, 0.0003, 0.0000, 0.0000, 0.0000;
  (20, 8) 0.0080, 0.0017, 0.0042, 0.0039, 0.0015, 0.9800, 0.0003, 0.0001, 0.0001, 0.0002;
  (21, 0) 0.0008, 0.0157, 0.0010, 0.0006, 0.9800, 0.0009, 0.0009, 0.0001, 0.0000, 0.0000;
  (21, 1) 0.0127, 0.0005, 0.0020, 0.0004, 0.0013, 0.0021, 0.0002, 0.0002, 0.0006, 0.9800;
  (21, 2) 0.0004, 0.0123, 0.0032, 0.9800, 0.0009, 0.0018, 0.0004, 0.0002, 0.0006, 0.0002;
  (21, 3) 0.0176, 0.0012, 0.0003, 0.0003, 0.0003, 0.9800, 0.0001, 0.0000, 0.0001, 0.0001;
  (21, 4) 0.0186, 0.0005, 0.0008, 0.0001, 0.0000, 0.0000, 0.0000, 0.9800, 0.0000, 0.0000;
  (21, 5) 0.0165, 0.0028, 0.9800, 0.0005, 0.0000, 0.0002, 0.0000, 0.0000, 0.0000, 0.0000;
  (21, 6) 0.0019, 0.0024, 0.0085, 0.0007, 0.0021, 0.0029, 0.9800, 0.0003, 0.0001, 0.0011;
  (21, 7) 0.9800, 0.0086, 0.0067, 0.0033, 0.0008, 0.0002, 0.0001, 0.0002, 0.0000, 0.0001;
  (21, 8) 0.0160, 0.0014, 0.0010, 0.0010, 0.9800, 0.0001, 0.0001, 0.0001, 0.0001, 0.0002;
  (22, 0) 0.0157, 0.9800, 0.0031, 0.0012, 0.0000, 0.0000, 0.0000, 0.0000, 0.0000, 0.0000;
  (22, 1) 0.0115, 0.0019, 0.0037, 0.0002, 0.0020, 0.0002, 0.0001, 0.0001, 0.9800, 0.0003;
  (22, 2) 0.9800, 0.0021, 0.0094, 0.0022, 0.0013, 0.0036, 0.0012, 0.0000, 0.0001, 0.0001;
  (22, 3) 0.0100, 0.0031, 0.0010, 0.0041, 0.9800, 0.0012, 0.0002, 0.0002, 0.0002, 0.0000;
  (22, 4) 0.0166, 0.0022, 0.0001, 0.0008, 0.0002, 0.0000, 0.0000, 0.9800, 0.0000, 0.0001;
  (22, 5) 0.0175, 0.0003, 0.0005, 0.0002, 0.0008, 0.0004, 0.0002, 0.0001, 0.9800, 0.0000;
  (22, 6) 0.0088, 0.9800, 0.0080, 0.0019, 0.0006, 0.0002, 0.0004, 0.0001, 0.0000, 0.0000;
  (22, 7) 0.0008, 0.0087, 0.9800, 0.0078, 0.0019, 0.0001, 0.0002, 0.0001, 0.0003, 0.0001;
  (22, 8) 0.0096, 0.0022, 0.0008, 0.0006, 0.0054, 0.0007, 0.0002, 0.0001, 0.0004, 0.9800;
  (23, 0) 0.0101, 0.0049, 0.0003, 0.0009, 0.0004, 0.9800, 0.0003, 0.0022, 0.0008, 0.0001;
  (23, 1) 0.0115, 0.0032, 0.0042, 0.0005, 0.0005, 0.0000, 0.9800, 0.0000, 0.0000, 0.0001;
  (23, 2) 0.0184, 0.0007, 0.0001, 0.9800, 0.0007, 0.0000, 0.0001, 0.0000, 0.0000, 0.0000;
  (23, 3) 0.0167, 0.0018, 0.0006, 0.0008, 0.0000, 0.0000, 0.0001, 0.0000, 0.9800, 0.0000;
  (23, 4) 0.0001, 0.0031, 0.9800, 0.0165, 0.0000, 0.0002, 0.0000, 0.0001, 0.0000, 0.0000;
  (23, 5) 0.0175, 0.0022, 0.0003, 0.0000, 0.0000, 0.0000, 0.9800, 0.0000, 0.0000, 0.0000;
  (23, 6) 0.0086, 0.0060, 0.0014, 0.0012, 0.0013, 0.9800, 0.0013, 0.0001, 0.0001, 0.0000;
  (23, 7) 0.0193, 0.0004, 0.0002, 0.0000, 0.0000, 0.0001, 0.0000, 0.9800, 0.0000, 0.0000;
  (23, 8) 0.9800, 0.0176, 0.0003, 0.0006, 0.0012, 0.0002, 0.0000, 0.0000, 0.0000, 0.0001;
}

probability (column11) {
  table 0.1034, 0.0953, 0.1366, 0.2235, 0.2237, 0.2175;
}

probability (column12) {
  table 0.1008, 0.1594, 0.1288, 0.1788, 0.1235, 0.3087;
}

probability (column13) {
  table 0.1958, 0.1599, 0.0979, 0.1353, 0.1731, 0.2380;
}

probability (column14 | column11, column12, column13) {
  (0, 0, 0) 0.9800, 0.0149, 0.0044, 0.0007, 0.0000, 0.0000, 0.0000, 0.0000, 0.0000, 0.0000;
  (0, 0, 1) 0.0024, 0.0014, 0.0055, 0.9800, 0.0079, 0.0026, 0.0000, 0.0001, 0.0001, 0.0000;
  (0, 0, 2) 0.0165, 0.0031, 0.0004, 0.0000, 0.9800, 0.0000, 0.0000, 0.0000, 0.0000, 0.0000;
  (0, 0, 3) 0.0082, 0.9800, 0.0028, 0.0046, 0.0003, 0.0027, 0.0002, 0.0004, 0.0004, 0.0004;
  (0, 0, 4) 0.0136, 0.0037, 0.9800, 0.0017, 0.0000, 0.0005, 0.0004, 0.0000, 0.0001, 0.0000;
  (0, 0, 5) 0.0050, 0.0015, 0.0094, 0.0014, 0.0014, 0.9800, 0.0001, 0.0008, 0.0001, 0.0003;
  (0, 1, 0) 0.0027, 0.0138, 0.0030, 0.0003, 0.0002, 0.0000, 0.9800, 0.0000, 0.0000, 0.0000;
  (0, 1, 1) 0.0049, 0.0115, 0.0016, 0.0014, 0.0005, 0.0001, 0.0000, 0.0000, 0.9800, 0.0000;
  (0, 1, 2) 0.0082, 0.0010, 0.0055, 0.0006, 0.0039, 0.0007, 0.0000, 0.9800, 0.0001, 0.0000;
  (0, 1, 3) 0.0074, 0.0085, 0.0005, 0.0010, 0.0020, 0.0002, 0.0003, 0.0001, 0.0000, 0.9800;
  (0, 1, 4) 0.9800, 0.0086, 0.0050, 0.0011, 0.0037, 0.0011, 0.0003, 0.0001, 0.0000, 0.0001;
  (0, 1, 5) 0.0032, 0.0141, 0.0006, 0.0015, 0.0003, 0.9800, 0.0001, 0.0000, 0.0002, 0.0000;
  (0, 2, 0) 0.0085, 0.0103, 0.0004, 0.0002, 0.9800, 0.0006, 0.0000, 0.0000, 0.0000, 0.0000;
  (0, 2, 1) 0.0151, 0.0025, 0.0013, 0.0005, 0.0001, 0.0004, 0.0001, 0.0000, 0.0000, 0.9800;
  (0, 2, 2) 0.0173, 0.0012, 0.0003, 0.9800, 0.0004, 0.0003, 0.0004, 0.0000, 0.0000, 0.0001;
  (0, 2, 3) 0.0102, 0.9800, 0.0011, 0.0006, 0.0037, 0.0004, 0.0039, 0.0001, 0.0000, 0.0000;
  (0, 2, 4) 0.0173, 0.0009, 0.9800, 0.0013, 0.0001, 0.0002, 0.0000, 0.0001, 0.0001, 0.0000;
  (0, 2, 5) 0.0098, 0.0050, 0.0034, 0.0001, 0.0011, 0.0005, 0.0001, 0.0000, 0.9800, 0.0000;
  (0, 3, 0) 0.0002, 0.0039, 0.0130, 0.0011, 0.0002, 0.0006, 0.9800, 0.0001, 0.0004, 0.0005;
  (0, 3, 1) 0.0176, 0.0005, 0.0014, 0.0001, 0.0001, 0.0003, 0.0000, 0.9800, 0.0000, 0.0000;
  (0, 3, 2) 0.0151, 0.0035, 0.0010, 0.0004, 0.0000, 0.0000, 0.0000, 0.0000, 0.9800, 0.0000;
  (0, 3, 3) 0.0184, 0.0011, 0.0003, 0.0001, 0.9800, 0.0000, 0.0001, 0.0000, 0.0000, 0.0000;
  (0, 3, 4) 0.9800, 0.0197, 0.0000, 0.0000, 0.0001, 0.0002, 0.0000, 0.0000, 0.0000, 0.0000;
  (0, 3, 5) 0.0103, 0.0076, 0.9800, 0.0020, 0.0001, 0.0000, 0.0000, 0.0000, 0.0000, 0.0000;
  (0, 4, 0) 0.0194, 0.0004, 0.0002, 0.9800, 0.0000, 0.0000, 0.0000, 0.0000, 0.0000, 0.0000;
  (0, 4, 1) 0.0199, 0.0001, 0.0000, 0.0000, 0.0000, 0.9800, 0.0000, 0.0000, 0.0000, 0.0000;
  (0, 4, 2) 0.0115, 0.9800, 0.0022, 0.0019, 0.0039, 0.0001, 0.0003, 0.0000, 0.0000, 0.0001;
  (0, 4, 3) 0.0149, 0.0027, 0.0011, 0.0004, 0.0004, 0.0001, 0.0002, 0.9800, 0.0001, 0.0001;
  (0, 4, 4) 0.0130, 0.0059, 0.0008, 0.0002, 0.0001, 0.0000, 0.0000, 0.0000, 0.0000, 0.9800;
  (0, 4, 5) 0.0147, 0.0030, 0.0004, 0.0003, 0.0009, 0.0001, 0.9800, 0.0004, 0.0001, 0.0001;
  (0, 5, 0) 0.0148, 0.0005, 0.0038, 0.0002, 0.0005, 0.0001, 0.9800, 0.0000, 0.0001, 0.0000;
  (0, 5, 1) 0.0100, 0.0041, 0.0011, 0.0045, 0.9800, 0.0002, 0.0000, 0.0000, 0.0001, 0.0000;
  (0, 5, 2) 0.0186, 0.0007, 0.0007, 0.0000, 0.0000, 0.0000, 0.0000, 0.0000, 0.0000, 0.9800;
  (0, 5, 3) 0.0104, 0.0093, 0.0000, 0.0002, 0.0000, 0.0000, 0.0001, 0.0000, 0.9800, 0.0000;
  (0, 5, 4) 0.0139, 0.0040, 0.9800, 0.0006, 0.0013, 0.0001, 0.0001, 0.0000, 0.0000, 0.0000;
  (0, 5, 5) 0.9800, 0.0104, 0.0093, 0.0002, 0.0000, 0.0000, 0.0001, 0.0000, 0.0000, 0.0000;
  (1, 0, 0) 0.0178, 0.9800, 0.0008, 0.0004, 0.0008, 0.0002, 0.0000, 0.0000, 0.0000, 0.0000;
  (1, 0, 1) 0.0188, 0.0011, 0.0000, 0.9800, 0.0000, 0.0001, 0.0000, 0.0000, 0.0000, 0.0000;
  (1, 0, 2) 0.0194, 0.0001, 0.0005, 0.0000, 0.0000, 0.9800, 0.0000, 0.0000, 0.0000, 0.0000;
  (1, 0, 3) 0.0061, 0.0085, 0.0050, 0.0003, 0.0001, 0.0000, 0.0000, 0.9800, 0.0000, 0.0000;
  (1, 0, 4) 0.0034, 0.0120, 0.0038, 0.0000, 0.0006, 0.9800, 0.0001, 0.0000, 0.0000, 0.0001;
  (1, 0, 5) 0.0116, 0.0049, 0.0015, 0.9800, 0.0011, 0.0001, 0.0008, 0.0000, 0.0000, 0.0000;
  (1, 1, 0) 0.0084, 0.9800, 0.0110, 0.0003, 0.0003, 0.0000, 0.0000, 0.0000, 0.0000, 0.0000;
  (1, 1, 1) 0.0128, 0.0013, 0.9800, 0.0004, 0.0015, 0.0021, 0.0008, 0.0007, 0.0004, 0.0000;
  (1, 1, 2) 0.0029, 0.0134, 0.0017, 0.0016, 0.9800, 0.0001, 0.0002, 0.0001, 0.0000, 0.0000;
  (1, 1, 3) 0.9800, 0.0109, 0.0043, 0.0035, 0.0002, 0.0010, 0.0001, 0.0000, 0.0000, 0.0000;
  (1, 1, 4) 0.0043, 0.0131, 0.0020, 0.0005, 0.0000, 0.0001, 0.0000, 0.9800, 0.0000, 0.0000;
  (1, 1, 5) 0.0018, 0.0160, 0.0016, 0.0004, 0.0001, 0.0000, 0.0001, 0.0000, 0.9800, 0.0000;
  (1, 2, 0) 0.0017, 0.0143, 0.0028, 0.0004, 0.0006, 0.0002, 0.0000, 0.0000, 0.0000, 0.9800;
  (1, 2, 1) 0.0170, 0.0021, 0.0005, 0.0001, 0.0000, 0.0000, 0.9800, 0.0001, 0.0001, 0.0001;
  (1, 2, 2) 0.0012, 0.0107, 0.0049, 0.0009, 0.0008, 0.9800, 0.0004, 0.0006, 0.0003, 0.0002;
  (1, 2, 3) 0.0018, 0.0107, 0.0016, 0.0053, 0.0001, 0.0000, 0.0002, 0.0003, 0.0000, 0.9800;
  (1, 2, 4) 0.0158, 0.0004, 0.0021, 0.0014, 0.0000, 0.0001, 0.0002, 0.9800, 0.0000, 0.0000;
  (1, 2, 5) 0.0094, 0.0070, 0.0000, 0.0007, 0.9800, 0.0019, 0.0002, 0.0001, 0.0006, 0.0001;
  (1, 3, 0) 0.0128, 0.0063, 0.0000, 0.0004, 0.0005, 0.0000, 0.0000, 0.0000, 0.9800, 0.0000;
  (1, 3, 1) 0.0031, 0.9800, 0.0080, 0.0048, 0.0004, 0.0023, 0.0007, 0.0006, 0.0000, 0.0001;
  (1, 3, 2) 0.0025, 0.0169, 0.0002, 0.9800, 0.0003, 0.0000, 0.0001, 0.0000, 0.0000, 0.0000;
  (1, 3, 3) 0.0055, 0.0081, 0.9800, 0.0045, 0.0019, 0.0000, 0.0000, 0.0000, 0.0000, 0.0000;
  (1, 3, 4) 0.9800, 0.0070, 0.0099, 0.0026, 0.0004, 0.0000, 0.0000, 0.0001, 0.0000, 0.0000;
  (1, 3, 5) 0.0177, 0.0022, 0.0001, 0.0000, 0.0000, 0.0000, 0.9800, 0.0000, 0.0000, 0.0000;
  (1, 4, 0) 0.0001, 0.0108, 0.0050, 0.0038, 0.0002, 0.0000, 0.0000, 0.0001, 0.9800, 0.0000;
  (1, 4, 1) 0.0132, 0.0019, 0.0002, 0.0025, 0.0004, 0.9800, 0.0000, 0.0012, 0.0002, 0.0004;
  (1, 4, 2) 0.0160, 0.0032, 0.0004, 0.9800, 0.0002, 0.0001, 0.0001, 0.0000, 0.0000, 0.0000;
  (1, 4, 3) 0.0160, 0.0034, 0.0003, 0.0002, 0.0000, 0.0001, 0.0000, 0.9800, 0.0000, 0.0000;
  (1, 4, 4) 0.0104, 0.0024, 0.0050, 0.0014, 0.9800, 0.0005, 0.0002, 0.0001, 0.0000, 0.0000;
  (1, 4, 5) 0.0176, 0.9800, 0.0008, 0.0010, 0.0003, 0.0001, 0.0002, 0.0000, 0.0000, 0.0000;
  (1, 5, 0) 0.0074, 0.0000, 0.0115, 0.0003, 0.0001, 0.0002, 0.9800, 0.0001, 0.0004, 0.0000;
  (1, 5, 1) 0.9800, 0.0066, 0.0075, 0.0020, 0.0031, 0.0007, 0.0001, 0.0000, 0.0000, 0.0000;
  (1, 5, 2) 0.0061, 0.0039, 0.0082, 0.0017, 0.0001, 0.0000, 0.0000, 0.0000, 0.0000, 0.9800;
  (1, 5, 3) 0.0039, 0.0029, 0.9800, 0.0089, 0.0016, 0.0016, 0.0009, 0.0001, 0.0000, 0.0001;
  (1, 5, 4) 0.0023, 0.0099, 0.0027, 0.9800, 0.0040, 0.0002, 0.0002, 0.0004, 0.0001, 0.0002;
  (1, 5, 5) 0.0113, 0.0077, 0.0006, 0.0003, 0.0001, 0.0000, 0.0000, 0.0000, 0.0000, 0.9800;
  (2, 0, 0) 0.0023, 0.0023, 0.0054, 0.0093, 0.0006, 0.0000, 0.9800, 0.0000, 0.0000, 0.0001;
  (2, 0, 1) 0.0063, 0.0115, 0.0010, 0.0007, 0.0003, 0.0000, 0.0001, 0.0000, 0.9800, 0.0001;
  (2, 0, 2) 0.0096, 0.0033, 0.0048, 0.0006, 0.0003, 0.9800, 0.0009, 0.0004, 0.0000, 0.0001;
  (2, 0, 3) 0.0139, 0.0005, 0.0050, 0.0004, 0.0000, 0.0001, 0.0001, 0.9800, 0.0000, 0.0000;
  (2, 0, 4) 0.0159, 0.0020, 0.0009, 0.0003, 0.9800, 0.0008, 0.0001, 0.0000, 0.0000, 0.0000;
  (2, 0, 5) 0.0014, 0.0016, 0.9800, 0.0008, 0.0136, 0.0012, 0.0005, 0.0007, 0.0001, 0.0001;
  (2, 1, 0) 0.0048, 0.9800, 0.0062, 0.0011, 0.0033, 0.0019, 0.0012, 0.0009, 0.0004, 0.0002;
  (2, 1, 1) 0.9800, 0.0096, 0.0066, 0.0007, 0.0006, 0.0023, 0.0000, 0.0000, 0.0002, 0.0000;
  (2, 1, 2) 0.9800, 0.0052, 0.0041, 0.0062, 0.0013, 0.0003, 0.0020, 0.0000, 0.0007, 0.0002;
  (2, 1, 3) 0.0097, 0.0046, 0.9800, 0.0017, 0.0026, 0.0008, 0.0001, 0.0002, 0.0001, 0.0002;
  (2, 1, 4) 0.0153, 0.0040, 0.0004, 0.0002, 0.0000, 0.9800, 0.0000, 0.0001, 0.0000, 0.0000;
  (2, 1, 5) 0.0168, 0.0023, 0.0003, 0.0002, 0.0001, 0.0000, 0.0002, 0.0000, 0.0001, 0.9800;
  (2, 2, 0) 0.0047, 0.9800, 0.0000, 0.0061, 0.0062, 0.0012, 0.0015, 0.0002, 0.0000, 0.0001;
  (2, 2, 1) 0.0089, 0.0002, 0.0103, 0.9800, 0.0002, 0.0000, 0.0003, 0.0001, 0.0000, 0.0000;
  (2, 2, 2) 0.0070, 0.0074, 0.0042, 0.0004, 0.9800, 0.0010, 0.0000, 0.0000, 0.0000, 0.0000;
  (2, 2, 3) 0.0130, 0.0015, 0.0006, 0.0031, 0.0014, 0.0001, 0.0001, 0.9800, 0.0002, 0.0000;
  (2, 2, 4) 0.0106, 0.0035, 0.0047, 0.0008, 0.0004, 0.0000, 0.0000, 0.0000, 0.9800, 0.0000;
  (2, 2, 5) 0.0180, 0.0007, 0.0010, 0.0002, 0.0000, 0.0000, 0.9800, 0.0001, 0.0000, 0.0000;
  (2, 3, 0) 0.0088, 0.0065, 0.0021, 0.0009, 0.9800, 0.0016, 0.0001, 0.0000, 0.0000, 0.0000;
  (2, 3, 1) 0.0160, 0.9800, 0.0038, 0.0001, 0.0001, 0.0000, 0.0000, 0.0000, 0.0000, 0.0000;
  (2, 3, 2) 0.0079, 0.0088, 0.0018, 0.0008, 0.0002, 0.0005, 0.0000, 0.0000, 0.9800, 0.0000;
  (2, 3, 3) 0.0098, 0.0060, 0.0033, 0.9800, 0.0006, 0.0002, 0.0000, 0.0001, 0.0000, 0.0000;
  (2, 3, 4) 0.9800, 0.0089, 0.0043, 0.0008, 0.0031, 0.0004, 0.0024, 0.0000, 0.0001, 0.0000;
  (2, 3, 5) 0.0088, 0.0085, 0.0014, 0.0007, 0.0004, 0.9800, 0.0000, 0.0001, 0.0000, 0.0001;
  (2, 4, 0) 0.0193, 0.0001, 0.0005, 0.0000, 0.0001, 0.0000, 0.0000, 0.9800, 0.0000, 0.0000;
  (2, 4, 1) 0.0058, 0.0049, 0.0017, 0.0058, 0.0006, 0.0000, 0.0002, 0.0010, 0.0000, 0.9800;
  (2, 4, 2) 0.0057, 0.0011, 0.0017, 0.0048, 0.0011, 0.0044, 0.9800, 0.0008, 0.0002, 0.0002;
  (2, 4, 3) 0.0153, 0.0037, 0.9800, 0.0005, 0.0000, 0.0003, 0.0002, 0.0000, 0.0000, 0.0000;
  (2, 4, 4) 0.0118, 0.0041, 0.0014, 0.0026, 0.0001, 0.9800, 0.0000, 0.0000, 0.0000, 0.0000;
  (2, 4, 5) 0.0173, 0.0015, 0.0004, 0.0002, 0.9800, 0.0005, 0.0000, 0.0000, 0.0000, 0.0001;
  (2, 5, 0) 0.0087, 0.0036, 0.0014, 0.0010, 0.0044, 0.0002, 0.0001, 0.9800, 0.0001, 0.0005;
  (2, 5, 1) 0.0140, 0.9800, 0.0007, 0.0005, 0.0013, 0.0018, 0.0004, 0.0005, 0.0003, 0.0005;
  (2, 5, 2) 0.0069, 0.0086, 0.0039, 0.0002, 0.0001, 0.0002, 0.9800, 0.0001, 0.0000, 0.0000;
  (2, 5, 3) 0.0150, 0.0020, 0.9800, 0.0009, 0.0020, 0.0000, 0.0000, 0.0000, 0.0001, 0.0000;
  (2, 5, 4) 0.9800, 0.0170, 0.0003, 0.0001, 0.0005, 0.0015, 0.0000, 0.0003, 0.0002, 0.0001;
  (2, 5, 5) 0.0077, 0.0115, 0.0002, 0.0000, 0.0001, 0.0004, 0.0000, 0.0001, 0.9800, 0.0000;
  (3, 0, 0) 0.0163, 0.0037, 0.0000, 0.0000, 0.0000, 0.0000, 0.0000, 0.0000, 0.0000, 0.9800;
  (3, 0, 1) 0.0150, 0.0001, 0.0041, 0.9800, 0.0003, 0.0002, 0.0002, 0.0000, 0.0001, 0.0000;
  (3, 0, 2) 0.0113, 0.0076, 0.0003, 0.0002, 0.0004, 0.0002, 0.0000, 0.0000, 0.9800, 0.0000;
  (3, 0, 3) 0.0056, 0.0030, 0.0079, 0.9800, 0.0016, 0.0006, 0.0008, 0.0002, 0.0001, 0.0002;
  (3, 0, 4) 0.0115, 0.0035, 0.0003, 0.0021, 0.0012, 0.0011, 0.0003, 0.0000, 0.0000, 0.9800;
  (3, 0, 5) 0.0129, 0.0048, 0.0018, 0.0003, 0.9800, 0.0002, 0.0000, 0.0000, 0.0000, 0.0000;
  (3, 1, 0) 0.0118, 0.9800, 0.0032, 0.0013, 0.0030, 0.0002, 0.0005, 0.0000, 0.0000, 0.0000;
  (3, 1, 1) 0.0025, 0.0057, 0.9800, 0.0000, 0.0116, 0.0001, 0.0000, 0.0000, 0.0001, 0.0000;
  (3, 1, 2) 0.0122, 0.0054, 0.0001, 0.0019, 0.0003, 0.0001, 0.0000, 0.9800, 0.0000, 0.0000;
  (3, 1, 3) 0.0123, 0.0002, 0.0043, 0.0028, 0.0003, 0.0001, 0.9800, 0.0000, 0.0000, 0.0000;
  (3, 1, 4) 0.0121, 0.0018, 0.0030, 0.0019, 0.0008, 0.9800, 0.0002, 0.0001, 0.0000, 0.0001;
  (3, 1, 5) 0.9800, 0.0131, 0.0012, 0.0034, 0.0006, 0.0004, 0.0005, 0.0006, 0.0000, 0.0002;
  (3, 2, 0) 0.0089, 0.9800, 0.0094, 0.0011, 0.0002, 0.0002, 0.0001, 0.0000, 0.0001, 0.0000;
  (3, 2, 1) 0.0192, 0.0003, 0.0002, 0.0001, 0.0000, 0.9800, 0.0001, 0.0001, 0.0000, 0.0000;
  (3, 2, 2) 0.0135, 0.0061, 0.0003, 0.0000, 0.0000, 0.0000, 0.0000, 0.0001, 0.0000, 0.9800;
  (3, 2, 3) 0.0098, 0.0042, 0.9800, 0.0013, 0.0028, 0.0004, 0.0005, 0.0009, 0.0000, 0.0001;
  (3, 2, 4) 0.0141, 0.0012, 0.0033, 0.9800, 0.0004, 0.0006, 0.0001, 0.0002, 0.0000, 0.0001;
  (3, 2, 5) 0.0033, 0.0050, 0.0008, 0.0055, 0.0006, 0.0015, 0.0014, 0.0014, 0.9800, 0.0005;
  (3, 3, 0) 0.0190, 0.0002, 0.0007, 0.0000, 0.0000, 0.0001, 0.9800, 0.0000, 0.0000, 0.0000;
  (3, 3, 1) 0.9800, 0.0092, 0.0077, 0.0001, 0.0000, 0.0019, 0.0004, 0.0003, 0.0002, 0.0002;
  (3, 3, 2) 0.0098, 0.0052, 0.0038, 0.0001, 0.0011, 0.0000, 0.0000, 0.9800, 0.0000, 0.0000;
  (3, 3, 3) 0.0115, 0.0032, 0.0052, 0.0001, 0.9800, 0.0000, 0.0000, 0.0000, 0.0000, 0.0000;
  (3, 3, 4) 0.0157, 0.0025, 0.0009, 0.0005, 0.0003, 0.0000, 0.0001, 0.0000, 0.0000, 0.9800;
  (3, 3, 5) 0.0091, 0.0070, 0.0011, 0.0024, 0.0001, 0.9800, 0.0003, 0.0000, 0.0000, 0.0000;
  (3, 4, 0) 0.0018, 0.0045, 0.0049, 0.0084, 0.0004, 0.0000, 0.9800, 0.0000, 0.0000, 0.0000;
  (3, 4, 1) 0.0029, 0.0119, 0.0014, 0.0004, 0.0003, 0.0024, 0.0006, 0.0001, 0.9800, 0.0000;
  (3, 4, 2) 0.0010, 0.0070, 0.0059, 0.0046, 0.9800, 0.0013, 0.0001, 0.0000, 0.0000, 0.0001;
  (3, 4, 3) 0.0005, 0.0052, 0.9800, 0.0025, 0.0080, 0.0002, 0.0028, 0.0004, 0.0002, 0.0002;
  (3, 4, 4) 0.9800, 0.0107, 0.0021, 0.0053, 0.0010, 0.0006, 0.0001, 0.0001, 0.0000, 0.0001;
  (3, 4, 5) 0.0147, 0.0018, 0.0020, 0.9800, 0.0001, 0.0001, 0.0007, 0.0001, 0.0004, 0.0001;
  (3, 5, 0) 0.0178, 0.9800, 0.0011, 0.0010, 0.0000, 0.0000, 0.0000, 0.0001, 0.0000, 0.0000;
  (3, 5, 1) 0.0125, 0.0035, 0.0033, 0.0003, 0.0001, 0.0000, 0.0003, 0.9800, 0.0000, 0.0000;
  (3, 5, 2) 0.9800, 0.0027, 0.0008, 0.0076, 0.0007, 0.0019, 0.0024, 0.0030, 0.0005, 0.0004;
  (3, 5, 3) 0.0179, 0.0010, 0.0000, 0.0007, 0.9800, 0.0003, 0.0001, 0.0000, 0.0000, 0.0000;
  (3, 5, 4) 0.0118, 0.0069, 0.0010, 0.0003, 0.0000, 0.0000, 0.9800, 0.0000, 0.0000, 0.0000;
  (3, 5, 5) 0.0124, 0.0056, 0.0005, 0.0012, 0.0000, 0.0002, 0.0000, 0.9800, 0.0000, 0.0001;
  (4, 0, 0) 0.0046, 0.9800, 0.0153, 0.0000, 0.0000, 0.0001, 0.0000, 0.0000, 0.0000, 0.0000;
  (4, 0, 1) 0.0040, 0.0157, 0.0003, 0.9800, 0.0000, 0.0000, 0.0000, 0.0000, 0.0000, 0.0000;
  (4, 0, 2) 0.0053, 0.0038, 0.9800, 0.0060, 0.0043, 0.0003, 0.0003, 0.0000, 0.0000, 0.0000;
  (4, 0, 3) 0.0197, 0.0002, 0.0001, 0.0000, 0.0000, 0.0000, 0.0000, 0.0000, 0.9800, 0.0000;
  (4, 0, 4) 0.0125, 0.0043, 0.0026, 0.0003, 0.0003, 0.0000, 0.0000, 0.0000, 0.0000, 0.9800;
  (4, 0, 5) 0.0074, 0.0079, 0.0023, 0.0024, 0.0000, 0.9800, 0.0000, 0.0000, 0.0000, 0.0000;
  (4, 1, 0) 0.0169, 0.0029, 0.0002, 0.0000, 0.0000, 0.0000, 0.0000, 0.0000, 0.9800, 0.0000;
  (4, 1, 1) 0.0059, 0.0066, 0.0069, 0.0001, 0.0004, 0.0000, 0.0000, 0.0001, 0.0000, 0.9800;
  (4, 1, 2) 0.0103, 0.0079, 0.0005, 0.0009, 0.0002, 0.0002, 0.9800, 0.0000, 0.0000, 0.0000;
  (4, 1, 3) 0.0079, 0.0034, 0.9800, 0.0012, 0.0063, 0.0004, 0.0006, 0.0000, 0.0001, 0.0001;
  (4, 1, 4) 0.9800, 0.0078, 0.0003, 0.0114, 0.0004, 0.0000, 0.0000, 0.0000, 0.0001, 0.0000;
  (4, 1, 5) 0.0046, 0.9800, 0.0149, 0.0000, 0.0001, 0.0002, 0.0001, 0.0001, 0.0000, 0.0000;
  (4, 2, 0) 0.0032, 0.0008, 0.0134, 0.9800, 0.0015, 0.0008, 0.0002, 0.0000, 0.0000, 0.0001;
  (4, 2, 1) 0.0097, 0.0018, 0.0082, 0.0001, 0.0000, 0.0001, 0.0000, 0.9800, 0.0000, 0.0001;
