network unknown {
}
variable column1 {
  type discrete[216] { 0, 1, 2, 3, 4, 5, 6, 7, 8, 9, 10, 11, 12, 13, 14, 15, 16, 17, 18, 19, 20, 21, 22, 23, 24, 25, 26, 27, 28, 29, 30, 31, 32, 33, 34, 35, 36, 37, 38, 39, 40, 41, 42, 43, 44, 45, 46, 47, 48, 49, 50, 51, 52, 53, 54, 55, 56, 57, 58, 59, 60, 61, 62, 63, 64, 65, 66, 67, 68, 69, 70, 71, 72, 73, 74, 75, 76, 77, 78, 79, 80, 81, 82, 83, 84, 85, 86, 87, 88, 89, 90, 91, 92, 93, 94, 95, 96, 97, 98, 99, 100, 101, 102, 103, 104, 105, 106, 107, 108, 109, 110, 111, 112, 113, 114, 115, 116, 117, 118, 119, 120, 121, 122, 123, 124, 125, 126, 127, 128, 129, 130, 131, 132, 133, 134, 135, 136, 137, 138, 139, 140, 141, 142, 143, 144, 145, 146, 147, 148, 149, 150, 151, 152, 153, 154, 155, 156, 157, 158, 159, 160, 161, 162, 163, 164, 165, 166, 167, 168, 169, 170, 171, 172, 173, 174, 175, 176, 177, 178, 179, 180, 181, 182, 183, 184, 185, 186, 187, 188, 189, 190, 191, 192, 193, 194, 195, 196, 197, 198, 199, 200, 201, 202, 203, 204, 205, 206, 207, 208, 209, 210, 211, 212, 213, 214, 215 };
}
variable column2 {
  type discrete[5] { 0, 1, 2, 3, 4 };
}
variable column3 {
  type discrete[216] { 0, 1, 2, 3, 4, 5, 6, 7, 8, 9, 10, 11, 12, 13, 14, 15, 16, 17, 18, 19, 20, 21, 22, 23, 24, 25, 26, 27, 28, 29, 30, 31, 32, 33, 34, 35, 36, 37, 38, 39, 40, 41, 42, 43, 44, 45, 46, 47, 48, 49, 50, 51, 52, 53, 54, 55, 56, 57, 58, 59, 60, 61, 62, 63, 64, 65, 66, 67, 68, 69, 70, 71, 72, 73, 74, 75, 76, 77, 78, 79, 80, 81, 82, 83, 84, 85, 86, 87, 88, 89, 90, 91, 92, 93, 94, 95, 96, 97, 98, 99, 100, 101, 102, 103, 104, 105, 106, 107, 108, 109, 110, 111, 112, 113, 114, 115, 116, 117, 118, 119, 120, 121, 122, 123, 124, 125, 126, 127, 128, 129, 130, 131, 132, 133, 134, 135, 136, 137, 138, 139, 140, 141, 142, 143, 144, 145, 146, 147, 148, 149, 150, 151, 152, 153, 154, 155, 156, 157, 158, 159, 160, 161, 162, 163, 164, 165, 166, 167, 168, 169, 170, 171, 172, 173, 174, 175, 176, 177, 178, 179, 180, 181, 182, 183, 184, 185, 186, 187, 188, 189, 190, 191, 192, 193, 194, 195, 196, 197, 198, 199, 200, 201, 202, 203, 204, 205, 206, 207, 208, 209, 210, 211, 212, 213, 214, 215 };
}
variable column4 {
  type discrete[5] { 0, 1, 2, 3, 4 };
}
variable column5 {
  type discrete[5] { 0, 1, 2, 3, 4 };
}
variable column6 {
  type discrete[4] { 0, 1, 2, 3 };
}
variable column7 {
  type discrete[4] { 0, 1, 2, 3 };
}
variable column8 {
  type discrete[3] { 0, 1, 2 };
}
variable column9 {
  type discrete[7] { 0, 1, 2, 3, 4, 5, 6 };
}
variable column10 {
  type discrete[5] { 0, 1, 2, 3, 4 };
}
variable column11 {
  type discrete[6] { 0, 1, 2, 3, 4, 5 };
}
variable column12 {
  type discrete[6] { 0, 1, 2, 3, 4, 5 };
}
variable column13 {
  type discrete[6] { 0, 1, 2, 3, 4, 5 };
}
variable column14 {
  type discrete[5] { 0, 1, 2, 3, 4 };
}
variable column15 {
  type discrete[5] { 0, 1, 2, 3, 4 };
}
variable column16 {
  type discrete[5] { 0, 1, 2, 3, 4 };
}
variable column17 {
  type discrete[5] { 0, 1, 2, 3, 4 };
}
variable column18 {
  type discrete[5] { 0, 1, 2, 3, 4 };
}
variable column19 {
  type discrete[5] { 0, 1, 2, 3, 4 };
}
variable column20 {
  type discrete[5] { 0, 1, 2, 3, 4 };
}
variable column21 {
  type discrete[5] { 0, 1, 2, 3, 4 };
}
variable column22 {
  type discrete[5] { 0, 1, 2, 3, 4 };
}
variable column23 {
  type discrete[5] { 0, 1, 2, 3, 4 };
}
variable column24 {
  type discrete[5] { 0, 1, 2, 3, 4 };
}
variable column25 {
  type discrete[5] { 0, 1, 2, 3, 4 };
}
variable column26 {
  type discrete[5] { 0, 1, 2, 3, 4 };
}
variable column27 {
  type discrete[5] { 0, 1, 2, 3, 4 };
}
variable column28 {
  type discrete[5] { 0, 1, 2, 3, 4 };
}
variable column29 {
  type discrete[5] { 0, 1, 2, 3, 4 };
}
variable column30 {
  type discrete[5] { 0, 1, 2, 3, 4 };
}

probability (column1) {
  table 0.0031, 0.0030, 0.0034, 0.0031, 0.0024, 0.0060, 0.0114, 0.0034, 0.0077, 0.0037, 0.0112, 0.0041, 0.0049, 0.0050, 0.0037, 0.0023, 0.0030, 0.0040, 0.0042, 0.0038, 0.0039, 0.0063, 0.0058, 0.0022, 0.0044, 0.0036, 0.0066, 0.0032, 0.0020, 0.0026, 0.0028, 0.0034, 0.0040, 0.0122, 0.0016, 0.0059, 0.0030, 0.0059, 0.0065, 0.0022, 0.0038, 0.0094, 0.0044, 0.0042, 0.0051, 0.0059, 0.0041, 0.0039, 0.0035, 0.0017, 0.0018, 0.0054, 0.0051, 0.0062, 0.0087, 0.0071, 0.0047, 0.0029, 0.0064, 0.0054, 0.0044, 0.0043, 0.0046, 0.0023, 0.0115, 0.0025, 0.0100, 0.0055, 0.0062, 0.0048, 0.0063, 0.0073, 0.0023, 0.0097, 0.0054, 0.0060, 0.0046, 0.0048, 0.0044, 0.0059, 0.0017, 0.0035, 0.0007, 0.0056, 0.0033, 0.0031, 0.0040, 0.0043, 0.0018, 0.0026, 0.0023, 0.0042, 0.0068, 0.0059, 0.0071, 0.0082, 0.0021, 0.0035, 0.0053, 0.0034, 0.0064, 0.0083, 0.0019, 0.0089, 0.0047, 0.0041, 0.0081, 0.0031, 0.0038, 0.0098, 0.0020, 0.0052, 0.0091, 0.0057, 0.0041, 0.0053, 0.0045, 0.0077, 0.0024, 0.0039, 0.0021, 0.0013, 0.0029, 0.0037, 0.0052, 0.0031, 0.0055, 0.0019, 0.0050, 0.0033, 0.0022, 0.0037, 0.0043, 0.0090, 0.0050, 0.0016, 0.0028, 0.0026, 0.0084, 0.0026, 0.0027, 0.0028, 0.0091, 0.0017, 0.0041, 0.0054, 0.0016, 0.0040, 0.0077, 0.0028, 0.0025, 0.0070, 0.0037, 0.0028, 0.0040, 0.0046, 0.0072, 0.0049, 0.0021, 0.0040, 0.0056, 0.0023, 0.0035, 0.0040, 0.0079, 0.0033, 0.0077, 0.0021, 0.0016, 0.0039, 0.0081, 0.0047, 0.0052, 0.0064, 0.0035, 0.0055, 0.0035, 0.0031, 0.0034, 0.0023, 0.0043, 0.0108, 0.0025, 0.0008, 0.0038, 0.0026, 0.0028, 0.0068, 0.0035, 0.0022, 0.0061, 0.0080, 0.0026, 0.0040, 0.0026, 0.0027, 0.0089, 0.0025, 0.0017, 0.0044, 0.0026, 0.0055, 0.0072, 0.0039, 0.0038, 0.0045, 0.0063, 0.0029, 0.0058, 0.0048, 0.0029, 0.0066, 0.0102, 0.0086, 0.0059, 0.0040;
}

probability (column2 | column1) {
  (0) 0.0000, 1.0000, 0.0000, 0.0000, 0.0000;
  (1) 0.0000, 0.0000, 0.0000, 1.0000, 0.0000;
  (2) 1.0000, 0.0000, 0.0000, 0.0000, 0.0000;
  (3) 0.0000, 0.0000, 0.0000, 0.0000, 1.0000;
  (4) 0.0000, 0.0000, 1.0000, 0.0000, 0.0000;
  (5) 1.0000, 0.0000, 0.0000, 0.0000, 0.0000;
  (6) 0.0000, 1.0000, 0.0000, 0.0000, 0.0000;
  (7) 0.0000, 0.0000, 1.0000, 0.0000, 0.0000;
  (8) 0.0000, 0.0000, 0.0000, 0.0000, 1.0000;
  (9) 0.0000, 0.0000, 0.0000, 1.0000, 0.0000;
  (10) 0.0000, 0.0000, 1.0000, 0.0000, 0.0000;
  (11) 0.0000, 1.0000, 0.0000, 0.0000, 0.0000;
  (12) 1.0000, 0.0000, 0.0000, 0.0000, 0.0000;
  (13) 0.0000, 0.0000, 0.0000, 0.0000, 1.0000;
  (14) 0.0000, 0.0000, 0.0000, 1.0000, 0.0000;
  (15) 0.0000, 0.0000, 1.0000, 0.0000, 0.0000;
  (16) 0.0000, 0.0000, 0.0000, 0.0000, 1.0000;
  (17) 0.0000, 0.0000, 0.0000, 1.0000, 0.0000;
  (18) 1.0000, 0.0000, 0.0000, 0.0000, 0.0000;
  (19) 0.0000, 1.0000, 0.0000, 0.0000, 0.0000;
  (20) 0.0000, 0.0000, 0.0000, 1.0000, 0.0000;
  (21) 0.0000, 0.0000, 0.0000, 0.0000, 1.0000;
  (22) 0.0000, 1.0000, 0.0000, 0.0000, 0.0000;
  (23) 1.0000, 0.0000, 0.0000, 0.0000, 0.0000;
  (24) 0.0000, 0.0000, 1.0000, 0.0000, 0.0000;
  (25) 0.0000, 0.0000, 1.0000, 0.0000, 0.0000;
  (26) 0.0000, 1.0000, 0.0000, 0.0000, 0.0000;
  (27) 0.0000, 0.0000, 0.0000, 0.0000, 1.0000;
  (28) 1.0000, 0.0000, 0.0000, 0.0000, 0.0000;
  (29) 0.0000, 0.0000, 0.0000, 1.0000, 0.0000;
  (30) 0.0000, 1.0000, 0.0000, 0.0000, 0.0000;
  (31) 0.0000, 0.0000, 1.0000, 0.0000, 0.0000;
  (32) 0.0000, 0.0000, 0.0000, 0.0000, 1.0000;
  (33) 1.0000, 0.0000, 0.0000, 0.0000, 0.0000;
  (34) 0.0000, 0.0000, 0.0000, 1.0000, 0.0000;
  (35) 0.0000, 1.0000, 0.0000, 0.0000, 0.0000;
  (36) 0.0000, 0.0000, 1.0000, 0.0000, 0.0000;
  (37) 0.0000, 0.0000, 0.0000, 0.0000, 1.0000;
  (38) 0.0000, 0.0000, 0.0000, 1.0000, 0.0000;
  (39) 1.0000, 0.0000, 0.0000, 0.0000, 0.0000;
  (40) 1.0000, 0.0000, 0.0000, 0.0000, 0.0000;
  (41) 0.0000, 0.0000, 1.0000, 0.0000, 0.0000;
  (42) 0.0000, 0.0000, 0.0000, 0.0000, 1.0000;
  (43) 0.0000, 1.0000, 0.0000, 0.0000, 0.0000;
  (44) 0.0000, 0.0000, 0.0000, 1.0000, 0.0000;
  (45) 0.0000, 0.0000, 0.0000, 0.0000, 1.0000;
  (46) 0.0000, 0.0000, 1.0000, 0.0000, 0.0000;
  (47) 0.0000, 1.0000, 0.0000, 0.0000, 0.0000;
  (48) 0.0000, 0.0000, 0.0000, 1.0000, 0.0000;
  (49) 1.0000, 0.0000, 0.0000, 0.0000, 0.0000;
  (50) 0.0000, 0.0000, 1.0000, 0.0000, 0.0000;
  (51) 1.0000, 0.0000, 0.0000, 0.0000, 0.0000;
  (52) 0.0000, 0.0000, 0.0000, 0.0000, 1.0000;
  (53) 0.0000, 0.0000, 0.0000, 1.0000, 0.0000;
  (54) 0.0000, 1.0000, 0.0000, 0.0000, 0.0000;
  (55) 0.0000, 1.0000, 0.0000, 0.0000, 0.0000;
  (56) 0.0000, 0.0000, 1.0000, 0.0000, 0.0000;
  (57) 0.0000, 0.0000, 0.0000, 0.0000, 1.0000;
  (58) 1.0000, 0.0000, 0.0000, 0.0000, 0.0000;
  (59) 0.0000, 0.0000, 0.0000, 1.0000, 0.0000;
  (60) 0.0000, 0.0000, 0.0000, 0.0000, 1.0000;
  (61) 0.0000, 0.0000, 1.0000, 0.0000, 0.0000;
  (62) 0.0000, 1.0000, 0.0000, 0.0000, 0.0000;
  (63) 0.0000, 0.0000, 0.0000, 1.0000, 0.0000;
  (64) 1.0000, 0.0000, 0.0000, 0.0000, 0.0000;
  (65) 0.0000, 0.0000, 0.0000, 1.0000, 0.0000;
  (66) 1.0000, 0.0000, 0.0000, 0.0000, 0.0000;
  (67) 0.0000, 1.0000, 0.0000, 0.0000, 0.0000;
  (68) 0.0000, 0.0000, 1.0000, 0.0000, 0.0000;
  (69) 0.0000, 0.0000, 0.0000, 0.0000, 1.0000;
  (70) 0.0000, 1.0000, 0.0000, 0.0000, 0.0000;
  (71) 0.0000, 0.0000, 0.0000, 0.0000, 1.0000;
  (72) 1.0000, 0.0000, 0.0000, 0.0000, 0.0000;
  (73) 0.0000, 0.0000, 1.0000, 0.0000, 0.0000;
  (74) 0.0000, 0.0000, 0.0000, 1.0000, 0.0000;
  (75) 0.0000, 0.0000, 0.0000, 0.0000, 1.0000;
  (76) 1.0000, 0.0000, 0.0000, 0.0000, 0.0000;
  (77) 0.0000, 0.0000, 0.0000, 1.0000, 0.0000;
  (78) 0.0000, 1.0000, 0.0000, 0.0000, 0.0000;
  (79) 0.0000, 0.0000, 1.0000, 0.0000, 0.0000;
  (80) 1.0000, 0.0000, 0.0000, 0.0000, 0.0000;
  (81) 0.0000, 0.0000, 0.0000, 0.0000, 1.0000;
  (82) 0.0000, 1.0000, 0.0000, 0.0000, 0.0000;
  (83) 0.0000, 0.0000, 0.0000, 1.0000, 0.0000;
  (84) 0.0000, 0.0000, 1.0000, 0.0000, 0.0000;
  (85) 1.0000, 0.0000, 0.0000, 0.0000, 0.0000;
  (86) 0.0000, 0.0000, 1.0000, 0.0000, 0.0000;
  (87) 0.0000, 0.0000, 0.0000, 0.0000, 1.0000;
  (88) 0.0000, 0.0000, 0.0000, 1.0000, 0.0000;
  (89) 0.0000, 1.0000, 0.0000, 0.0000, 0.0000;
  (90) 1.0000, 0.0000, 0.0000, 0.0000, 0.0000;
  (91) 0.0000, 0.0000, 0.0000, 1.0000, 0.0000;
  (92) 0.0000, 1.0000, 0.0000, 0.0000, 0.0000;
  (93) 0.0000, 0.0000, 0.0000, 0.0000, 1.0000;
  (94) 0.0000, 0.0000, 1.0000, 0.0000, 0.0000;
  (95) 1.0000, 0.0000, 0.0000, 0.0000, 0.0000;
  (96) 0.0000, 0.0000, 0.0000, 0.0000, 1.0000;
  (97) 0.0000, 0.0000, 0.0000, 1.0000, 0.0000;
  (98) 0.0000, 0.0000, 1.0000, 0.0000, 0.0000;
  (99) 0.0000, 1.0000, 0.0000, 0.0000, 0.0000;
  (100) 1.0000, 0.0000, 0.0000, 0.0000, 0.0000;
  (101) 0.0000, 0.0000, 0.0000, 1.0000, 0.0000;
  (102) 0.0000, 0.0000, 1.0000, 0.0000, 0.0000;
  (103) 0.0000, 1.0000, 0.0000, 0.0000, 0.0000;
  (104) 0.0000, 0.0000, 0.0000, 0.0000, 1.0000;
  (105) 0.0000, 1.0000, 0.0000, 0.0000, 0.0000;
  (106) 0.0000, 0.0000, 0.0000, 1.0000, 0.0000;
  (107) 0.0000, 0.0000, 0.0000, 0.0000, 1.0000;
  (108) 0.0000, 0.0000, 1.0000, 0.0000, 0.0000;
  (109) 1.0000, 0.0000, 0.0000, 0.0000, 0.0000;
  (110) 0.0000, 0.0000, 0.0000, 0.0000, 1.0000;
  (111) 0.0000, 0.0000, 0.0000, 1.0000, 0.0000;
  (112) 1.0000, 0.0000, 0.0000, 0.0000, 0.0000;
  (113) 0.0000, 0.0000, 1.0000, 0.0000, 0.0000;
  (114) 0.0000, 1.0000, 0.0000, 0.0000, 0.0000;
  (115) 1.0000, 0.0000, 0.0000, 0.0000, 0.0000;
  (116) 0.0000, 0.0000, 1.0000, 0.0000, 0.0000;
  (117) 0.0000, 0.0000, 0.0000, 1.0000, 0.0000;
  (118) 0.0000, 1.0000, 0.0000, 0.0000, 0.0000;
  (119) 0.0000, 0.0000, 0.0000, 0.0000, 1.0000;
  (120) 0.0000, 0.0000, 0.0000, 0.0000, 1.0000;
  (121) 0.0000, 0.0000, 0.0000, 1.0000, 0.0000;
  (122) 0.0000, 0.0000, 1.0000, 0.0000, 0.0000;
  (123) 1.0000, 0.0000, 0.0000, 0.0000, 0.0000;
  (124) 0.0000, 1.0000, 0.0000, 0.0000, 0.0000;
  (125) 1.0000, 0.0000, 0.0000, 0.0000, 0.0000;
  (126) 0.0000, 0.0000, 0.0000, 1.0000, 0.0000;
  (127) 0.0000, 0.0000, 1.0000, 0.0000, 0.0000;
  (128) 0.0000, 1.0000, 0.0000, 0.0000, 0.0000;
  (129) 0.0000, 0.0000, 0.0000, 0.0000, 1.0000;
  (130) 1.0000, 0.0000, 0.0000, 0.0000, 0.0000;
  (131) 0.0000, 0.0000, 0.0000, 0.0000, 1.0000;
  (132) 0.0000, 0.0000, 1.0000, 0.0000, 0.0000;
  (133) 0.0000, 1.0000, 0.0000, 0.0000, 0.0000;
  (134) 0.0000, 0.0000, 0.0000, 1.0000, 0.0000;
  (135) 1.0000, 0.0000, 0.0000, 0.0000, 0.0000;
  (136) 0.0000, 1.0000, 0.0000, 0.0000, 0.0000;
  (137) 0.0000, 0.0000, 0.0000, 0.0000, 1.0000;
  (138) 0.0000, 0.0000, 1.0000, 0.0000, 0.0000;
  (139) 0.0000, 0.0000, 0.0000, 1.0000, 0.0000;
  (140) 0.0000, 0.0000, 1.0000, 0.0000, 0.0000;
  (141) 0.0000, 0.0000, 0.0000, 1.0000, 0.0000;
  (142) 0.0000, 1.0000, 0.0000, 0.0000, 0.0000;
  (143) 0.0000, 0.0000, 0.0000, 0.0000, 1.0000;
  (144) 1.0000, 0.0000, 0.0000, 0.0000, 0.0000;
  (145) 1.0000, 0.0000, 0.0000, 0.0000, 0.0000;
  (146) 0.0000, 0.0000, 1.0000, 0.0000, 0.0000;
  (147) 0.0000, 0.0000, 0.0000, 1.0000, 0.0000;
  (148) 0.0000, 0.0000, 0.0000, 0.0000, 1.0000;
  (149) 0.0000, 1.0000, 0.0000, 0.0000, 0.0000;
  (150) 0.0000, 1.0000, 0.0000, 0.0000, 0.0000;
  (151) 0.0000, 0.0000, 0.0000, 0.0000, 1.0000;
  (152) 0.0000, 0.0000, 0.0000, 1.0000, 0.0000;
  (153) 0.0000, 0.0000, 1.0000, 0.0000, 0.0000;
  (154) 1.0000, 0.0000, 0.0000, 0.0000, 0.0000;
  (155) 0.0000, 0.0000, 0.0000, 0.0000, 1.0000;
  (156) 1.0000, 0.0000, 0.0000, 0.0000, 0.0000;
  (157) 0.0000, 0.0000, 1.0000, 0.0000, 0.0000;
  (158) 0.0000, 1.0000, 0.0000, 0.0000, 0.0000;
  (159) 0.0000, 0.0000, 0.0000, 1.0000, 0.0000;
  (160) 0.0000, 0.0000, 0.0000, 0.0000, 1.0000;
  (161) 0.0000, 0.0000, 1.0000, 0.0000, 0.0000;
  (162) 0.0000, 1.0000, 0.0000, 0.0000, 0.0000;
  (163) 1.0000, 0.0000, 0.0000, 0.0000, 0.0000;
  (164) 0.0000, 0.0000, 0.0000, 1.0000, 0.0000;
  (165) 0.0000, 1.0000, 0.0000, 0.0000, 0.0000;
  (166) 0.0000, 0.0000, 0.0000, 1.0000, 0.0000;
  (167) 0.0000, 0.0000, 1.0000, 0.0000, 0.0000;
  (168) 0.0000, 0.0000, 0.0000, 0.0000, 1.0000;
  (169) 1.0000, 0.0000, 0.0000, 0.0000, 0.0000;
  (170) 0.0000, 0.0000, 1.0000, 0.0000, 0.0000;
  (171) 0.0000, 0.0000, 0.0000, 0.0000, 1.0000;
  (172) 1.0000, 0.0000, 0.0000, 0.0000, 0.0000;
  (173) 0.0000, 1.0000, 0.0000, 0.0000, 0.0000;
  (174) 0.0000, 0.0000, 0.0000, 1.0000, 0.0000;
  (175) 1.0000, 0.0000, 0.0000, 0.0000, 0.0000;
  (176) 0.0000, 0.0000, 0.0000, 0.0000, 1.0000;
  (177) 0.0000, 0.0000, 0.0000, 1.0000, 0.0000;
  (178) 0.0000, 0.0000, 1.0000, 0.0000, 0.0000;
  (179) 0.0000, 1.0000, 0.0000, 0.0000, 0.0000;
  (180) 0.0000, 1.0000, 0.0000, 0.0000, 0.0000;
  (181) 0.0000, 0.0000, 1.0000, 0.0000, 0.0000;
  (182) 0.0000, 0.0000, 0.0000, 1.0000, 0.0000;
  (183) 1.0000, 0.0000, 0.0000, 0.0000, 0.0000;
  (184) 0.0000, 0.0000, 0.0000, 0.0000, 1.0000;
  (185) 0.0000, 1.0000, 0.0000, 0.0000, 0.0000;
  (186) 1.0000, 0.0000, 0.0000, 0.0000, 0.0000;
  (187) 0.0000, 0.0000, 0.0000, 1.0000, 0.0000;
  (188) 0.0000, 0.0000, 1.0000, 0.0000, 0.0000;
  (189) 0.0000, 0.0000, 0.0000, 0.0000, 1.0000;
  (190) 1.0000, 0.0000, 0.0000, 0.0000, 0.0000;
  (191) 0.0000, 0.0000, 0.0000, 1.0000, 0.0000;
  (192) 0.0000, 0.0000, 1.0000, 0.0000, 0.0000;
  (193) 0.0000, 0.0000, 0.0000, 0.0000, 1.0000;
  (194) 0.0000, 1.0000, 0.0000, 0.0000, 0.0000;
  (195) 0.0000, 1.0000, 0.0000, 0.0000, 0.0000;
  (196) 0.0000, 0.0000, 0.0000, 0.0000, 1.0000;
  (197) 0.0000, 0.0000, 0.0000, 1.0000, 0.0000;
  (198) 0.0000, 0.0000, 1.0000, 0.0000, 0.0000;
  (199) 1.0000, 0.0000, 0.0000, 0.0000, 0.0000;
  (200) 0.0000, 0.0000, 0.0000, 0.0000, 1.0000;
  (201) 0.0000, 0.0000, 1.0000, 0.0000, 0.0000;
  (202) 0.0000, 0.0000, 0.0000, 1.0000, 0.0000;
  (203) 1.0000, 0.0000, 0.0000, 0.0000, 0.0000;
  (204) 0.0000, 1.0000, 0.0000, 0.0000, 0.0000;
  (205) 1.0000, 0.0000, 0.0000, 0.0000, 0.0000;
  (206) 0.0000, 0.0000, 0.0000, 0.0000, 1.0000;
  (207) 0.0000, 1.0000, 0.0000, 0.0000, 0.0000;
  (208) 0.0000, 0.0000, 0.0000, 1.0000, 0.0000;
  (209) 0.0000, 0.0000, 1.0000, 0.0000, 0.0000;
  (210) 1.0000, 0.0000, 0.0000, 0.0000, 0.0000;
  (211) 0.0000, 0.0000, 0.0000, 1.0000, 0.0000;
  (212) 0.0000, 0.0000, 1.0000, 0.0000, 0.0000;
  (213) 0.0000, 0.0000, 0.0000, 0.0000, 1.0000;
  (214) 0.0000, 1.0000, 0.0000, 0.0000, 0.0000;
  (215) 1.0000, 0.0000, 0.0000, 0.0000, 0.0000;
}

probability (column3) {
  table 0.0036, 0.0033, 0.0045, 0.0039, 0.0035, 0.0024, 0.0050, 0.0027, 0.0065, 0.0033, 0.0047, 0.0063, 0.0036, 0.0047, 0.0047, 0.0076, 0.0033, 0.0070, 0.0038, 0.0063, 0.0059, 0.0045, 0.0050, 0.0048, 0.0049, 0.0067, 0.0060, 0.0089, 0.0094, 0.0058, 0.0034, 0.0053, 0.0028, 0.0039, 0.0024, 0.0025, 0.0045, 0.0019, 0.0029, 0.0030, 0.0046, 0.0040, 0.0046, 0.0045, 0.0039, 0.0027, 0.0016, 0.0052, 0.0039, 0.0067, 0.0054, 0.0070, 0.0062, 0.0048, 0.0061, 0.0035, 0.0053, 0.0028, 0.0020, 0.0037, 0.0060, 0.0023, 0.0062, 0.0053, 0.0028, 0.0056, 0.0075, 0.0020, 0.0034, 0.0058, 0.0047, 0.0033, 0.0046, 0.0069, 0.0033, 0.0053, 0.0049, 0.0050, 0.0072, 0.0008, 0.0037, 0.0033, 0.0049, 0.0031, 0.0035, 0.0018, 0.0052, 0.0043, 0.0045, 0.0015, 0.0029, 0.0038, 0.0055, 0.0052, 0.0044, 0.0057, 0.0026, 0.0029, 0.0023, 0.0020, 0.0013, 0.0040, 0.0068, 0.0087, 0.0041, 0.0025, 0.0073, 0.0041, 0.0044, 0.0044, 0.0017, 0.0052, 0.0044, 0.0033, 0.0044, 0.0081, 0.0080, 0.0053, 0.0021, 0.0014, 0.0057, 0.0043, 0.0038, 0.0047, 0.0084, 0.0037, 0.0072, 0.0029, 0.0031, 0.0043, 0.0019, 0.0058, 0.0032, 0.0036, 0.0062, 0.0019, 0.0028, 0.0035, 0.0032, 0.0057, 0.0041, 0.0045, 0.0020, 0.0046, 0.0067, 0.0039, 0.0039, 0.0053, 0.0037, 0.0055, 0.0049, 0.0024, 0.0040, 0.0036, 0.0085, 0.0061, 0.0034, 0.0104, 0.0029, 0.0043, 0.0081, 0.0065, 0.0028, 0.0071, 0.0062, 0.0044, 0.0047, 0.0042, 0.0053, 0.0066, 0.0046, 0.0043, 0.0071, 0.0048, 0.0021, 0.0052, 0.0055, 0.0108, 0.0051, 0.0049, 0.0051, 0.0048, 0.0031, 0.0026, 0.0060, 0.0045, 0.0085, 0.0035, 0.0048, 0.0023, 0.0027, 0.0028, 0.0090, 0.0056, 0.0067, 0.0059, 0.0076, 0.0071, 0.0060, 0.0038, 0.0090, 0.0032, 0.0036, 0.0055, 0.0057, 0.0030, 0.0048, 0.0045, 0.0046, 0.0053, 0.0058, 0.0035, 0.0039, 0.0039, 0.0058, 0.0034;
}

probability (column4 | column3) {
  (0) 0.0000, 1.0000, 0.0000, 0.0000, 0.0000;
  (1) 0.0000, 0.0000, 1.0000, 0.0000, 0.0000;
  (2) 0.0000, 0.0000, 0.0000, 1.0000, 0.0000;
  (3) 0.0000, 0.0000, 0.0000, 0.0000, 1.0000;
  (4) 1.0000, 0.0000, 0.0000, 0.0000, 0.0000;
  (5) 0.0000, 1.0000, 0.0000, 0.0000, 0.0000;
  (6) 1.0000, 0.0000, 0.0000, 0.0000, 0.0000;
  (7) 0.0000, 0.0000, 0.0000, 0.0000, 1.0000;
  (8) 0.0000, 0.0000, 0.0000, 1.0000, 0.0000;
  (9) 0.0000, 0.0000, 1.0000, 0.0000, 0.0000;
  (10) 0.0000, 1.0000, 0.0000, 0.0000, 0.0000;
  (11) 0.0000, 0.0000, 1.0000, 0.0000, 0.0000;
  (12) 1.0000, 0.0000, 0.0000, 0.0000, 0.0000;
  (13) 0.0000, 0.0000, 0.0000, 1.0000, 0.0000;
  (14) 0.0000, 0.0000, 0.0000, 0.0000, 1.0000;
  (15) 0.0000, 0.0000, 1.0000, 0.0000, 0.0000;
  (16) 0.0000, 0.0000, 0.0000, 0.0000, 1.0000;
  (17) 0.0000, 1.0000, 0.0000, 0.0000, 0.0000;
  (18) 1.0000, 0.0000, 0.0000, 0.0000, 0.0000;
  (19) 0.0000, 0.0000, 0.0000, 1.0000, 0.0000;
  (20) 0.0000, 0.0000, 0.0000, 0.0000, 1.0000;
  (21) 0.0000, 0.0000, 0.0000, 1.0000, 0.0000;
  (22) 0.0000, 0.0000, 1.0000, 0.0000, 0.0000;
  (23) 1.0000, 0.0000, 0.0000, 0.0000, 0.0000;
  (24) 0.0000, 1.0000, 0.0000, 0.0000, 0.0000;
  (25) 0.0000, 0.0000, 0.0000, 0.0000, 1.0000;
  (26) 0.0000, 0.0000, 1.0000, 0.0000, 0.0000;
  (27) 1.0000, 0.0000, 0.0000, 0.0000, 0.0000;
  (28) 0.0000, 0.0000, 0.0000, 1.0000, 0.0000;
  (29) 0.0000, 1.0000, 0.0000, 0.0000, 0.0000;
  (30) 0.0000, 0.0000, 0.0000, 1.0000, 0.0000;
  (31) 0.0000, 0.0000, 0.0000, 0.0000, 1.0000;
  (32) 0.0000, 1.0000, 0.0000, 0.0000, 0.0000;
  (33) 1.0000, 0.0000, 0.0000, 0.0000, 0.0000;
  (34) 0.0000, 0.0000, 1.0000, 0.0000, 0.0000;
  (35) 0.0000, 0.0000, 1.0000, 0.0000, 0.0000;
  (36) 0.0000, 0.0000, 0.0000, 0.0000, 1.0000;
  (37) 0.0000, 1.0000, 0.0000, 0.0000, 0.0000;
  (38) 1.0000, 0.0000, 0.0000, 0.0000, 0.0000;
  (39) 0.0000, 0.0000, 0.0000, 1.0000, 0.0000;
  (40) 0.0000, 0.0000, 1.0000, 0.0000, 0.0000;
  (41) 1.0000, 0.0000, 0.0000, 0.0000, 0.0000;
  (42) 0.0000, 0.0000, 0.0000, 1.0000, 0.0000;
  (43) 0.0000, 1.0000, 0.0000, 0.0000, 0.0000;
  (44) 0.0000, 0.0000, 0.0000, 0.0000, 1.0000;
  (45) 0.0000, 0.0000, 0.0000, 1.0000, 0.0000;
  (46) 0.0000, 0.0000, 1.0000, 0.0000, 0.0000;
  (47) 0.0000, 1.0000, 0.0000, 0.0000, 0.0000;
  (48) 1.0000, 0.0000, 0.0000, 0.0000, 0.0000;
  (49) 0.0000, 0.0000, 0.0000, 0.0000, 1.0000;
  (50) 0.0000, 0.0000, 0.0000, 0.0000, 1.0000;
  (51) 0.0000, 1.0000, 0.0000, 0.0000, 0.0000;
  (52) 1.0000, 0.0000, 0.0000, 0.0000, 0.0000;
  (53) 0.0000, 0.0000, 1.0000, 0.0000, 0.0000;
  (54) 0.0000, 0.0000, 0.0000, 1.0000, 0.0000;
  (55) 1.0000, 0.0000, 0.0000, 0.0000, 0.0000;
  (56) 0.0000, 0.0000, 0.0000, 0.0000, 1.0000;
  (57) 0.0000, 0.0000, 1.0000, 0.0000, 0.0000;
  (58) 0.0000, 0.0000, 0.0000, 1.0000, 0.0000;
  (59) 0.0000, 1.0000, 0.0000, 0.0000, 0.0000;
  (60) 0.0000, 0.0000, 0.0000, 0.0000, 1.0000;
  (61) 0.0000, 0.0000, 0.0000, 1.0000, 0.0000;
  (62) 1.0000, 0.0000, 0.0000, 0.0000, 0.0000;
  (63) 0.0000, 1.0000, 0.0000, 0.0000, 0.0000;
  (64) 0.0000, 0.0000, 1.0000, 0.0000, 0.0000;
  (65) 0.0000, 0.0000, 1.0000, 0.0000, 0.0000;
  (66) 0.0000, 0.0000, 0.0000, 1.0000, 0.0000;
  (67) 0.0000, 0.0000, 0.0000, 0.0000, 1.0000;
  (68) 1.0000, 0.0000, 0.0000, 0.0000, 0.0000;
  (69) 0.0000, 1.0000, 0.0000, 0.0000, 0.0000;
  (70) 0.0000, 1.0000, 0.0000, 0.0000, 0.0000;
  (71) 0.0000, 0.0000, 1.0000, 0.0000, 0.0000;
  (72) 0.0000, 0.0000, 0.0000, 0.0000, 1.0000;
  (73) 1.0000, 0.0000, 0.0000, 0.0000, 0.0000;
  (74) 0.0000, 0.0000, 0.0000, 1.0000, 0.0000;
  (75) 0.0000, 0.0000, 1.0000, 0.0000, 0.0000;
  (76) 0.0000, 0.0000, 0.0000, 0.0000, 1.0000;
  (77) 1.0000, 0.0000, 0.0000, 0.0000, 0.0000;
  (78) 0.0000, 0.0000, 0.0000, 1.0000, 0.0000;
  (79) 0.0000, 1.0000, 0.0000, 0.0000, 0.0000;
  (80) 0.0000, 1.0000, 0.0000, 0.0000, 0.0000;
  (81) 0.0000, 0.0000, 0.0000, 0.0000, 1.0000;
  (82) 0.0000, 0.0000, 1.0000, 0.0000, 0.0000;
  (83) 1.0000, 0.0000, 0.0000, 0.0000, 0.0000;
  (84) 0.0000, 0.0000, 0.0000, 1.0000, 0.0000;
  (85) 0.0000, 0.0000, 0.0000, 0.0000, 1.0000;
  (86) 0.0000, 1.0000, 0.0000, 0.0000, 0.0000;
  (87) 0.0000, 0.0000, 0.0000, 1.0000, 0.0000;
  (88) 0.0000, 0.0000, 1.0000, 0.0000, 0.0000;
  (89) 1.0000, 0.0000, 0.0000, 0.0000, 0.0000;
  (90) 1.0000, 0.0000, 0.0000, 0.0000, 0.0000;
  (91) 0.0000, 0.0000, 1.0000, 0.0000, 0.0000;
  (92) 0.0000, 0.0000, 0.0000, 1.0000, 0.0000;
  (93) 0.0000, 0.0000, 0.0000, 0.0000, 1.0000;
  (94) 0.0000, 1.0000, 0.0000, 0.0000, 0.0000;
  (95) 0.0000, 0.0000, 0.0000, 0.0000, 1.0000;
  (96) 0.0000, 0.0000, 1.0000, 0.0000, 0.0000;
  (97) 0.0000, 0.0000, 0.0000, 1.0000, 0.0000;
  (98) 1.0000, 0.0000, 0.0000, 0.0000, 0.0000;
  (99) 0.0000, 1.0000, 0.0000, 0.0000, 0.0000;
  (100) 1.0000, 0.0000, 0.0000, 0.0000, 0.0000;
  (101) 0.0000, 1.0000, 0.0000, 0.0000, 0.0000;
  (102) 0.0000, 0.0000, 0.0000, 0.0000, 1.0000;
  (103) 0.0000, 0.0000, 1.0000, 0.0000, 0.0000;
  (104) 0.0000, 0.0000, 0.0000, 1.0000, 0.0000;
  (105) 0.0000, 1.0000, 0.0000, 0.0000, 0.0000;
  (106) 0.0000, 0.0000, 0.0000, 1.0000, 0.0000;
  (107) 0.0000, 0.0000, 1.0000, 0.0000, 0.0000;
  (108) 1.0000, 0.0000, 0.0000, 0.0000, 0.0000;
  (109) 0.0000, 0.0000, 0.0000, 0.0000, 1.0000;
  (110) 0.0000, 0.0000, 1.0000, 0.0000, 0.0000;
  (111) 1.0000, 0.0000, 0.0000, 0.0000, 0.0000;
  (112) 0.0000, 0.0000, 0.0000, 0.0000, 1.0000;
  (113) 0.0000, 1.0000, 0.0000, 0.0000, 0.0000;
  (114) 0.0000, 0.0000, 0.0000, 1.0000, 0.0000;
  (115) 0.0000, 0.0000, 0.0000, 0.0000, 1.0000;
  (116) 0.0000, 0.0000, 1.0000, 0.0000, 0.0000;
  (117) 0.0000, 1.0000, 0.0000, 0.0000, 0.0000;
  (118) 1.0000, 0.0000, 0.0000, 0.0000, 0.0000;
  (119) 0.0000, 0.0000, 0.0000, 1.0000, 0.0000;
  (120) 1.0000, 0.0000, 0.0000, 0.0000, 0.0000;
  (121) 0.0000, 0.0000, 1.0000, 0.0000, 0.0000;
  (122) 0.0000, 0.0000, 0.0000, 1.0000, 0.0000;
  (123) 0.0000, 0.0000, 0.0000, 0.0000, 1.0000;
  (124) 0.0000, 1.0000, 0.0000, 0.0000, 0.0000;
  (125) 0.0000, 0.0000, 0.0000, 1.0000, 0.0000;
  (126) 0.0000, 1.0000, 0.0000, 0.0000, 0.0000;
  (127) 0.0000, 0.0000, 0.0000, 0.0000, 1.0000;
  (128) 1.0000, 0.0000, 0.0000, 0.0000, 0.0000;
  (129) 0.0000, 0.0000, 1.0000, 0.0000, 0.0000;
  (130) 0.0000, 0.0000, 0.0000, 0.0000, 1.0000;
  (131) 1.0000, 0.0000, 0.0000, 0.0000, 0.0000;
  (132) 0.0000, 0.0000, 0.0000, 1.0000, 0.0000;
  (133) 0.0000, 1.0000, 0.0000, 0.0000, 0.0000;
  (134) 0.0000, 0.0000, 1.0000, 0.0000, 0.0000;
  (135) 0.0000, 0.0000, 1.0000, 0.0000, 0.0000;
  (136) 1.0000, 0.0000, 0.0000, 0.0000, 0.0000;
  (137) 0.0000, 1.0000, 0.0000, 0.0000, 0.0000;
  (138) 0.0000, 0.0000, 0.0000, 1.0000, 0.0000;
  (139) 0.0000, 0.0000, 0.0000, 0.0000, 1.0000;
  (140) 0.0000, 0.0000, 1.0000, 0.0000, 0.0000;
  (141) 0.0000, 1.0000, 0.0000, 0.0000, 0.0000;
  (142) 0.0000, 0.0000, 0.0000, 0.0000, 1.0000;
  (143) 0.0000, 0.0000, 0.0000, 1.0000, 0.0000;
  (144) 1.0000, 0.0000, 0.0000, 0.0000, 0.0000;
  (145) 1.0000, 0.0000, 0.0000, 0.0000, 0.0000;
  (146) 0.0000, 0.0000, 0.0000, 1.0000, 0.0000;
  (147) 0.0000, 1.0000, 0.0000, 0.0000, 0.0000;
  (148) 0.0000, 0.0000, 0.0000, 0.0000, 1.0000;
  (149) 0.0000, 0.0000, 1.0000, 0.0000, 0.0000;
  (150) 1.0000, 0.0000, 0.0000, 0.0000, 0.0000;
  (151) 0.0000, 0.0000, 1.0000, 0.0000, 0.0000;
  (152) 0.0000, 1.0000, 0.0000, 0.0000, 0.0000;
  (153) 0.0000, 0.0000, 0.0000, 0.0000, 1.0000;
  (154) 0.0000, 0.0000, 0.0000, 1.0000, 0.0000;
  (155) 1.0000, 0.0000, 0.0000, 0.0000, 0.0000;
  (156) 0.0000, 0.0000, 0.0000, 0.0000, 1.0000;
  (157) 0.0000, 1.0000, 0.0000, 0.0000, 0.0000;
  (158) 0.0000, 0.0000, 0.0000, 1.0000, 0.0000;
  (159) 0.0000, 0.0000, 1.0000, 0.0000, 0.0000;
  (160) 0.0000, 0.0000, 0.0000, 1.0000, 0.0000;
  (161) 1.0000, 0.0000, 0.0000, 0.0000, 0.0000;
  (162) 0.0000, 0.0000, 0.0000, 0.0000, 1.0000;
  (163) 0.0000, 0.0000, 1.0000, 0.0000, 0.0000;
  (164) 0.0000, 1.0000, 0.0000, 0.0000, 0.0000;
  (165) 0.0000, 0.0000, 1.0000, 0.0000, 0.0000;
  (166) 0.0000, 0.0000, 0.0000, 0.0000, 1.0000;
  (167) 0.0000, 0.0000, 0.0000, 1.0000, 0.0000;
  (168) 1.0000, 0.0000, 0.0000, 0.0000, 0.0000;
  (169) 0.0000, 1.0000, 0.0000, 0.0000, 0.0000;
  (170) 0.0000, 1.0000, 0.0000, 0.0000, 0.0000;
  (171) 1.0000, 0.0000, 0.0000, 0.0000, 0.0000;
  (172) 0.0000, 0.0000, 0.0000, 1.0000, 0.0000;
  (173) 0.0000, 0.0000, 0.0000, 0.0000, 1.0000;
  (174) 0.0000, 0.0000, 1.0000, 0.0000, 0.0000;
  (175) 0.0000, 0.0000, 0.0000, 0.0000, 1.0000;
  (176) 0.0000, 1.0000, 0.0000, 0.0000, 0.0000;
  (177) 0.0000, 0.0000, 1.0000, 0.0000, 0.0000;
  (178) 1.0000, 0.0000, 0.0000, 0.0000, 0.0000;
  (179) 0.0000, 0.0000, 0.0000, 1.0000, 0.0000;
  (180) 0.0000, 0.0000, 0.0000, 0.0000, 1.0000;
  (181) 0.0000, 1.0000, 0.0000, 0.0000, 0.0000;
  (182) 0.0000, 0.0000, 1.0000, 0.0000, 0.0000;
  (183) 0.0000, 0.0000, 0.0000, 1.0000, 0.0000;
  (184) 1.0000, 0.0000, 0.0000, 0.0000, 0.0000;
  (185) 0.0000, 0.0000, 0.0000, 1.0000, 0.0000;
  (186) 0.0000, 1.0000, 0.0000, 0.0000, 0.0000;
  (187) 1.0000, 0.0000, 0.0000, 0.0000, 0.0000;
  (188) 0.0000, 0.0000, 1.0000, 0.0000, 0.0000;
  (189) 0.0000, 0.0000, 0.0000, 0.0000, 1.0000;
  (190) 1.0000, 0.0000, 0.0000, 0.0000, 0.0000;
  (191) 0.0000, 0.0000, 1.0000, 0.0000, 0.0000;
  (192) 0.0000, 0.0000, 0.0000, 0.0000, 1.0000;
  (193) 0.0000, 1.0000, 0.0000, 0.0000, 0.0000;
  (194) 0.0000, 0.0000, 0.0000, 1.0000, 0.0000;
  (195) 0.0000, 0.0000, 0.0000, 1.0000, 0.0000;
  (196) 1.0000, 0.0000, 0.0000, 0.0000, 0.0000;
  (197) 0.0000, 0.0000, 1.0000, 0.0000, 0.0000;
  (198) 0.0000, 1.0000, 0.0000, 0.0000, 0.0000;
  (199) 0.0000, 0.0000, 0.0000, 0.0000, 1.0000;
  (200) 1.0000, 0.0000, 0.0000, 0.0000, 0.0000;
  (201) 0.0000, 1.0000, 0.0000, 0.0000, 0.0000;
  (202) 0.0000, 0.0000, 1.0000, 0.0000, 0.0000;
  (203) 0.0000, 0.0000, 0.0000, 1.0000, 0.0000;
  (204) 0.0000, 0.0000, 0.0000, 0.0000, 1.0000;
  (205) 0.0000, 1.0000, 0.0000, 0.0000, 0.0000;
  (206) 0.0000, 0.0000, 1.0000, 0.0000, 0.0000;
  (207) 0.0000, 0.0000, 0.0000, 1.0000, 0.0000;
  (208) 0.0000, 0.0000, 0.0000, 0.0000, 1.0000;
  (209) 1.0000, 0.0000, 0.0000, 0.0000, 0.0000;
  (210) 0.0000, 0.0000, 0.0000, 1.0000, 0.0000;
  (211) 0.0000, 1.0000, 0.0000, 0.0000, 0.0000;
  (212) 0.0000, 0.0000, 1.0000, 0.0000, 0.0000;
  (213) 0.0000, 0.0000, 0.0000, 0.0000, 1.0000;
  (214) 1.0000, 0.0000, 0.0000, 0.0000, 0.0000;
  (215) 1.0000, 0.0000, 0.0000, 0.0000, 0.0000;
}

probability (column5) {
  table 0.2509, 0.2458, 0.1448, 0.1984, 0.1601;
}

probability (column6) {
  table 0.4958, 0.1840, 0.1021, 0.2181;
}

probability (column7 | column5, column6) {
  (0, 0) 0.0000, 0.0000, 0.0000, 1.0000;
  (0, 1) 0.0000, 1.0000, 0.0000, 0.0000;
  (0, 2) 1.0000, 0.0000, 0.0000, 0.0000;
  (0, 3) 0.0000, 0.0000, 1.0000, 0.0000;
  (1, 0) 1.0000, 0.0000, 0.0000, 0.0000;
  (1, 1) 0.0000, 0.0000, 0.0000, 1.0000;
  (1, 2) 0.0000, 0.0000, 1.0000, 0.0000;
  (1, 3) 0.0000, 1.0000, 0.0000, 0.0000;
  (2, 0) 0.0000, 0.0000, 0.0000, 1.0000;
  (2, 1) 0.0000, 1.0000, 0.0000, 0.0000;
  (2, 2) 1.0000, 0.0000, 0.0000, 0.0000;
  (2, 3) 0.0000, 0.0000, 1.0000, 0.0000;
  (3, 0) 1.0000, 0.0000, 0.0000, 0.0000;
  (3, 1) 0.0000, 0.0000, 1.0000, 0.0000;
  (3, 2) 0.0000, 1.0000, 0.0000, 0.0000;
  (3, 3) 0.0000, 0.0000, 0.0000, 1.0000;
  (4, 0) 1.0000, 0.0000, 0.0000, 0.0000;
  (4, 1) 0.0000, 0.0000, 1.0000, 0.0000;
  (4, 2) 0.0000, 0.0000, 0.0000, 1.0000;
  (4, 3) 0.0000, 1.0000, 0.0000, 0.0000;
}

probability (column8) {
  table 0.6092, 0.2362, 0.1546;
}

probability (column9) {
  table 0.1045, 0.0781, 0.1956, 0.2841, 0.0486, 0.1545, 0.1346;
}

probability (column10 | column8, column9) {
  (0, 0) 0.0000, 0.0000, 0.0000, 0.0000, 1.0000;
  (0, 1) 0.0000, 1.0000, 0.0000, 0.0000, 0.0000;
  (0, 2) 0.0000, 0.0000, 1.0000, 0.0000, 0.0000;
  (0, 3) 1.0000, 0.0000, 0.0000, 0.0000, 0.0000;
  (0, 4) 0.0000, 0.0000, 0.0000, 1.0000, 0.0000;
  (0, 5) 1.0000, 0.0000, 0.0000, 0.0000, 0.0000;
  (0, 6) 0.0000, 1.0000, 0.0000, 0.0000, 0.0000;
  (1, 0) 0.0000, 0.0000, 0.0000, 1.0000, 0.0000;
  (1, 1) 0.0000, 0.0000, 0.0000, 0.0000, 1.0000;
  (1, 2) 0.0000, 0.0000, 1.0000, 0.0000, 0.0000;
  (1, 3) 0.0000, 0.0000, 0.0000, 0.0000, 1.0000;
  (1, 4) 0.0000, 0.0000, 0.0000, 1.0000, 0.0000;
  (1, 5) 0.0000, 1.0000, 0.0000, 0.0000, 0.0000;
  (1, 6) 1.0000, 0.0000, 0.0000, 0.0000, 0.0000;
  (2, 0) 0.0000, 0.0000, 1.0000, 0.0000, 0.0000;
  (2, 1) 0.0000, 1.0000, 0.0000, 0.0000, 0.0000;
  (2, 2) 0.0000, 0.0000, 1.0000, 0.0000, 0.0000;
  (2, 3) 0.0000, 0.0000, 0.0000, 0.0000, 1.0000;
  (2, 4) 1.0000, 0.0000, 0.0000, 0.0000, 0.0000;
  (2, 5) 0.0000, 0.0000, 0.0000, 1.0000, 0.0000;
  (2, 6) 0.0000, 0.0000, 0.0000, 1.0000, 0.0000;
}

probability (column11) {
  table 0.1882, 0.1577, 0.2022, 0.1523, 0.1305, 0.1691;
}

probability (column12) {
  table 0.3180, 0.1311, 0.1887, 0.1176, 0.1453, 0.0993;
}

probability (column13) {
  table 0.0760, 0.1977, 0.1545, 0.1128, 0.1663, 0.2927;
}

probability (column14 | column11, column12, column13) {
  (0, 0, 0) 0.0000, 0.0000, 0.0000, 1.0000, 0.0000;
  (0, 0, 1) 0.0000, 0.0000, 1.0000, 0.0000, 0.0000;
  (0, 0, 2) 0.0000, 0.0000, 0.0000, 0.0000, 1.0000;
  (0, 0, 3) 1.0000, 0.0000, 0.0000, 0.0000, 0.0000;
  (0, 0, 4) 0.0000, 1.0000, 0.0000, 0.0000, 0.0000;
  (0, 0, 5) 1.0000, 0.0000, 0.0000, 0.0000, 0.0000;
  (0, 1, 0) 0.0000, 0.0000, 1.0000, 0.0000, 0.0000;
  (0, 1, 1) 0.0000, 1.0000, 0.0000, 0.0000, 0.0000;
  (0, 1, 2) 0.0000, 0.0000, 0.0000, 0.0000, 1.0000;
  (0, 1, 3) 0.0000, 0.0000, 0.0000, 1.0000, 0.0000;
  (0, 1, 4) 0.0000, 0.0000, 0.0000, 0.0000, 1.0000;
  (0, 1, 5) 0.0000, 0.0000, 1.0000, 0.0000, 0.0000;
  (0, 2, 0) 0.0000, 1.0000, 0.0000, 0.0000, 0.0000;
  (0, 2, 1) 0.0000, 0.0000, 0.0000, 1.0000, 0.0000;
  (0, 2, 2) 1.0000, 0.0000, 0.0000, 0.0000, 0.0000;
  (0, 2, 3) 1.0000, 0.0000, 0.0000, 0.0000, 0.0000;
  (0, 2, 4) 0.0000, 0.0000, 0.0000, 0.0000, 1.0000;
  (0, 2, 5) 0.0000, 0.0000, 0.0000, 1.0000, 0.0000;
  (0, 3, 0) 0.0000, 0.0000, 1.0000, 0.0000, 0.0000;
  (0, 3, 1) 0.0000, 1.0000, 0.0000, 0.0000, 0.0000;
  (0, 3, 2) 0.0000, 0.0000, 0.0000, 1.0000, 0.0000;
  (0, 3, 3) 0.0000, 0.0000, 1.0000, 0.0000, 0.0000;
  (0, 3, 4) 0.0000, 1.0000, 0.0000, 0.0000, 0.0000;
  (0, 3, 5) 0.0000, 0.0000, 0.0000, 0.0000, 1.0000;
  (0, 4, 0) 1.0000, 0.0000, 0.0000, 0.0000, 0.0000;
  (0, 4, 1) 0.0000, 0.0000, 1.0000, 0.0000, 0.0000;
  (0, 4, 2) 0.0000, 0.0000, 0.0000, 0.0000, 1.0000;
  (0, 4, 3) 1.0000, 0.0000, 0.0000, 0.0000, 0.0000;
  (0, 4, 4) 0.0000, 0.0000, 0.0000, 1.0000, 0.0000;
  (0, 4, 5) 0.0000, 1.0000, 0.0000, 0.0000, 0.0000;
  (0, 5, 0) 0.0000, 0.0000, 0.0000, 0.0000, 1.0000;
  (0, 5, 1) 1.0000, 0.0000, 0.0000, 0.0000, 0.0000;
  (0, 5, 2) 0.0000, 1.0000, 0.0000, 0.0000, 0.0000;
  (0, 5, 3) 0.0000, 0.0000, 0.0000, 1.0000, 0.0000;
  (0, 5, 4) 0.0000, 0.0000, 1.0000, 0.0000, 0.0000;
  (0, 5, 5) 0.0000, 1.0000, 0.0000, 0.0000, 0.0000;
  (1, 0, 0) 0.0000, 0.0000, 1.0000, 0.0000, 0.0000;
  (1, 0, 1) 0.0000, 0.0000, 0.0000, 0.0000, 1.0000;
  (1, 0, 2) 0.0000, 0.0000, 0.0000, 1.0000, 0.0000;
  (1, 0, 3) 1.0000, 0.0000, 0.0000, 0.0000, 0.0000;
  (1, 0, 4) 0.0000, 0.0000, 0.0000, 0.0000, 1.0000;
  (1, 0, 5) 0.0000, 1.0000, 0.0000, 0.0000, 0.0000;
  (1, 1, 0) 0.0000, 0.0000, 1.0000, 0.0000, 0.0000;
  (1, 1, 1) 0.0000, 0.0000, 0.0000, 1.0000, 0.0000;
  (1, 1, 2) 1.0000, 0.0000, 0.0000, 0.0000, 0.0000;
  (1, 1, 3) 0.0000, 0.0000, 0.0000, 0.0000, 1.0000;
  (1, 1, 4) 0.0000, 1.0000, 0.0000, 0.0000, 0.0000;
  (1, 1, 5) 1.0000, 0.0000, 0.0000, 0.0000, 0.0000;
  (1, 2, 0) 0.0000, 0.0000, 0.0000, 1.0000, 0.0000;
  (1, 2, 1) 0.0000, 0.0000, 1.0000, 0.0000, 0.0000;
  (1, 2, 2) 1.0000, 0.0000, 0.0000, 0.0000, 0.0000;
  (1, 2, 3) 0.0000, 0.0000, 0.0000, 1.0000, 0.0000;
  (1, 2, 4) 0.0000, 0.0000, 1.0000, 0.0000, 0.0000;
  (1, 2, 5) 0.0000, 0.0000, 0.0000, 0.0000, 1.0000;
  (1, 3, 0) 0.0000, 1.0000, 0.0000, 0.0000, 0.0000;
  (1, 3, 1) 1.0000, 0.0000, 0.0000, 0.0000, 0.0000;
  (1, 3, 2) 0.0000, 0.0000, 0.0000, 0.0000, 1.0000;
  (1, 3, 3) 0.0000, 1.0000, 0.0000, 0.0000, 0.0000;
  (1, 3, 4) 0.0000, 0.0000, 0.0000, 1.0000, 0.0000;
  (1, 3, 5) 0.0000, 0.0000, 1.0000, 0.0000, 0.0000;
  (1, 4, 0) 0.0000, 0.0000, 1.0000, 0.0000, 0.0000;
  (1, 4, 1) 0.0000, 0.0000, 0.0000, 0.0000, 1.0000;
  (1, 4, 2) 0.0000, 1.0000, 0.0000, 0.0000, 0.0000;
  (1, 4, 3) 0.0000, 0.0000, 0.0000, 1.0000, 0.0000;
  (1, 4, 4) 1.0000, 0.0000, 0.0000, 0.0000, 0.0000;
  (1, 4, 5) 0.0000, 0.0000, 0.0000, 1.0000, 0.0000;
  (1, 5, 0) 0.0000, 0.0000, 0.0000, 0.0000, 1.0000;
  (1, 5, 1) 0.0000, 1.0000, 0.0000, 0.0000, 0.0000;
  (1, 5, 2) 1.0000, 0.0000, 0.0000, 0.0000, 0.0000;
  (1, 5, 3) 0.0000, 0.0000, 1.0000, 0.0000, 0.0000;
  (1, 5, 4) 1.0000, 0.0000, 0.0000, 0.0000, 0.0000;
  (1, 5, 5) 0.0000, 0.0000, 1.0000, 0.0000, 0.0000;
  (2, 0, 0) 0.0000, 0.0000, 0.0000, 0.0000, 1.0000;
  (2, 0, 1) 0.0000, 0.0000, 0.0000, 1.0000, 0.0000;
  (2, 0, 2) 0.0000, 1.0000, 0.0000, 0.0000, 0.0000;
  (2, 0, 3) 0.0000, 1.0000, 0.0000, 0.0000, 0.0000;
  (2, 0, 4) 1.0000, 0.0000, 0.0000, 0.0000, 0.0000;
  (2, 0, 5) 0.0000, 0.0000, 0.0000, 1.0000, 0.0000;
  (2, 1, 0) 0.0000, 0.0000, 1.0000, 0.0000, 0.0000;
  (2, 1, 1) 0.0000, 0.0000, 0.0000, 0.0000, 1.0000;
  (2, 1, 2) 0.0000, 1.0000, 0.0000, 0.0000, 0.0000;
  (2, 1, 3) 1.0000, 0.0000, 0.0000, 0.0000, 0.0000;
  (2, 1, 4) 0.0000, 0.0000, 0.0000, 1.0000, 0.0000;
  (2, 1, 5) 0.0000, 0.0000, 1.0000, 0.0000, 0.0000;
  (2, 2, 0) 0.0000, 0.0000, 0.0000, 0.0000, 1.0000;
  (2, 2, 1) 0.0000, 0.0000, 0.0000, 0.0000, 1.0000;
  (2, 2, 2) 0.0000, 0.0000, 0.0000, 1.0000, 0.0000;
  (2, 2, 3) 1.0000, 0.0000, 0.0000, 0.0000, 0.0000;
  (2, 2, 4) 0.0000, 1.0000, 0.0000, 0.0000, 0.0000;
  (2, 2, 5) 0.0000, 0.0000, 1.0000, 0.0000, 0.0000;
  (2, 3, 0) 0.0000, 0.0000, 0.0000, 0.0000, 1.0000;
  (2, 3, 1) 0.0000, 1.0000, 0.0000, 0.0000, 0.0000;
  (2, 3, 2) 0.0000, 0.0000, 0.0000, 1.0000, 0.0000;
  (2, 3, 3) 0.0000, 0.0000, 1.0000, 0.0000, 0.0000;
  (2, 3, 4) 1.0000, 0.0000, 0.0000, 0.0000, 0.0000;
  (2, 3, 5) 1.0000, 0.0000, 0.0000, 0.0000, 0.0000;
  (2, 4, 0) 0.0000, 1.0000, 0.0000, 0.0000, 0.0000;
  (2, 4, 1) 0.0000, 0.0000, 0.0000, 1.0000, 0.0000;
  (2, 4, 2) 0.0000, 0.0000, 1.0000, 0.0000, 0.0000;
  (2, 4, 3) 0.0000, 0.0000, 0.0000, 0.0000, 1.0000;
  (2, 4, 4) 0.0000, 0.0000, 0.0000, 1.0000, 0.0000;
  (2, 4, 5) 0.0000, 0.0000, 1.0000, 0.0000, 0.0000;
  (2, 5, 0) 0.0000, 1.0000, 0.0000, 0.0000, 0.0000;
  (2, 5, 1) 0.0000, 0.0000, 0.0000, 0.0000, 1.0000;
  (2, 5, 2) 1.0000, 0.0000, 0.0000, 0.0000, 0.0000;
  (2, 5, 3) 0.0000, 0.0000, 1.0000, 0.0000, 0.0000;
  (2, 5, 4) 0.0000, 1.0000, 0.0000, 0.0000, 0.0000;
  (2, 5, 5) 0.0000, 0.0000, 0.0000, 1.0000, 0.0000;
  (3, 0, 0) 1.0000, 0.0000, 0.0000, 0.0000, 0.0000;
  (3, 0, 1) 0.0000, 0.0000, 0.0000, 0.0000, 1.0000;
  (3, 0, 2) 0.0000, 0.0000, 1.0000, 0.0000, 0.0000;
  (3, 0, 3) 0.0000, 0.0000, 0.0000, 0.0000, 1.0000;
  (3, 0, 4) 1.0000, 0.0000, 0.0000, 0.0000, 0.0000;
  (3, 0, 5) 0.0000, 1.0000, 0.0000, 0.0000, 0.0000;
  (3, 1, 0) 0.0000, 0.0000, 0.0000, 1.0000, 0.0000;
  (3, 1, 1) 0.0000, 0.0000, 1.0000, 0.0000, 0.0000;
  (3, 1, 2) 0.0000, 1.0000, 0.0000, 0.0000, 0.0000;
  (3, 1, 3) 1.0000, 0.0000, 0.0000, 0.0000, 0.0000;
  (3, 1, 4) 0.0000, 0.0000, 0.0000, 0.0000, 1.0000;
  (3, 1, 5) 0.0000, 0.0000, 0.0000, 1.0000, 0.0000;
  (3, 2, 0) 0.0000, 0.0000, 1.0000, 0.0000, 0.0000;
  (3, 2, 1) 0.0000, 0.0000, 0.0000, 1.0000, 0.0000;
  (3, 2, 2) 1.0000, 0.0000, 0.0000, 0.0000, 0.0000;
  (3, 2, 3) 0.0000, 0.0000, 0.0000, 0.0000, 1.0000;
  (3, 2, 4) 0.0000, 1.0000, 0.0000, 0.0000, 0.0000;
  (3, 2, 5) 1.0000, 0.0000, 0.0000, 0.0000, 0.0000;
  (3, 3, 0) 0.0000, 0.0000, 0.0000, 1.0000, 0.0000;
  (3, 3, 1) 0.0000, 1.0000, 0.0000, 0.0000, 0.0000;
  (3, 3, 2) 0.0000, 0.0000, 0.0000, 0.0000, 1.0000;
  (3, 3, 3) 0.0000, 0.0000, 1.0000, 0.0000, 0.0000;
  (3, 3, 4) 0.0000, 0.0000, 1.0000, 0.0000, 0.0000;
  (3, 3, 5) 0.0000, 1.0000, 0.0000, 0.0000, 0.0000;
  (3, 4, 0) 0.0000, 0.0000, 0.0000, 0.0000, 1.0000;
  (3, 4, 1) 1.0000, 0.0000, 0.0000, 0.0000, 0.0000;
  (3, 4, 2) 0.0000, 0.0000, 0.0000, 1.0000, 0.0000;
  (3, 4, 3) 0.0000, 1.0000, 0.0000, 0.0000, 0.0000;
  (3, 4, 4) 0.0000, 0.0000, 0.0000, 0.0000, 1.0000;
  (3, 4, 5) 1.0000, 0.0000, 0.0000, 0.0000, 0.0000;
  (3, 5, 0) 0.0000, 0.0000, 0.0000, 1.0000, 0.0000;
  (3, 5, 1) 0.0000, 0.0000, 1.0000, 0.0000, 0.0000;
  (3, 5, 2) 0.0000, 1.0000, 0.0000, 0.0000, 0.0000;
  (3, 5, 3) 0.0000, 0.0000, 1.0000, 0.0000, 0.0000;
  (3, 5, 4) 0.0000, 0.0000, 0.0000, 0.0000, 1.0000;
  (3, 5, 5) 1.0000, 0.0000, 0.0000, 0.0000, 0.0000;
  (4, 0, 0) 0.0000, 0.0000, 0.0000, 1.0000, 0.0000;
  (4, 0, 1) 0.0000, 0.0000, 0.0000, 1.0000, 0.0000;
  (4, 0, 2) 0.0000, 0.0000, 1.0000, 0.0000, 0.0000;
  (4, 0, 3) 1.0000, 0.0000, 0.0000, 0.0000, 0.0000;
  (4, 0, 4) 0.0000, 0.0000, 0.0000, 0.0000, 1.0000;
  (4, 0, 5) 0.0000, 1.0000, 0.0000, 0.0000, 0.0000;
  (4, 1, 0) 0.0000, 0.0000, 0.0000, 0.0000, 1.0000;
  (4, 1, 1) 0.0000, 1.0000, 0.0000, 0.0000, 0.0000;
  (4, 1, 2) 1.0000, 0.0000, 0.0000, 0.0000, 0.0000;
  (4, 1, 3) 0.0000, 0.0000, 0.0000, 1.0000, 0.0000;
  (4, 1, 4) 0.0000, 0.0000, 1.0000, 0.0000, 0.0000;
  (4, 1, 5) 1.0000, 0.0000, 0.0000, 0.0000, 0.0000;
  (4, 2, 0) 0.0000, 0.0000, 1.0000, 0.0000, 0.0000;
  (4, 2, 1) 0.0000, 0.0000, 0.0000, 1.0000, 0.0000;
  (4, 2, 2) 0.0000, 0.0000, 0.0000, 0.0000, 1.0000;
  (4, 2, 3) 0.0000, 1.0000, 0.0000, 0.0000, 0.0000;
  (4, 2, 4) 0.0000, 0.0000, 1.0000, 0.0000, 0.0000;
  (4, 2, 5) 0.0000, 0.0000, 0.0000, 1.0000, 0.0000;
  (4, 3, 0) 0.0000, 1.0000, 0.0000, 0.0000, 0.0000;
  (4, 3, 1) 0.0000, 0.0000, 0.0000, 0.0000, 1.0000;
  (4, 3, 2) 1.0000, 0.0000, 0.0000, 0.0000, 0.0000;
  (4, 3, 3) 1.0000, 0.0000, 0.0000, 0.0000, 0.0000;
  (4, 3, 4) 0.0000, 0.0000, 0.0000, 1.0000, 0.0000;
  (4, 3, 5) 0.0000, 0.0000, 1.0000, 0.0000, 0.0000;
  (4, 4, 0) 0.0000, 0.0000, 0.0000, 0.0000, 1.0000;
  (4, 4, 1) 0.0000, 1.0000, 0.0000, 0.0000, 0.0000;
  (4, 4, 2) 0.0000, 0.0000, 0.0000, 1.0000, 0.0000;
  (4, 4, 3) 1.0000, 0.0000, 0.0000, 0.0000, 0.0000;
  (4, 4, 4) 0.0000, 0.0000, 1.0000, 0.0000, 0.0000;
  (4, 4, 5) 0.0000, 0.0000, 0.0000, 0.0000, 1.0000;
  (4, 5, 0) 0.0000, 1.0000, 0.0000, 0.0000, 0.0000;
  (4, 5, 1) 0.0000, 0.0000, 0.0000, 1.0000, 0.0000;
  (4, 5, 2) 1.0000, 0.0000, 0.0000, 0.0000, 0.0000;
  (4, 5, 3) 0.0000, 0.0000, 0.0000, 0.0000, 1.0000;
  (4, 5, 4) 0.0000, 1.0000, 0.0000, 0.0000, 0.0000;
  (4, 5, 5) 0.0000, 0.0000, 1.0000, 0.0000, 0.0000;
  (5, 0, 0) 0.0000, 0.0000, 0.0000, 1.0000, 0.0000;
  (5, 0, 1) 0.0000, 0.0000, 0.0000, 0.0000, 1.0000;
  (5, 0, 2) 0.0000, 0.0000, 1.0000, 0.0000, 0.0000;
  (5, 0, 3) 1.0000, 0.0000, 0.0000, 0.0000, 0.0000;
  (5, 0, 4) 0.0000, 1.0000, 0.0000, 0.0000, 0.0000;
  (5, 0, 5) 0.0000, 0.0000, 0.0000, 0.0000, 1.0000;
  (5, 1, 0) 1.0000, 0.0000, 0.0000, 0.0000, 0.0000;
  (5, 1, 1) 0.0000, 0.0000, 1.0000, 0.0000, 0.0000;
  (5, 1, 2) 0.0000, 0.0000, 0.0000, 1.0000, 0.0000;
  (5, 1, 3) 0.0000, 1.0000, 0.0000, 0.0000, 0.0000;
  (5, 1, 4) 1.0000, 0.0000, 0.0000, 0.0000, 0.0000;
  (5, 1, 5) 0.0000, 0.0000, 0.0000, 1.0000, 0.0000;
  (5, 2, 0) 0.0000, 1.0000, 0.0000, 0.0000, 0.0000;
  (5, 2, 1) 0.0000, 0.0000, 1.0000, 0.0000, 0.0000;
  (5, 2, 2) 0.0000, 0.0000, 0.0000, 0.0000, 1.0000;
  (5, 2, 3) 0.0000, 0.0000, 0.0000, 0.0000, 1.0000;
  (5, 2, 4) 0.0000, 1.0000, 0.0000, 0.0000, 0.0000;
  (5, 2, 5) 1.0000, 0.0000, 0.0000, 0.0000, 0.0000;
  (5, 3, 0) 0.0000, 0.0000, 1.0000, 0.0000, 0.0000;
  (5, 3, 1) 0.0000, 0.0000, 0.0000, 1.0000, 0.0000;
  (5, 3, 2) 1.0000, 0.0000, 0.0000, 0.0000, 0.0000;
  (5, 3, 3) 0.0000, 1.0000, 0.0000, 0.0000, 0.0000;
  (5, 3, 4) 0.0000, 0.0000, 0.0000, 0.0000, 1.0000;
  (5, 3, 5) 0.0000, 0.0000, 0.0000, 1.0000, 0.0000;
  (5, 4, 0) 0.0000, 0.0000, 1.0000, 0.0000, 0.0000;
  (5, 4, 1) 0.0000, 0.0000, 0.0000, 0.0000, 1.0000;
  (5, 4, 2) 0.0000, 0.0000, 0.0000, 1.0000, 0.0000;
  (5, 4, 3) 0.0000, 1.0000, 0.0000, 0.0000, 0.0000;
  (5, 4, 4) 1.0000, 0.0000, 0.0000, 0.0000, 0.0000;
  (5, 4, 5) 0.0000, 0.0000, 1.0000, 0.0000, 0.0000;
  (5, 5, 0) 0.0000, 0.0000, 0.0000, 1.0000, 0.0000;
  (5, 5, 1) 0.0000, 1.0000, 0.0000, 0.0000, 0.0000;
  (5, 5, 2) 0.0000, 0.0000, 1.0000, 0.0000, 0.0000;
  (5, 5, 3) 0.0000, 0.0000, 0.0000, 0.0000, 1.0000;
  (5, 5, 4) 1.0000, 0.0000, 0.0000, 0.0000, 0.0000;
  (5, 5, 5) 0.0000, 0.0000, 0.0000, 1.0000, 0.0000;
}

probability (column15 | column4) {
  (0) 0.4576, 0.0172, 0.0127, 0.5000, 0.0125;
  (1) 0.2628, 0.0281, 0.5000, 0.1895, 0.0196;
  (2) 0.5000, 0.0322, 0.3063, 0.0263, 0.1352;
  (3) 0.4518, 0.0432, 0.0024, 0.0026, 0.5000;
  (4) 0.2913, 0.5000, 0.0932, 0.0350, 0.0805;
}

probability (column16 | column4) {
  (0) 0.5000, 0.3484, 0.0667, 0.0275, 0.0574;
  (1) 0.3381, 0.5000, 0.1236, 0.0130, 0.0253;
  (2) 0.1396, 0.3026, 0.5000, 0.0159, 0.0419;
  (3) 0.3583, 0.0237, 0.1056, 0.5000, 0.0124;
  (4) 0.1518, 0.0471, 0.1340, 0.1671, 0.5000;
}

probability (column17 | column10) {
  (0) 0.3511, 0.0196, 0.0001, 0.1292, 0.5000;
  (1) 0.4185, 0.0471, 0.5000, 0.0148, 0.0196;
  (2) 0.2951, 0.1189, 0.0785, 0.5000, 0.0075;
  (3) 0.0784, 0.5000, 0.1820, 0.1539, 0.0857;
  (4) 0.5000, 0.2915, 0.0147, 0.0192, 0.1746;
}

probability (column18 | column10) {
  (0) 0.1132, 0.2388, 0.1270, 0.0210, 0.5000;
  (1) 0.0726, 0.5000, 0.0911, 0.2345, 0.1018;
  (2) 0.0898, 0.2403, 0.5000, 0.0412, 0.1287;
  (3) 0.5000, 0.4928, 0.0041, 0.0008, 0.0023;
  (4) 0.4717, 0.0067, 0.0069, 0.5000, 0.0147;
}

probability (column19 | column7) {
  (0) 0.3333, 0.1461, 0.0167, 0.0039, 0.5000;
  (1) 0.5000, 0.1938, 0.1924, 0.1068, 0.0070;
  (2) 0.2821, 0.1073, 0.5000, 0.1090, 0.0016;
  (3) 0.0368, 0.3846, 0.0246, 0.5000, 0.0540;
}

probability (column20 | column7) {
  (0) 0.1986, 0.1504, 0.0270, 0.1240, 0.5000;
  (1) 0.5000, 0.1553, 0.1429, 0.1837, 0.0181;
  (2) 0.2578, 0.5000, 0.0526, 0.0053, 0.1843;
  (3) 0.0577, 0.1130, 0.0753, 0.5000, 0.2540;
}

probability (column21 | column2) {
  (0) 0.4993, 0.5000, 0.0002, 0.0002, 0.0003;
  (1) 0.2988, 0.1031, 0.5000, 0.0487, 0.0494;
  (2) 0.4410, 0.0545, 0.0025, 0.0020, 0.5000;
  (3) 0.4282, 0.0046, 0.0053, 0.5000, 0.0619;
  (4) 0.5000, 0.3456, 0.0216, 0.0125, 0.1203;
}

probability (column22 | column2) {
  (0) 0.1151, 0.1076, 0.0786, 0.1987, 0.5000;
  (1) 0.2559, 0.5000, 0.0262, 0.0902, 0.1277;
  (2) 0.4169, 0.0493, 0.5000, 0.0173, 0.0165;
  (3) 0.1396, 0.2244, 0.0603, 0.5000, 0.0757;
  (4) 0.5000, 0.0134, 0.1546, 0.3159, 0.0161;
}

probability (column23 | column14) {
  (0) 0.2474, 0.0931, 0.5000, 0.0023, 0.1572;
  (1) 0.2264, 0.5000, 0.0762, 0.1969, 0.0005;
  (2) 0.1092, 0.0505, 0.0836, 0.2567, 0.5000;
  (3) 0.1864, 0.2758, 0.0273, 0.5000, 0.0105;
  (4) 0.5000, 0.1283, 0.1173, 0.1240, 0.1304;
}

probability (column24 | column14) {
  (0) 0.2248, 0.0030, 0.2320, 0.0402, 0.5000;
  (1) 0.2231, 0.5000, 0.0892, 0.1121, 0.0756;
  (2) 0.1058, 0.2560, 0.5000, 0.0987, 0.0395;
  (3) 0.3346, 0.0502, 0.0173, 0.5000, 0.0979;
  (4) 0.5000, 0.3065, 0.1111, 0.0022, 0.0802;
}

probability (column25) {
  table 0.2705, 0.1272, 0.0849, 0.2057, 0.3117;
}

probability (column26) {
  table 0.2256, 0.2574, 0.2812, 0.0648, 0.1710;
}

probability (column27) {
  table 0.1828, 0.2211, 0.1593, 0.2109, 0.2259;
}

probability (column28) {
  table 0.3635, 0.2015, 0.1665, 0.1592, 0.1093;
}

probability (column29) {
  table 0.3018, 0.2325, 0.0683, 0.0921, 0.3053;
}

probability (column30) {
  table 0.1501, 0.1920, 0.1622, 0.2005, 0.2952;
}

