network unknown {
}
variable column1 {
  type discrete[50] { 0, 1, 2, 3, 4, 5, 6, 7, 8, 9, 10, 11, 12, 13, 14, 15, 16, 17, 18, 19, 20, 21, 22, 23, 24, 25, 26, 27, 28, 29, 30, 31, 32, 33, 34, 35, 36, 37, 38, 39, 40, 41, 42, 43, 44, 45, 46, 47, 48, 49 };
}
variable column2 {
  type discrete[7] { 0, 1, 2, 3, 4, 5, 6 };
}
variable column3 {
  type discrete[15] { 0, 1, 2, 3, 4, 5, 6, 7, 8, 9, 10, 11, 12, 13, 14 };
}
variable column4 {
  type discrete[15] { 0, 1, 2, 3, 4, 5, 6, 7, 8, 9, 10, 11, 12, 13, 14 };
}
variable column5 {
  type discrete[5] { 0, 1, 2, 3, 4 };
}
variable column6 {
  type discrete[5] { 0, 1, 2, 3, 4 };
}
variable column7 {
  type discrete[4] { 0, 1, 2, 3 };
}
variable column8 {
  type discrete[3] { 0, 1, 2 };
}
variable column9 {
  type discrete[3] { 0, 1, 2 };
}
variable column10 {
  type discrete[2] { 0, 1 };
}
variable column11 {
  type discrete[4] { 0, 1, 2, 3 };
}
variable column12 {
  type discrete[5] { 0, 1, 2, 3, 4 };
}
variable column13 {
  type discrete[5] { 0, 1, 2, 3, 4 };
}
variable column14 {
  type discrete[5] { 0, 1, 2, 3, 4 };
}
variable column15 {
  type discrete[5] { 0, 1, 2, 3, 4 };
}
variable column16 {
  type discrete[5] { 0, 1, 2, 3, 4 };
}
variable column17 {
  type discrete[5] { 0, 1, 2, 3, 4 };
}
variable column18 {
  type discrete[5] { 0, 1, 2, 3, 4 };
}
variable column19 {
  type discrete[5] { 0, 1, 2, 3, 4 };
}
variable column20 {
  type discrete[5] { 0, 1, 2, 3, 4 };
}

probability (column1) {
  table 0.0045, 0.0131, 0.0205, 0.0109, 0.0181, 0.0136, 0.0184, 0.0197, 0.0412, 0.0299, 0.0104, 0.0102, 0.0338, 0.0331, 0.0141, 0.0467, 0.0169, 0.0483, 0.0062, 0.0146, 0.0185, 0.0146, 0.0141, 0.0183, 0.0177, 0.0236, 0.0166, 0.0235, 0.0255, 0.0137, 0.0173, 0.0134, 0.0102, 0.0370, 0.0429, 0.0109, 0.0092, 0.0246, 0.0213, 0.0103, 0.0221, 0.0182, 0.0178, 0.0266, 0.0127, 0.0153, 0.0182, 0.0127, 0.0303, 0.0187;
}

probability (column2 | column1) {
  (0) 0.0085, 0.0255, 0.9000, 0.0309, 0.0118, 0.0150, 0.0083;
  (1) 0.0525, 0.0365, 0.0070, 0.9000, 0.0006, 0.0013, 0.0021;
  (2) 0.0299, 0.0652, 0.0009, 0.0037, 0.0001, 0.0002, 0.9000;
  (3) 0.0704, 0.0169, 0.0073, 0.0008, 0.9000, 0.0015, 0.0031;
  (4) 0.9000, 0.0993, 0.0003, 0.0000, 0.0002, 0.0001, 0.0001;
  (5) 0.0716, 0.0123, 0.0027, 0.0050, 0.0074, 0.9000, 0.0010;
  (6) 0.0074, 0.9000, 0.0467, 0.0107, 0.0114, 0.0063, 0.0175;
  (7) 0.0733, 0.0042, 0.0063, 0.0007, 0.9000, 0.0039, 0.0116;
  (8) 0.0506, 0.0460, 0.0016, 0.0009, 0.0004, 0.0005, 0.9000;
  (9) 0.0831, 0.9000, 0.0024, 0.0060, 0.0049, 0.0002, 0.0034;
  (10) 0.0651, 0.0293, 0.0042, 0.0008, 0.0003, 0.9000, 0.0003;
  (11) 0.0476, 0.0438, 0.9000, 0.0004, 0.0068, 0.0004, 0.0010;
  (12) 0.9000, 0.0492, 0.0215, 0.0233, 0.0049, 0.0006, 0.0005;
  (13) 0.0765, 0.0001, 0.0163, 0.9000, 0.0017, 0.0001, 0.0053;
  (14) 0.0758, 0.0119, 0.0053, 0.0033, 0.9000, 0.0029, 0.0008;
  (15) 0.0905, 0.0049, 0.0012, 0.9000, 0.0019, 0.0001, 0.0014;
  (16) 0.0939, 0.9000, 0.0031, 0.0007, 0.0017, 0.0005, 0.0001;
  (17) 0.9000, 0.0838, 0.0043, 0.0042, 0.0068, 0.0001, 0.0008;
  (18) 0.0960, 0.0036, 0.0002, 0.0001, 0.0000, 0.9000, 0.0001;
  (19) 0.0106, 0.0721, 0.9000, 0.0160, 0.0002, 0.0008, 0.0003;
  (20) 0.0784, 0.0070, 0.0034, 0.0060, 0.0015, 0.0037, 0.9000;
  (21) 0.0131, 0.0803, 0.9000, 0.0012, 0.0001, 0.0007, 0.0046;
  (22) 0.0774, 0.0138, 0.0063, 0.9000, 0.0008, 0.0001, 0.0016;
  (23) 0.0391, 0.0584, 0.0023, 0.0002, 0.9000, 0.0000, 0.0000;
  (24) 0.0765, 0.9000, 0.0173, 0.0055, 0.0004, 0.0001, 0.0002;
  (25) 0.9000, 0.0375, 0.0061, 0.0311, 0.0127, 0.0072, 0.0054;
  (26) 0.0493, 0.0167, 0.0192, 0.0043, 0.0066, 0.9000, 0.0039;
  (27) 0.0284, 0.0262, 0.0294, 0.0022, 0.0051, 0.0087, 0.9000;
  (28) 0.0696, 0.0052, 0.0024, 0.0092, 0.0096, 0.0040, 0.9000;
  (29) 0.9000, 0.0880, 0.0067, 0.0002, 0.0048, 0.0003, 0.0000;
  (30) 0.0697, 0.0129, 0.0045, 0.0081, 0.0001, 0.9000, 0.0047;
  (31) 0.0101, 0.0368, 0.9000, 0.0328, 0.0043, 0.0134, 0.0026;
  (32) 0.0561, 0.9000, 0.0266, 0.0049, 0.0054, 0.0025, 0.0045;
  (33) 0.0597, 0.0003, 0.0119, 0.0068, 0.9000, 0.0101, 0.0112;
  (34) 0.0908, 0.0013, 0.0070, 0.9000, 0.0004, 0.0001, 0.0004;
  (35) 0.0247, 0.0374, 0.0371, 0.0001, 0.0001, 0.0006, 0.9000;
  (36) 0.0478, 0.0448, 0.0039, 0.9000, 0.0014, 0.0021, 0.0000;
  (37) 0.0993, 0.0003, 0.0003, 0.0001, 0.0000, 0.9000, 0.0000;
  (38) 0.0728, 0.0231, 0.0014, 0.0025, 0.9000, 0.0000, 0.0002;
  (39) 0.0820, 0.9000, 0.0180, 0.0000, 0.0000, 0.0000, 0.0000;
  (40) 0.0729, 0.0163, 0.9000, 0.0040, 0.0002, 0.0020, 0.0046;
  (41) 0.9000, 0.0828, 0.0129, 0.0017, 0.0016, 0.0001, 0.0009;
  (42) 0.0065, 0.0898, 0.0025, 0.0008, 0.9000, 0.0002, 0.0002;
  (43) 0.0510, 0.0480, 0.9000, 0.0007, 0.0002, 0.0000, 0.0001;
  (44) 0.9000, 0.0472, 0.0058, 0.0319, 0.0022, 0.0120, 0.0009;
  (45) 0.0735, 0.0155, 0.0022, 0.0018, 0.0039, 0.9000, 0.0031;
  (46) 0.0777, 0.0166, 0.0038, 0.9000, 0.0007, 0.0003, 0.0009;
  (47) 0.0231, 0.9000, 0.0110, 0.0383, 0.0234, 0.0017, 0.0025;
  (48) 0.0445, 0.0087, 0.0463, 0.0001, 0.0002, 0.0002, 0.9000;
  (49) 0.0341, 0.9000, 0.0307, 0.0125, 0.0039, 0.0100, 0.0088;
}

probability (column3) {
  table 0.0649, 0.0774, 0.0479, 0.0432, 0.0764, 0.0946, 0.1512, 0.0399, 0.0902, 0.0172, 0.0604, 0.0763, 0.0578, 0.0560, 0.0466;
}

probability (column4 | column3) {
  (0) 0.0188, 0.0067, 0.0285, 0.0056, 0.0338, 0.0012, 0.0002, 0.0052, 0.0000, 0.0000, 0.0000, 0.0000, 0.0000, 0.9000, 0.0000;
  (1) 0.0185, 0.0791, 0.0004, 0.0000, 0.0011, 0.0002, 0.0003, 0.0001, 0.0001, 0.0002, 0.0000, 0.0000, 0.0000, 0.0000, 0.9000;
  (2) 0.0956, 0.0031, 0.0000, 0.0001, 0.9000, 0.0006, 0.0000, 0.0000, 0.0005, 0.0000, 0.0001, 0.0000, 0.0000, 0.0000, 0.0000;
  (3) 0.0549, 0.0340, 0.0065, 0.0006, 0.0033, 0.9000, 0.0002, 0.0005, 0.0000, 0.0000, 0.0000, 0.0000, 0.0000, 0.0000, 0.0000;
  (4) 0.0388, 0.0546, 0.9000, 0.0007, 0.0059, 0.0000, 0.0000, 0.0000, 0.0000, 0.0000, 0.0000, 0.0000, 0.0000, 0.0000, 0.0000;
  (5) 0.0665, 0.0316, 0.0001, 0.0000, 0.0015, 0.0000, 0.0003, 0.0000, 0.0000, 0.0000, 0.9000, 0.0000, 0.0000, 0.0000, 0.0000;
  (6) 0.0748, 0.0188, 0.0054, 0.0002, 0.0000, 0.0002, 0.9000, 0.0005, 0.0000, 0.0001, 0.0000, 0.0000, 0.0000, 0.0000, 0.0000;
  (7) 0.0762, 0.0162, 0.0009, 0.0007, 0.0003, 0.0036, 0.0021, 0.0000, 0.9000, 0.0000, 0.0000, 0.0000, 0.0000, 0.0000, 0.0000;
  (8) 0.9000, 0.0790, 0.0195, 0.0014, 0.0000, 0.0000, 0.0001, 0.0000, 0.0000, 0.0000, 0.0000, 0.0000, 0.0000, 0.0000, 0.0000;
  (9) 0.0427, 0.0218, 0.0120, 0.0210, 0.0001, 0.0020, 0.0003, 0.0000, 0.0001, 0.0000, 0.0000, 0.0000, 0.9000, 0.0000, 0.0000;
  (10) 0.0022, 0.0759, 0.0175, 0.0029, 0.0000, 0.0011, 0.0003, 0.0001, 0.0000, 0.9000, 0.0000, 0.0000, 0.0000, 0.0000, 0.0000;
  (11) 0.0038, 0.0100, 0.0477, 0.0090, 0.0287, 0.0002, 0.0004, 0.9000, 0.0002, 0.0000, 0.0000, 0.0000, 0.0000, 0.0000, 0.0000;
  (12) 0.0581, 0.0369, 0.0014, 0.9000, 0.0036, 0.0000, 0.0000, 0.0000, 0.0000, 0.0000, 0.0000, 0.0000, 0.0000, 0.0000, 0.0000;
  (13) 0.0663, 0.9000, 0.0276, 0.0054, 0.0005, 0.0001, 0.0000, 0.0001, 0.0000, 0.0000, 0.0000, 0.0000, 0.0000, 0.0000, 0.0000;
  (14) 0.0065, 0.0423, 0.0503, 0.0002, 0.0005, 0.0000, 0.0001, 0.0001, 0.0000, 0.0000, 0.0000, 0.9000, 0.0000, 0.0000, 0.0000;
}

probability (column5) {
  table 0.3120, 0.2511, 0.1601, 0.1754, 0.1014;
}

probability (column6) {
  table 0.2217, 0.1504, 0.3346, 0.2255, 0.0678;
}

probability (column7 | column5, column6) {
  (0, 0) 0.0997, 0.0002, 0.9000, 0.0001;
  (0, 1) 0.0308, 0.0220, 0.0472, 0.9000;
  (0, 2) 0.9000, 0.0513, 0.0386, 0.0101;
  (0, 3) 0.0853, 0.9000, 0.0040, 0.0107;
  (0, 4) 0.9000, 0.0968, 0.0011, 0.0021;
  (1, 0) 0.0507, 0.0382, 0.0111, 0.9000;
  (1, 1) 0.0041, 0.9000, 0.0353, 0.0606;
  (1, 2) 0.0455, 0.0234, 0.9000, 0.0311;
  (1, 3) 0.0517, 0.0322, 0.9000, 0.0161;
  (1, 4) 0.0483, 0.0443, 0.0074, 0.9000;
  (2, 0) 0.9000, 0.0637, 0.0069, 0.0294;
  (2, 1) 0.0134, 0.9000, 0.0250, 0.0616;
  (2, 2) 0.0517, 0.0109, 0.0374, 0.9000;
  (2, 3) 0.0706, 0.0159, 0.9000, 0.0135;
  (2, 4) 0.0292, 0.9000, 0.0398, 0.0310;
  (3, 0) 0.9000, 0.0962, 0.0002, 0.0036;
  (3, 1) 0.0370, 0.0321, 0.9000, 0.0309;
  (3, 2) 0.9000, 0.0448, 0.0161, 0.0391;
  (3, 3) 0.0635, 0.9000, 0.0011, 0.0354;
  (3, 4) 0.0187, 0.0215, 0.0598, 0.9000;
  (4, 0) 0.0813, 0.0127, 0.9000, 0.0060;
  (4, 1) 0.0291, 0.0410, 0.0299, 0.9000;
  (4, 2) 0.9000, 0.0147, 0.0470, 0.0383;
  (4, 3) 0.0902, 0.9000, 0.0048, 0.0050;
  (4, 4) 0.0862, 0.0114, 0.9000, 0.0024;
}

probability (column8) {
  table 0.3467, 0.2039, 0.4494;
}

probability (column9) {
  table 0.4308, 0.3331, 0.2361;
}

probability (column10) {
  table 0.5268, 0.4732;
}

probability (column11 | column8, column9, column10) {
  (0, 0, 0) 0.0749, 0.9000, 0.0121, 0.0130;
  (0, 0, 1) 0.9000, 0.0276, 0.0224, 0.0500;
  (0, 1, 0) 0.0900, 0.0019, 0.9000, 0.0081;
  (0, 1, 1) 0.0989, 0.0002, 0.0009, 0.9000;
  (0, 2, 0) 0.0915, 0.0044, 0.0041, 0.9000;
  (0, 2, 1) 0.9000, 0.0776, 0.0018, 0.0206;
  (1, 0, 0) 0.0030, 0.9000, 0.0204, 0.0766;
  (1, 0, 1) 0.0297, 0.0678, 0.9000, 0.0025;
  (1, 1, 0) 0.0125, 0.0043, 0.0832, 0.9000;
  (1, 1, 1) 0.9000, 0.0150, 0.0309, 0.0541;
  (1, 2, 0) 0.0446, 0.9000, 0.0405, 0.0149;
  (1, 2, 1) 0.1000, 0.0000, 0.9000, 0.0000;
  (2, 0, 0) 0.0703, 0.0263, 0.0034, 0.9000;
  (2, 0, 1) 0.0903, 0.9000, 0.0050, 0.0047;
  (2, 1, 0) 0.0731, 0.0164, 0.9000, 0.0105;
  (2, 1, 1) 0.9000, 0.0345, 0.0528, 0.0127;
  (2, 2, 0) 0.0399, 0.0042, 0.0559, 0.9000;
  (2, 2, 1) 0.0308, 0.0415, 0.9000, 0.0277;
}

probability (column12 | column7) {
  (0) 0.3224, 0.0158, 0.5000, 0.1236, 0.0382;
  (1) 0.5000, 0.0643, 0.0161, 0.2911, 0.1285;
  (2) 0.0828, 0.1324, 0.0724, 0.2124, 0.5000;
  (3) 0.0265, 0.1487, 0.3005, 0.5000, 0.0243;
}

probability (column13 | column7) {
  (0) 0.0358, 0.0104, 0.1899, 0.2639, 0.5000;
  (1) 0.5000, 0.1071, 0.2927, 0.0787, 0.0215;
  (2) 0.4838, 0.0020, 0.5000, 0.0003, 0.0139;
  (3) 0.0083, 0.0826, 0.0552, 0.5000, 0.3539;
}

probability (column14 | column4) {
  (0) 0.0524, 0.1564, 0.5000, 0.2660, 0.0252;
  (1) 0.4329, 0.0319, 0.0163, 0.0189, 0.5000;
  (2) 0.5000, 0.0493, 0.1847, 0.1394, 0.1266;
  (3) 0.0026, 0.5000, 0.2542, 0.1100, 0.1332;
  (4) 0.2346, 0.1987, 0.0017, 0.5000, 0.0650;
  (5) 0.3244, 0.0102, 0.0220, 0.1434, 0.5000;
  (6) 0.4240, 0.0310, 0.0061, 0.5000, 0.0389;
  (7) 0.3982, 0.5000, 0.0991, 0.0017, 0.0010;
  (8) 0.5000, 0.0512, 0.1209, 0.3017, 0.0262;
  (9) 0.3279, 0.1510, 0.5000, 0.0039, 0.0172;
  (10) 0.5000, 0.2210, 0.2594, 0.0047, 0.0149;
  (11) 0.0151, 0.1400, 0.0840, 0.5000, 0.2609;
  (12) 0.3366, 0.5000, 0.1146, 0.0044, 0.0444;
  (13) 0.2541, 0.1549, 0.5000, 0.0420, 0.0490;
  (14) 0.3115, 0.0052, 0.0909, 0.0924, 0.5000;
}

probability (column15 | column4) {
  (0) 0.4293, 0.0253, 0.0059, 0.5000, 0.0395;
  (1) 0.3731, 0.0606, 0.0190, 0.0473, 0.5000;
  (2) 0.1899, 0.2192, 0.5000, 0.0143, 0.0766;
  (3) 0.5000, 0.4992, 0.0007, 0.0001, 0.0000;
  (4) 0.4311, 0.5000, 0.0043, 0.0311, 0.0335;
  (5) 0.3164, 0.1772, 0.0048, 0.0016, 0.5000;
  (6) 0.4953, 0.0041, 0.0001, 0.5000, 0.0005;
  (7) 0.5000, 0.0850, 0.1030, 0.1940, 0.1180;
  (8) 0.0333, 0.5000, 0.3938, 0.0534, 0.0195;
  (9) 0.4422, 0.0467, 0.5000, 0.0091, 0.0020;
  (10) 0.0048, 0.1248, 0.1820, 0.5000, 0.1884;
  (11) 0.3149, 0.5000, 0.0461, 0.1257, 0.0133;
  (12) 0.1322, 0.1117, 0.0246, 0.2315, 0.5000;
  (13) 0.5000, 0.3967, 0.0227, 0.0121, 0.0685;
  (14) 0.0164, 0.1455, 0.5000, 0.1576, 0.1805;
}

probability (column16 | column11) {
  (0) 0.0833, 0.0355, 0.0666, 0.3146, 0.5000;
  (1) 0.5000, 0.3946, 0.0998, 0.0024, 0.0032;
  (2) 0.0410, 0.3075, 0.5000, 0.0273, 0.1242;
  (3) 0.0501, 0.5000, 0.0457, 0.3704, 0.0338;
}

probability (column17 | column11) {
  (0) 0.4173, 0.0707, 0.5000, 0.0096, 0.0024;
  (1) 0.3517, 0.0962, 0.0056, 0.0465, 0.5000;
  (2) 0.5000, 0.0161, 0.1460, 0.1972, 0.1407;
  (3) 0.4261, 0.0364, 0.0367, 0.5000, 0.0008;
}

probability (column18 | column2) {
  (0) 0.5000, 0.3363, 0.0615, 0.0452, 0.0570;
  (1) 0.0208, 0.5000, 0.2540, 0.2130, 0.0122;
  (2) 0.1693, 0.2462, 0.5000, 0.0101, 0.0744;
  (3) 0.3074, 0.0650, 0.0334, 0.0942, 0.5000;
  (4) 0.0335, 0.2250, 0.1671, 0.5000, 0.0744;
  (5) 0.1378, 0.3121, 0.5000, 0.0460, 0.0041;
  (6) 0.1418, 0.2520, 0.0401, 0.5000, 0.0661;
}

probability (column19 | column2) {
  (0) 0.0198, 0.4440, 0.0188, 0.5000, 0.0174;
  (1) 0.1843, 0.2237, 0.5000, 0.0367, 0.0553;
  (2) 0.0398, 0.5000, 0.3300, 0.0406, 0.0896;
  (3) 0.0229, 0.2762, 0.1250, 0.0759, 0.5000;
  (4) 0.5000, 0.4447, 0.0466, 0.0053, 0.0034;
  (5) 0.3076, 0.0508, 0.0195, 0.5000, 0.1221;
  (6) 0.4035, 0.5000, 0.0537, 0.0383, 0.0045;
}

probability (column20) {
  table 0.1199, 0.1833, 0.1722, 0.1400, 0.3846;
}

